// Generated by Fuzzlyn on 2018-06-03 23:30:03
// Seed: 2031281874310924774
public class Program
{
    static uint s_1 = 131352970U;
    static short s_2 = 28619;
    static int[][] s_3 = new int[][]{new int[]{-1774446617, 126882188}, new int[]{-596631497, -2147483648, 1948871990, -1780980415, 1}, new int[]{-2147483647, -2147483647, 2147483646, 1601721898}, new int[]{0, 10, 1, -1, -1346322648}};
    static short[] s_4 = new short[]{-29436, 2605, -21207, -23871, -2249, 1, -8078, 6088, -10398, -10865};
    static ushort s_5 = 38108;
    static ulong[] s_6 = new ulong[]{9923424574744941794UL, 11684691835261632015UL, 7367739202104666125UL, 3660662817994349586UL, 1UL, 1UL};
    static short[, ] s_7 = new short[, ]{{-21672, -2, 0}, {3916, 1, 1}, {-24423, 10, 29895}, {-32767, 565, 32767}, {0, 10, 32766}, {-17968, 1, -11621}, {18349, 32766, -13586}, {-20723, -19560, 26817}, {1, -4682, -4161}, {0, -20767, 10549}};
    static byte[] s_8 = new byte[]{0, 216, 0, 1, 246, 254, 254, 1};
    static byte s_9 = 89;
    static ulong[][] s_10 = new ulong[][]{new ulong[]{1UL, 9076581261140287116UL, 18446744073709551615UL, 1UL, 18446744073709551614UL}};
    static long s_11 = 356667048277081332L;
    static ushort[] s_12 = new ushort[]{0, 0};
    static short s_13 = -12930;
    static ulong[] s_14 = new ulong[]{1UL, 1UL, 4998372001395284399UL, 16414471897895877133UL, 9082487368909453605UL, 13743667233946466310UL, 1245151368813249304UL, 6806724667964616413UL};
    static int s_15 = 0;
    static int[][] s_16 = new int[][]{new int[]{0}, new int[]{109270850}, new int[]{143989454, 131175359}, new int[]{1253010815}, new int[]{-2147483648, -751304585}, new int[]{-499464972, -426731124}, new int[]{-2147483647}};
    static long[][, ] s_17 = new long[][, ]{new long[, ]{{10L, 9223372036854775806L, 4039699263069617683L, 8294606193700376931L}, {5722310170586144406L, -2L, 8024407390890441096L, -1438906274083667069L}, {-8314167344768072492L, 2535234030100066490L, -9223372036854775808L, 0L}}, new long[, ]{{5758881199536050900L, -6814625557462390914L, 1757324305037417032L, 1L}, {-3448818754171483712L, -2482840765633094680L, -2860205295703770804L, -2261687470494139954L}, {6782579962912143228L, -9223372036854775807L, 1L, 8050693108094903964L}, {2L, 0L, 6197627964533657362L, -2160601257783679065L}, {6676374017934293350L, 2L, 8623827863513264564L, 0L}, {-1761471453206561172L, 5739504937357617832L, -9223372036854775807L, 9193922921991118541L}, {1L, -7792759020368770014L, 1L, 1L}}, new long[, ]{{7004933197193696827L, 1L, -3667342266579454057L, 1L}}, new long[, ]{{-2L, 5651995995641872858L, -9223372036854775807L, 10L}}, new long[, ]{{1L, 2143785714834476753L, -818870127358507017L, -4453830599223226960L}, {0L, -9223372036854775808L, -10L, 0L}, {1365877492471869814L, -1641980621043113453L, -5803607233440128153L, 4733946596563571846L}}, new long[, ]{{3370788650776916655L, 3818210593063978929L, -1621223288698796489L, -4867870525985171640L}, {8913862983336128396L, 1L, 0L, -23786432546674599L}, {1L, -10L, 9223372036854775806L, 9223372036854775807L}, {-8876171818965474856L, -9223372036854775808L, -1L, 1273361772823336986L}, {9223372036854775807L, 9223372036854775807L, 0L, 1524914818625342990L}, {1L, 6396732310213882466L, -9223372036854775807L, 9223372036854775807L}}, new long[, ]{{1L, -2L, 9223372036854775807L, 7602671598207354601L}, {9223372036854775807L, 4740131856433995441L, 5681939387513103528L, 0L}, {9223372036854775807L, -9223372036854775807L, 2229092314301524208L, -5701417275835774909L}, {0L, 1L, -7846687203090192751L, 1642629384535408377L}, {9223372036854775806L, 3223076980546040565L, -9223372036854775807L, 511092077646612884L}, {9223372036854775807L, 3291716921056527116L, -774382778885309564L, -1413007812384805786L}}};
    static ulong s_18 = 6234943867654938069UL;
    static bool s_19 = true;
    static char s_20 = 'u';
    static long s_21 = -2539032025397598978L;
    static int[] s_22 = new int[]{1366992177, 1232133268};
    static sbyte[, ] s_23 = new sbyte[, ]{{0, -1}, {-80, 0}, {127, -45}};
    static byte s_24 = 93;
    static sbyte s_25 = 107;
    static long[] s_26 = new long[]{0L};
    static short s_27 = 32766;
    static long[][] s_28 = new long[][]{new long[]{-2319179058783098971L, 1852990270704190065L, 175853267825959490L, 9223372036854775807L, 456631737203904243L, -9223372036854775808L, -1395753974995534162L, -3789425363087440962L}, new long[]{8652950357745329660L, -7649303450026578941L}, new long[]{8744798552689836691L, -5335745509950617348L, 9080653881408813113L, 9019164247205041555L, 0L, 1L}};
    static short[] s_29 = new short[]{1, 1, 1, -32768};
    static uint s_30 = 0U;
    static sbyte[] s_31 = new sbyte[]{125};
    static uint s_32 = 0U;
    static ulong s_33 = 18446744073709551614UL;
    static short s_34 = 1;
    static ushort s_35 = 1;
    static bool s_36 = true;
    public static void Main()
    {
        M0();
    }

    static void M0()
    {
        M1();
        s_29[0] = -130;
    }

    static char M1()
    {
        if (true)
        {
            int[] var0 = new int[]{-1082639554, 720384427, 224992051, -2147483648, 283783711, 1602686910, 1, -2147483647, -1513249519, -10};
            M2(s_9);
        }
        else
        {
            if (false)
            {
                s_30 = (uint)M2(s_24++);
            }

            s_36 = s_36;
            ulong var1 = (ulong)M4();
            s_27 = -17445;
            long var2 = s_1 + 10;
        }

        int var3 = (int)M17();
        M25(s_6[0], (int)M9(s_22[0]--));
        s_31[0] = (sbyte)M2(s_8[0]);
        return s_20;
    }

    static ulong M2(byte arg0)
    {
        if (true)
        {
            arg0 = arg0;
            if (true)
            {
                if (true)
                {
                    byte[] var0 = new byte[]{0, 199, 234, 254, 225, 255, 1};
                }
                else
                {
                    M3((uint)(arg0 * -3059), M3((uint)M3(211509813U, 'm', 703487824), ';', (int)((uint)M3((uint)((long)M3((uint)M3((uint)M3((uint)('A' ^ (ulong)(12532 * M3((uint)M3(1U, 'q', 617506858), (char)((long)M3(549825329U, '#', 0) | (ushort)M3(1887744968U, '*', (int)M3(0U, (char)(948028290 / (int)((int)M3(1U, (char)(2763382917U | (uint)M3((uint)M3((uint)M3((byte)M3(1637761187U, M3(0U, ',', -1745041818), (int)((long)M3(2058882707U, M3((uint)M3(922528796U, '\\', (int)M3(3458570756U, 'B', 0)), '_', 59875 % (int)((int)M3((uint)M3(0U, (char)('_' % (char)(M3(1U, M3((uint)(64379 / (byte)(arg0 | 1)), (char)(0 * M4()), -865112951), s_22[0]++) | 1)), s_15), s_20, 1) | 1)), s_16[0][0]) + 404)) - (uint)M5(), s_20, -2147483648), s_20, s_15--), s_20, s_15)), s_3[0][0]--) | 1)), s_22[0]))), M3((uint)M19(), s_20, -248808075) / (char)('-' | 1)))), '[', (int)M19()), '8', s_20 | s_9++), 'F', s_15) / (short)(s_2 | 1)), s_20, -10) | s_22[0]++)), (int)(s_1-- | s_31[0]--));
                    ++s_5;
                }
            }
            else
            {
                s_32 = s_1;
            }
        }

        {
            ushort var1 = s_5;
            s_17[0] = s_17[0];
            s_14[0] = s_18;
            {
                {
                    s_16 = s_3;
                    M26();
                    s_17 = s_17;
                    s_14[0] = s_10[0][0];
                    s_30 = (uint)M22();
                }

                s_26 = s_28[0];
                --s_31[0];
                M30(s_17[0][0, 0], s_12[0]);
                M10(s_16[0][0]);
                s_16[0] = new int[]{-2147483647, 1, 2};
                s_17 = s_17;
            }

            s_10 = M15((long)M28(M25(s_18, s_16[0][0]), new uint[][][]{new uint[][]{new uint[]{4284124036U}, new uint[]{1192700185U, 2452165447U}, new uint[]{995113782U}, new uint[]{361842972U, 1U, 395974398U}, new uint[]{3484739895U}, new uint[]{2701437392U}, new uint[]{3634014795U, 39424411U, 1264616170U, 2755421325U}, new uint[]{1U, 4294967295U, 2579702693U, 745576859U}, new uint[]{0U}}, new uint[][]{new uint[]{0U, 0U, 1U, 1465750178U}, new uint[]{538859548U, 1431903785U, 0U, 3633205269U}, new uint[]{1U, 3616487178U, 1U, 2157164364U}, new uint[]{0U, 1881144349U}, new uint[]{2366404753U}, new uint[]{1747664162U, 1U, 1U}, new uint[]{1864783356U, 4294967294U, 632164186U}, new uint[]{1U}, new uint[]{2U}}, new uint[][]{new uint[]{1U}, new uint[]{1581555499U, 1U}, new uint[]{1U, 4211792771U, 1U}, new uint[]{4294967294U, 0U}, new uint[]{1U}}, new uint[][]{new uint[]{3094573829U}, new uint[]{2494733251U, 3933599160U, 1U, 3037731183U}, new uint[]{0U, 4276504962U, 4294967294U}, new uint[]{10U, 2167939872U}, new uint[]{4294967295U, 966981207U, 4033127462U, 1257329417U}, new uint[]{1573107542U, 2020242649U}, new uint[]{2052320357U, 1U}}, new uint[][]{new uint[]{1203266857U}, new uint[]{2730304994U, 4014942822U, 3180860639U, 4294967294U}, new uint[]{340028601U, 2107767915U, 2U, 0U}, new uint[]{24092868U, 0U, 2U, 1U}, new uint[]{0U, 2652457793U, 4294967294U}, new uint[]{1956989637U, 0U, 3367767921U}, new uint[]{2111404855U, 4294967294U, 4294967294U}, new uint[]{1U, 764096082U}}, new uint[][]{new uint[]{4294967295U, 3977937117U}, new uint[]{1U, 1U, 4294967295U, 4294967294U}, new uint[]{442260512U}, new uint[]{0U}, new uint[]{1823174872U, 0U}}, new uint[][]{new uint[]{2925203405U, 2955312679U}, new uint[]{0U}}}), new char[][]{new char[]{'w', 'b'}, new char[]{'n', 'e', 'e', '0'}, new char[]{'e', '/', 'W'}, new char[]{'"', 'Y'}, new char[]{')', ',', 'm'}, new char[]{'3', 'h'}, new char[]{'W', 'E', 'J'}}, s_24);
            {
                s_7 = new short[, ]{{18641}, {-1409}, {-18499}, {0}, {32767}, {-32768}, {0}, {3868}, {29627}, {1}};
            }
        }

        s_30 = (uint)M29(s_18);
        M17();
        {
            s_23 = s_23;
            {
                s_17[0] = s_17[0];
                if (false)
                {
                    s_16[0][0] = (int)M17();
                }
            }

            s_35 = 0;
        }

        return 10313347940719445823UL;
    }

    static char M3(uint arg0, char arg1, int arg2)
    {
        arg2 = 2001709166;
        byte var0 = 33;
        arg1 = arg1;
        return '5';
    }

    static short M4()
    {
        s_1 = s_1;
        s_1 = s_1;
        s_1 ^= s_1;
        return (short)(2737310544539962828L ^ M5());
    }

    static int M5()
    {
        bool var0 = true;
        ushort var1 = (ushort)(31061 / (short)((short)(2 + (byte)(1L * s_1)) | 1));
        var0 = var0;
        M6();
        if (false)
        {
            s_29[0] <<= s_15++;
        }

        if (var0)
        {
            s_2 = s_2;
            s_10[0] = s_10[0];
        }

        if (true)
        {
            if (s_19)
            {
                if (var0)
                {
                    var0 = var0;
                }
                else
                {
                    s_22 = s_3[0];
                }
            }
        }

        return s_16[0][0];
    }

    static int M6()
    {
        s_2--;
        {
            if (false)
            {
                s_3 = new int[][]{new int[]{0, 2147483646, 1980012766, 1574016061, -1022064620, 1253960025}, new int[]{1764249481, 1, -45734671, 2147483646}};
            }
            else
            {
                s_3[0][0] = s_3[0][0];
            }

            s_3[0][0] = 0;
        }

        s_3[0][0] = s_3[0][0];
        if (false)
        {
            s_3 = new int[][]{new int[]{70503771, -1, -2147483648, 438930371, -710116175, 0}};
            s_3 = new int[][]{new int[]{-1196920868, 2147483646, -2147483647}, new int[]{-1754509615, -1, 644444391, 2}};
            if (1UL == 97)
            {
                {
                    s_2 = s_2;
                }
            }
            else
            {
                {
                    if (true)
                    {
                        s_3[0] = s_3[0];
                        s_4 = s_4;
                        s_3[0] = s_3[0];
                        s_3[0][0] = s_3[0][0];
                        s_4 = s_4;
                    }

                    return s_3[0][0];
                }

                if (true)
                {
                    s_2 = s_4[0];
                }

                int var0 = s_3[0][0]++;
            }

            return s_3[0][0]--;
        }
        else
        {
            {
                M7(s_25, 0L);
                M28(new bool[]{false, false, true, false, false, false, true, true, false}, new uint[][][]{new uint[][]{new uint[]{1838689308U}, new uint[]{1020000964U, 3554792540U, 1U, 0U, 4294967294U}}, new uint[][]{new uint[]{3594201633U, 3795912304U, 208794368U, 2U}}, new uint[][]{new uint[]{1U, 4294967294U, 1U, 10431461U, 1788243341U}, new uint[]{4294967295U}}, new uint[][]{new uint[]{4294967294U, 1488950038U}}, new uint[][]{new uint[]{4294967295U}}, new uint[][]{new uint[]{1U}}, new uint[][]{new uint[]{2135316746U, 4294967295U}}, new uint[][]{new uint[]{1491679530U, 4294967295U, 3557429019U}}, new uint[][]{new uint[]{1735466822U, 3581228080U, 0U, 1U, 1U}}, new uint[][]{new uint[]{2281002243U, 10U, 858537612U, 0U, 1062141054U}, new uint[]{2785706779U, 2936327169U, 2U}}});
            }

            if (true)
            {
                s_19 = s_19;
                if (false)
                {
                    M25(M29(s_10[0][0]), s_3[0][0]++);
                    s_28[0][0] = s_28[0][0]--;
                }

                {
                    s_10 = new ulong[][]{new ulong[]{5167903083174301064UL, 1UL}, new ulong[]{16367819888302342990UL, 2UL}, new ulong[]{0UL, 1UL, 2UL}};
                }

                s_26 = new long[]{10L, -24701794249968434L, 1L, -10L, -4134101497775077132L, 10L, 1L};
                s_24 = s_8[0];
                {
                    s_31 = s_31;
                    if (s_19)
                    {
                        s_3 = s_16;
                        M25((ulong)M18(s_3[0][0], 8746019951296525176L), s_16[0][0]);
                        bool var1 = true;
                        s_18 = s_10[0][0];
                    }

                    s_19 = s_19;
                    s_25 = 126;
                }

                s_3[0][0] |= (int)M12(1132715697, s_29[0]);
                s_29 = s_29;
                M22();
            }

            {
                M27(true);
            }

            byte var2 = 0;
            s_17 = s_17;
        }

        return s_3[0][0]--;
    }

    static char[] M7(sbyte arg0, long arg1)
    {
        if (true)
        {
            {
                s_2 = s_2;
            }

            if (false)
            {
                arg0 = arg0;
                if (true)
                {
                    int var0 = s_3[0][0];
                    M8();
                    bool var1 = false;
                    {
                        if (true)
                        {
                            arg0 = arg0;
                            s_2 = (short)((ushort)(842810226U + (byte)(0UL ^ (ushort)M8())) & (ulong)M8());
                        }
                        else
                        {
                            s_5 = s_5;
                            s_5 = s_5;
                            ulong[] var2 = new ulong[]{9152449103741976796UL, 11324926493132087720UL, 14488371510723989236UL, 1UL, 7580264619393013688UL, 10800333967646441027UL};
                            var2 = var2;
                        }
                    }

                    if (var1)
                    {
                        s_5 = s_5;
                        if (var1)
                        {
                            byte[][][] var3 = new byte[][][]{new byte[][]{new byte[]{8, 1, 0, 254, 248, 1}, new byte[]{0}}, new byte[][]{new byte[]{252, 1, 1, 0, 254, 19, 139}, new byte[]{31, 0, 1, 111, 254, 225, 255}, new byte[]{242}, new byte[]{0, 0}, new byte[]{1, 196, 71}}};
                            var3[0] = var3[0];
                            {
                                s_1 = 1U;
                                M8();
                                s_4 = new short[]{32767, -25537, -28666, 0, -2512, 26863, 32767, 20564, -32768};
                                s_1 = 3436103321U;
                                byte[,, ] var4 = new byte[,, ]{{{117, 254, 102, 0, 8, 21, 1, 180, 94, 1}, {1, 10, 86, 168, 74, 153, 134, 215, 117, 255}}, {{0, 150, 1, 215, 0, 50, 255, 1, 175, 1}, {1, 0, 1, 254, 0, 17, 9, 1, 0, 63}}, {{238, 0, 202, 0, 42, 112, 28, 0, 0, 221}, {33, 10, 254, 248, 1, 1, 89, 1, 255, 0}}, {{0, 10, 0, 76, 0, 0, 114, 31, 236, 0}, {176, 1, 1, 0, 1, 0, 254, 57, 1, 255}}, {{1, 225, 189, 19, 0, 248, 0, 254, 234, 147}, {254, 0, 205, 2, 0, 254, 1, 1, 1, 133}}, {{84, 174, 0, 0, 1, 159, 210, 104, 110, 1}, {0, 0, 190, 0, 1, 1, 254, 0, 96, 1}}, {{207, 0, 0, 1, 55, 35, 1, 65, 232, 0}, {1, 0, 0, 1, 246, 1, 1, 87, 32, 0}}, {{1, 191, 81, 152, 2, 96, 1, 0, 1, 252}, {0, 1, 195, 0, 255, 214, 0, 224, 255, 153}}};
                                ulong var5 = 1UL;
                                M8();
                                arg1 >>= 1078707926;
                            }
                        }
                        else
                        {
                            M8();
                        }

                        M8();
                        s_3[0] = s_3[0];
                        s_4[0] = s_2;
                        var1 = var1;
                        s_5 = s_5;
                        {
                            M8();
                            var1 = var1;
                        }

                        if (var1)
                        {
                            uint var6 = 2393024001U;
                        }
                        else
                        {
                            M8();
                            byte var7 = 169;
                            ushort var8 = s_5++;
                            char var9 = (char)M8();
                            M8();
                        }
                    }
                    else
                    {
                        s_3 = new int[][]{new int[]{0, 906185467, -2147483647, 10}, new int[]{-2147483647, -704152659, 2147483647, -1841316204}, new int[]{1, 275988119, -1711504410, -1603955762}};
                        long var10 = arg1;
                    }

                    s_3[0] = new int[]{2008997930, 2, 0, -274462637, 1, -1716229591, 2, 1663395756};
                }
                else
                {
                    {
                        s_5 = (ushort)M8();
                        s_5 = s_5--;
                        short var11 = s_4[0]++;
                        s_1 = 1U;
                        s_3[0][0] = (int)(s_5 % (long)((long)M8() | 1));
                        s_3 = new int[][]{new int[]{-1504446372, 1823399577}, new int[]{199732517, -1713773506}, new int[]{-2147483648}, new int[]{1609854738, 2080817640, -94414958}};
                    }
                }
            }
            else
            {
                s_1 = 2644169200U;
                if (true)
                {
                    s_2 = s_2;
                    if (false)
                    {
                        uint var12 = s_1;
                        s_4 = s_4;
                    }

                    s_3 = s_3;
                    s_2 = s_2--;
                    s_5 = s_5;
                    M8();
                    s_3[0][0] = s_3[0][0]++;
                    s_1 &= 2424510999U;
                }

                {
                    s_3[0] = s_3[0];
                }

                if (false)
                {
                    s_6 = s_6;
                    {
                        M8();
                        if (true)
                        {
                            {
                                M8();
                                M8();
                                s_4 = s_4;
                                M8();
                                s_1 = M9(s_15);
                            }

                            s_22 = s_3[0];
                        }
                        else
                        {
                            s_7 = s_7;
                        }
                    }

                    M17();
                    s_14 = new ulong[]{2321926756351018028UL, 0UL, 1UL, 0UL, 3092149797132218170UL, 10UL, 1UL, 18446744073709551615UL, 1964115709191125888UL};
                    if (s_19)
                    {
                        if (s_19)
                        {
                            if (s_19)
                            {
                                s_17[0][0, 0] = (long)M19();
                                ushort var13 = 1;
                                char var14 = 'I';
                                s_1--;
                            }
                        }
                        else
                        {
                            {
                                s_4[0] = s_13;
                            }

                            s_22[0] %= (int)(s_16[0][0] | 1);
                            --s_15;
                            s_10[0] = new ulong[]{16462063127222102460UL};
                        }

                        s_5 >>= s_15++;
                    }

                    {
                        s_4 = new short[]{32766, 32767, -32258, -32768, 2, -32767, -10, -32767, 29448, -1636};
                        s_11 = arg1;
                        if (s_19)
                        {
                            s_4[0] = 0;
                        }
                        else
                        {
                            M19();
                        }
                    }

                    s_12[0] = s_12[0];
                    s_22[0] = 184 - s_4[0];
                }

                {
                    int var15 = s_15;
                    if (s_19)
                    {
                        if (false)
                        {
                            s_22 = s_22;
                            if (s_19)
                            {
                                s_8 = s_8;
                                M19();
                            }

                            int var16 = s_22[0];
                            M9(s_22[0]);
                            int var17 = s_15;
                        }
                        else
                        {
                            s_7 = s_7;
                            ulong[, ] var18 = new ulong[, ]{{10520551242614621469UL, 11252107816249292048UL, 18446744073709551614UL, 10647622897704139190UL, 2UL, 0UL, 1UL, 0UL}, {14546561835159784860UL, 0UL, 1UL, 1UL, 17702143804354807061UL, 10930877712040967501UL, 1UL, 18446744073709551615UL}, {15505448758476978533UL, 18446744073709551614UL, 12722609379671083524UL, 0UL, 7755253931219738833UL, 1184039329378874841UL, 10UL, 0UL}, {2784771616510965058UL, 0UL, 1UL, 13298251517881178650UL, 1UL, 13063777149667738565UL, 0UL, 10UL}, {12341520832630348857UL, 2UL, 8011692676149897513UL, 18446744073709551614UL, 11203751149623041832UL, 9064408941456182862UL, 1UL, 0UL}};
                        }

                        s_19 = true;
                    }
                }
            }

            {
                if (false)
                {
                    s_21 = (long)('\\' * (uint)M19());
                }
                else
                {
                    s_16[0] = s_22;
                    {
                        s_12 = new ushort[]{3617, 35884, 65534, 36553};
                    }

                    s_5 = s_12[0]--;
                    if (s_19)
                    {
                        bool[][] var19 = new bool[][]{new bool[]{true}, new bool[]{true}};
                    }
                    else
                    {
                        M14(32766, s_16[0][0]++, s_8[0], s_20--, new bool[]{true, true}, s_8[0], s_4, new byte[]{0}, s_8[0]);
                    }

                    byte var20 = (byte)M10(s_16[0][0]);
                    M9(s_3[0][0]++);
                }

                M17();
            }

            s_6 = s_10[0];
            s_19 = arg0 != s_16[0][0];
            if (s_19)
            {
                if (s_19)
                {
                    sbyte var21 = -1;
                    arg1 = s_17[0][0, 0];
                    byte var22 = 1;
                    if (s_19)
                    {
                        s_16 = new int[][]{new int[]{1102007258, 0, 2, 2147483647, -397015226, -772731316, 10}, new int[]{-980616469, -10, 2147483646, -1605031695, 591602585}, new int[]{429242586}, new int[]{-1332742270, 205713901, 1537425952, -414139418, 375783491, 2147483646}, new int[]{-2147483648}, new int[]{2147483646, 2147483646, -1285967196, 2}};
                        arg0 = var21;
                        s_21 = (long)M18(s_15, s_17[0][0, 0]);
                    }

                    M10(s_15);
                }

                M17();
                s_2 = s_13;
                s_17[0][0, 0] = -10L;
                if (false)
                {
                    s_2 = s_4[0];
                    {
                        s_23 = s_23;
                        s_23 = new sbyte[, ]{{-13, 34, -119}, {-10, 1, 10}, {-1, -120, 2}, {1, 60, -18}, {127, 1, 0}, {95, 10, -54}, {-89, -118, -3}};
                        if (M23(s_6[0], (char)(s_8[0] & 1), new ushort[][]{new ushort[]{21101, 23462, 64783, 0, 41302}, new ushort[]{30363}, new ushort[]{38447, 1}, new ushort[]{47196, 1}, new ushort[]{1, 0}, new ushort[]{43893, 61796, 1, 25491, 3315}, new ushort[]{52146, 0, 65534, 54534, 24722}, new ushort[]{63965, 29182, 10, 26669, 3801}, new ushort[]{17935, 65535, 46235, 14633}, new ushort[]{0, 40694, 65534, 30228, 27305}}, s_18, 0, s_6[0], s_12[0]))
                        {
                            M14(s_2, s_15, 255, s_20, new bool[]{false, false, true, true, false, true, true, true}, s_8[0], s_4, s_8, s_8[0]);
                            char var23 = s_20;
                            s_6[0] = s_14[0];
                            s_19 = s_19;
                            s_16[0][0] = s_3[0][0];
                            s_13 = 5945;
                            M14((short)(arg0 / (long)(arg1 | 1)), -2, s_8[0], '<', new bool[]{false, false, false, false}, s_9++, new short[]{-1, 32767, -7969, 13765}, new byte[]{1, 1, 23, 249, 241, 202, 0, 42, 3}, s_8[0]);
                        }
                    }

                    short var24 = s_7[0, 0];
                }

                {
                    uint[] var25 = new uint[]{2058876571U, 1355895405U, 0U, 4294967294U, 618428076U, 2416220710U, 1U, 4161804504U};
                    ulong var26 = (ulong)M21(s_21, -9223372036854775807L);
                    uint var27 = 1U;
                    s_7[0, 0] = s_2--;
                    if (s_19)
                    {
                        short var28 = s_2;
                    }

                    s_17[0][0, 0] = -9223372036854775808L;
                    var25 = new uint[]{0U, 1012297865U, 1U, 421100845U, 1685885526U, 1U, 0U, 1U, 10U};
                }

                if (s_19)
                {
                    if (true)
                    {
                        M23(s_10[0][0], s_20--, new ushort[][]{new ushort[]{25604}, new ushort[]{32295}, new ushort[]{44857}, new ushort[]{52563}, new ushort[]{35151}, new ushort[]{48956}, new ushort[]{0}, new ushort[]{0}}, (ulong)(M9((int)M18(s_3[0][0], s_17[0][0, 0])) % (short)(25745 | 1)), (int)M9(s_16[0][0]), s_14[0], s_5);
                        if (s_19)
                        {
                            return new char[]{'+', 'w'};
                        }
                        else
                        {
                            s_16[0][0] = 2147483647;
                        }
                    }
                    else
                    {
                        s_13 = s_7[0, 0];
                        s_2 = s_4[0];
                        s_8 = new byte[]{254, 110, 223, 253, 139, 255, 35};
                        s_23[0, 0] = (sbyte)M21(s_21, 6872700847579036274L);
                        M23((ulong)M9(-1179135468), s_20, new ushort[][]{new ushort[]{1}, new ushort[]{65534}, new ushort[]{27224, 7097}, new ushort[]{19036, 1}, new ushort[]{28849}, new ushort[]{26133, 48156}}, 0U * s_6[0], s_3[0][0], s_18, s_5);
                        s_7[0, 0] = s_7[0, 0];
                    }

                    {
                        if (s_19)
                        {
                            s_22 = new int[]{-2147483648, 1, -1138535413, -1217305134, 10, 323627490};
                            s_24 = s_9--;
                            s_12 = new ushort[]{65534, 62857};
                            byte var29 = s_24;
                        }
                    }

                    s_18 = 1UL;
                    if (true)
                    {
                        s_10 = s_10;
                        char[][][][] var30 = new char[][][][]{new char[][][]{new char[][]{new char[]{'?', 'W', 'v'}, new char[]{'v', 'd', 'M'}, new char[]{'.', '*', 'w'}, new char[]{'^', 'z'}, new char[]{'8'}, new char[]{'z', 'D', ','}}}, new char[][][]{new char[][]{new char[]{'@'}, new char[]{'~'}, new char[]{'(', 'z'}, new char[]{'f'}, new char[]{'C'}, new char[]{':'}}}, new char[][][]{new char[][]{new char[]{'t', 'K', '4'}, new char[]{'C', 'q'}}}, new char[][][]{new char[][]{new char[]{'O'}, new char[]{'y', 'R', 'k'}, new char[]{'F'}}}, new char[][][]{new char[][]{new char[]{';', 'i'}, new char[]{',', '$'}, new char[]{'W'}, new char[]{'>'}, new char[]{'H', 'W', '@'}, new char[]{'o', 'U', ')'}, new char[]{'P', 'H'}, new char[]{'N', 'q'}, new char[]{'2', '1'}}}, new char[][][]{new char[][]{new char[]{'W', 'U'}, new char[]{'r'}, new char[]{'W', 'W'}, new char[]{'7', ',', 'e'}, new char[]{'8'}, new char[]{'k'}, new char[]{'t', '?', 'p'}, new char[]{'n', '#'}, new char[]{'b', 'O', '9'}}}, new char[][][]{new char[][]{new char[]{'e'}, new char[]{'Y', 'D'}, new char[]{',', '_'}, new char[]{'f', 'z', '0'}, new char[]{'!', 'y', 'u'}, new char[]{'w', '8', 'h'}, new char[]{'<', '<'}, new char[]{'G', 'l'}, new char[]{'v', 'j', 'z'}, new char[]{'q', 'J'}}}};
                    }

                    bool var31 = s_19;
                    s_7[0, 0] = s_7[0, 0];
                }
            }
        }
        else
        {
            s_24 = s_24;
            s_3[0] = new int[]{1, 2147483647};
            if (s_19)
            {
                sbyte var32 = 97;
                s_24 = (byte)('`' + s_20);
                if (s_19)
                {
                    s_25 = -117;
                    uint var33 = s_1;
                    M20();
                    s_14 = s_6;
                    int var34 = (int)M12(s_5 | 48001, s_4[0]);
                    byte[] var35 = new byte[]{0, 224, 220, 177, 250, 0, 0, 31, 182};
                }
            }
            else
            {
                short var36 = M11((sbyte)M22(), new int[]{848756811}, 'G');
                {
                    sbyte var37 = s_23[0, 0];
                    uint[] var38 = new uint[]{0U, 0U, 0U, 0U, 2471246806U, 634297204U, 3049344748U, 4099776U, 4294967295U};
                    if (s_19)
                    {
                        s_7 = s_7;
                        s_5 = s_5;
                        s_18 = s_6[0];
                        {
                            ulong var39 = 1107057491611870263UL;
                            s_14[0] = 10UL;
                            s_4 = s_4;
                        }

                        s_26 = new long[]{9223372036854775807L, 6328071844543745899L, 2317411292521588184L, -3110501019029468241L, -1L, 9223372036854775807L, -9223372036854775808L, 3019263275309796632L, -1642162070816578107L};
                        s_27 = s_2;
                        s_8[0] = M19();
                    }

                    s_28 = s_28;
                    long[][] var40 = s_28;
                    {
                        if (s_19)
                        {
                            s_23[0, 0] = s_25;
                        }
                    }

                    s_23 = s_23;
                }

                byte var41 = s_9;
            }
        }

        byte var42 = s_9;
        if (s_19)
        {
            byte var43 = 42;
            s_28 = s_28;
            if (false)
            {
                M24();
            }

            s_10 = s_10;
            if (s_19)
            {
                s_16[0][0] = s_3[0][0];
                {
                    if (s_19)
                    {
                        s_7[0, 0] = s_7[0, 0];
                        s_26[0]--;
                    }

                    s_29 = s_4;
                }

                if (s_19)
                {
                    {
                        M17();
                        s_4 = s_4;
                        ulong var44 = (ulong)(-118 | s_11);
                        char[] var45 = new char[]{'/', 'z', 'c'};
                        s_11 = s_11;
                    }

                    sbyte[] var46 = new sbyte[]{2, 127, -83, 71, 2, -75, 1, -107, 1};
                    int var47 = s_15;
                }

                {
                    if (s_19)
                    {
                        long var48 = s_21;
                        s_30 = (uint)(var42++ - M10(1265183870));
                        s_8[0] = s_8[0];
                        s_10[0][0] = s_18;
                    }
                    else
                    {
                        s_28[0] = s_28[0];
                        s_26 = s_26;
                        M18(528724020, (long)(s_24 - 5558268072867979159UL));
                    }
                }

                s_22[0] = s_15;
            }
            else
            {
                ulong var49 = s_18;
                M26();
            }
        }

        {
            s_17 = s_17;
        }

        bool var50 = s_14[0] >= s_8[0]++;
        long var51 = 0L;
        M16(s_19, s_20);
        M16(s_19, s_20);
        M8();
        return M27(s_9 > s_16[0][0]);
    }

    static byte M8()
    {
        short[] var0 = s_4;
        s_3 = s_3;
        return 2;
    }

    static uint M9(int arg0)
    {
        M10((int)(s_1 - 54));
        ushort var0 = s_5;
        ushort var1 = s_5;
        byte[] var2 = new byte[]{5, 0, 0, 255, 244};
        bool[] var3 = M25(s_10[0][0], s_16[0][0]);
        return (uint)M10(175530447);
    }

    static long M10(int arg0)
    {
        arg0 = arg0;
        if (true)
        {
            s_4[0] = s_4[0];
            M11(-127, s_3[0], (char)M21(s_17[0][0, 0], s_11));
            s_3[0][0] = s_15--;
            M20();
        }

        M22();
        s_16 = s_3;
        return s_21--;
    }

    static short M11(sbyte arg0, int[] arg1, char arg2)
    {
        if (s_1 > s_4[0])
        {
            {
                M12(s_16[0][0], s_4[0]);
                if (true && true)
                {
                    if (M14(-24343, (int)(s_11 / (char)(arg2 | 1)), (byte)(s_1++ * 1U), arg2, new bool[]{false, true, true, false, true, true, true}, 0, s_4, s_8, s_9))
                    {
                        s_10 = M15((long)(s_2-- ^ 1), new char[][]{new char[]{'k', '8', '<', 'n', 'f'}, new char[]{'N'}, new char[]{'R', 'G', '!'}, new char[]{'~'}, new char[]{'Z', 'z', '%'}, new char[]{'o', ':', 'S', 'z'}, new char[]{'$', '~', 'c', '6', '|'}}, s_8[0]);
                        s_3 = s_3;
                        s_4[0] %= (short)((short)(-965268454 % (short)(s_2 | 1)) | 1);
                    }
                    else
                    {
                        s_5 = s_12[0];
                    }

                    {
                        {
                            byte[] var0 = s_8;
                            M12(s_3[0][0], s_13);
                        }

                        short[, ] var1 = s_7;
                    }
                }

                M13(M23((ulong)M19(), arg2, new ushort[][]{new ushort[]{65534, 1, 0, 60191, 54373, 49389}, new ushort[]{15360, 10476, 30455, 49929, 0, 59339}, new ushort[]{61442, 10, 1, 6632, 0, 1}, new ushort[]{0}, new ushort[]{15592, 1}, new ushort[]{65535, 47228, 26510, 2, 15282}, new ushort[]{45940}, new ushort[]{18626, 2551, 1, 1, 33865, 1}, new ushort[]{1, 61148, 65535, 10, 65534, 14936}, new ushort[]{22922, 2040, 65534, 24693}}, (ulong)M12((int)M22(), s_4[0]), 1843392319, s_10[0][0], s_12[0]));
            }
        }

        return s_4[0]--;
    }

    static uint M12(int arg0, short arg1)
    {
        if (218 <= s_6[0])
        {
            if (true)
            {
                if (true)
                {
                    s_1 = (uint)(-32768 ^ s_5);
                    if (false)
                    {
                        M13((1 * (byte)(0UL * s_5--)) != arg0);
                        if (false)
                        {
                            {
                                arg0 = arg0;
                            }
                        }

                        if (false)
                        {
                            s_6 = new ulong[]{18446744073709551614UL, 1UL, 1UL, 13878814187715880270UL, 18446744073709551614UL};
                            if (false || false)
                            {
                                s_1 = s_1;
                            }
                            else
                            {
                                s_1 = 2571692272U;
                                M13(false);
                            }
                        }

                        s_4 = s_4;
                    }

                    s_1 = s_1;
                    M13(-2786 == 1);
                    if (s_1 < -8570530972082278730L)
                    {
                        arg0 = -2147483648;
                        ushort var0 = (ushort)(s_5 * 'w');
                    }
                    else
                    {
                        return 1076513623U;
                    }

                    if (s_6[0] == s_1)
                    {
                        s_6 = new ulong[]{10UL, 18446744073709551614UL, 2UL, 10945531926759212509UL, 13000625857570854551UL, 3511844194440823655UL};
                        if (false)
                        {
                            s_3[0][0] += -46668007;
                            M13(true);
                            uint var1 = s_1;
                            s_5 = 1;
                            uint var2 = s_1;
                            s_6 = s_6;
                            if (true)
                            {
                                s_7 = new short[, ]{{-21027, -24142, 32766}, {-29040, -27236, -19565}, {0, 32767, -2860}};
                                M13(false);
                                s_1 = var2;
                                s_3[0] = s_3[0];
                            }
                        }
                        else
                        {
                            if (M14(s_7[0, 0]--, arg0, M19(), (char)M18(s_3[0][0]--, s_11), new bool[]{true, false, true, true}, 1, s_4, s_8, s_9) & (s_12[0]++ != (sbyte)M18(s_3[0][0], s_11)))
                            {
                                if (true)
                                {
                                    s_1 = 239206790U;
                                    M16(M14(s_2, 1, M19(), 'v', new bool[]{true, true, true, true, true, false, true, false, false, false}, 0, s_4, s_8, s_9) && (0 < 0), (char)M18(s_3[0][0]++, s_11--));
                                    s_7 = s_7;
                                    {
                                        s_10[0][0] = (ulong)M17();
                                    }

                                    arg0 = (int)(s_12[0] & s_1);
                                    s_1 = s_1;
                                    uint var3 = s_1;
                                    s_6 = s_14;
                                }
                                else
                                {
                                    s_12 = s_12;
                                }

                                s_12[0] = 29386;
                            }
                            else
                            {
                                if (true)
                                {
                                    s_12[0] = (ushort)(arg0++ * s_2);
                                }
                                else
                                {
                                    s_14 = new ulong[]{1618550959650587292UL, 1UL};
                                    long var4 = s_11;
                                }
                            }
                        }

                        s_12[0] = s_5;
                        s_12[0] = s_12[0]--;
                    }
                    else
                    {
                        s_14 = new ulong[]{4653956775201338244UL, 10710230034267870263UL, 16454194950168252638UL, 17052446798961609104UL, 1335148665543441489UL, 11853658388558216307UL};
                        s_9 = s_9++;
                        s_12[0] = 0;
                        s_2 = 10;
                    }

                    s_13 = 1;
                    M21(s_11--, 8089028356060929975L);
                }
                else
                {
                    return s_1;
                }

                s_15 = s_15;
                if (true != false)
                {
                    s_8 = s_8;
                    long var5 = -2747073752717456918L;
                    {
                        s_16 = s_16;
                        s_5 = s_12[0];
                        byte var6 = s_8[0];
                        M15(-10L, new char[][]{new char[]{'+', 'v'}, new char[]{'k', '!'}, new char[]{'C', 'E'}, new char[]{'"', 'M'}, new char[]{'!', '7'}, new char[]{'N'}, new char[]{'*', 'J'}, new char[]{'['}, new char[]{'|'}}, s_8[0]);
                        s_3[0] = s_16[0];
                        M14(arg1++, arg0, M22(), ']', new bool[]{false, false, false, false, true, true}, var6, s_4, s_8, s_9--);
                    }

                    s_2 = s_7[0, 0]--;
                }

                s_12[0] = s_12[0]++;
                short var7 = (short)M22();
                s_1 = s_1;
            }

            s_4[0] = arg1;
            s_5 = 0;
            if (true)
            {
                char[][] var8 = new char[][]{new char[]{'a', 'y', 'R', 't', '+', 'x'}, new char[]{'%', '[', 'a', 'P', 'C', 'V'}, new char[]{'M', 's', 'T', 'F', '}', 'F', '\\', '\\'}, new char[]{'S', '^', 'B', 'Y'}, new char[]{'H', 'I', 'o'}, new char[]{'l', '{', 'j', ' ', 'u'}};
                s_1 = s_1;
            }
        }
        else
        {
            M17();
            {
                s_3[0] = s_16[0];
                arg0 = s_15++;
            }

            arg1 = s_7[0, 0];
            s_17 = s_17;
            {
                s_16[0] = s_3[0];
            }

            s_7[0, 0] = arg1;
            s_2 <<= s_3[0][0];
        }

        return s_1;
    }

    static int[][] M13(bool arg0)
    {
        {
            if (true)
            {
                if (arg0)
                {
                    uint[] var0 = new uint[]{4046426658U, 2707633307U, 2778612233U, 2807030440U, 1U};
                    s_4[0] = s_4[0];
                    int[] var1 = s_3[0];
                    s_4 = s_4;
                    char[] var2 = new char[]{'8', '$', 'V', 'w', 'y', '6', 'q', 'r', 'J'};
                    var1[0] = s_3[0][0]++;
                    long[] var3 = new long[]{0L, -7630838876517963757L, 5890952302506986233L, -7091362099347172095L};
                }

                arg0 |= false;
            }
        }

        short var4 = s_4[0]--;
        return new int[][]{new int[]{1002949800, -1863704522, 0, -236725540, 1, 10}, new int[]{2147483646, -1185779529, -977876710, 1, 2147483646}, new int[]{-1, 5702843}, new int[]{1, 1, -750914257, 1, 52943635, -489889558, -2147483647, 208402607}, new int[]{-1539066575, -229031445, 1345629687, -791928966, 1370952100, -2147483647, 2}, new int[]{1176294256, 538155685}, new int[]{1233852271, -2147483647, -806368301, 2147483647, -2052297345, -2147483648, -2147483648, -498665897, 2147483646}, new int[]{-1, -2, 2147483646, -1953936541, -2147483648}, new int[]{-1722084834, -161549213}};
    }

    static bool M14(short arg0, int arg1, byte arg2, char arg3, bool[] arg4, byte arg5, short[] arg6, byte[] arg7, byte arg8)
    {
        {
            if (arg4[0] || arg4[0])
            {
                arg1 |= s_3[0][0];
                s_4[0] = arg6[0]--;
            }
            else
            {
                s_1 = s_1;
                if (arg4[0])
                {
                    s_6[0] = 0UL;
                    if (true)
                    {
                        s_8 = arg7;
                        ushort var0 = s_5;
                        bool var1 = arg4[0];
                        ushort var2 = (ushort)(s_6[0] & 15711281001630162090UL);
                    }
                    else
                    {
                        arg5 = arg5;
                        if (false)
                        {
                            s_4[0] = 20068;
                            arg3 = arg3;
                        }

                        if (false)
                        {
                            if ((ushort)(0UL & s_1) < s_5)
                            {
                                arg7[0] = s_8[0];
                                s_6[0] = s_6[0];
                                sbyte var3 = 120;
                                ushort var4 = s_5;
                                s_9 = arg8;
                                s_4[0] = -32767;
                            }
                            else
                            {
                                s_10 = M15((long)(s_8[0] - M17()), new char[][]{new char[]{'\\', '\\', 'X', 'D', 'u', '^'}, new char[]{',', 'D', '~'}, new char[]{'}', 'H', 'O'}, new char[]{'\\', 'J', 'P'}, new char[]{'J'}, new char[]{'9', '\\', '3', 't'}, new char[]{'G', '2'}}, 0);
                                if (arg4[0])
                                {
                                    arg4[0] = arg4[0];
                                }
                                else
                                {
                                    s_4[0] = s_7[0, 0]++;
                                    s_11 = s_11;
                                    if (arg4[0])
                                    {
                                        arg6[0] = s_2++;
                                    }

                                    arg4 = new bool[]{true, true, false, true, false, true};
                                    M18(arg1, s_11--);
                                    arg0 = arg0;
                                    s_10[0][0] = 8323296661916590064UL;
                                    s_8[0] = arg5;
                                    ulong var5 = 17023103984970942159UL;
                                    ulong var6 = 16457059237625961906UL;
                                }
                            }

                            s_3[0][0] = (int)M18(s_3[0][0], s_11--);
                            if (true)
                            {
                                short var7 = s_4[0];
                                s_9 = arg7[0];
                                s_12 = s_12;
                                s_13 = 0;
                                arg1 = 1;
                                s_12[0] = s_12[0];
                                if (arg4[0])
                                {
                                    arg6 = s_4;
                                    if (arg4[0])
                                    {
                                        arg1 = (int)M17();
                                    }
                                    else
                                    {
                                        M16(arg4[0], '-');
                                        long var8 = s_11;
                                    }

                                    int[][] var9 = s_3;
                                    arg1 = s_3[0][0];
                                    s_14 = s_6;
                                }
                                else
                                {
                                    var7 = arg0++;
                                    s_10 = new ulong[][]{new ulong[]{0UL}, new ulong[]{18446744073709551614UL}, new ulong[]{0UL}, new ulong[]{7730330837055323071UL}, new ulong[]{0UL, 0UL}, new ulong[]{0UL}, new ulong[]{10863861457905391803UL, 1051433345965765640UL}};
                                    byte var10 = s_9;
                                }

                                sbyte var11 = (sbyte)((ushort)M17() - s_5);
                            }
                            else
                            {
                                s_8 = s_8;
                                s_3 = s_3;
                                s_13 = arg0;
                                M15(s_11, new char[][]{new char[]{'R'}, new char[]{'u', 'E', '1', '}', 'k'}, new char[]{'8', '*', 'Y', 'M', '0', 'X', 'C'}, new char[]{'(', 'X', '7'}}, s_8[0]);
                                s_8[0] = s_8[0];
                                s_3[0][0] = 0;
                                uint var12 = s_1;
                                M18(0, s_11);
                                s_12[0] = s_5;
                                s_7[0, 0] = arg6[0];
                                short var13 = 9248;
                            }

                            return true;
                        }
                    }

                    s_6 = new ulong[]{9414141572485699219UL, 7254979640316714901UL, 5225425409242299395UL, 3974360762207367177UL};
                    s_7 = s_7;
                    long var14 = 0L;
                    arg4 = arg4;
                    arg7 = s_8;
                }
            }

            s_11 = s_11;
        }

        if (arg4[0])
        {
            bool var15 = arg4[0];
        }

        if (arg4[0])
        {
            {
                arg7 = s_8;
            }
        }

        char var16 = 'A';
        return arg4[0];
    }

    static ulong[][] M15(long arg0, char[][] arg1, byte arg2)
    {
        M16(true, arg1[0][0]);
        arg1[0][0]--;
        return s_10;
    }

    static byte[][] M16(bool arg0, char arg1)
    {
        return new byte[][]{new byte[]{255, 216}, new byte[]{215, 100}};
    }

    static sbyte M17()
    {
        int var0 = (int)(15816105504030156564UL % (ulong)(s_6[0] | 1));
        {
            ushort var1 = s_5;
            if (false)
            {
                s_10[0] = s_10[0];
                bool var2 = false && true;
            }

            if (true)
            {
                bool var3 = true;
                s_6[0] = s_10[0][0];
            }
            else
            {
                ulong[][] var4 = s_10;
                if ('k' < 1)
                {
                    if (true)
                    {
                        bool var5 = true;
                    }
                }
            }

            var0 = -10;
            if (false)
            {
                if (true)
                {
                    s_3 = s_3;
                    s_6 = s_10[0];
                    s_3 = s_3;
                }
            }

            byte var6 = s_8[0]--;
            M18(1218114476, 5530089426780081991L);
            if (false)
            {
                s_10[0][0] = s_10[0][0];
            }
            else
            {
                M18(s_3[0][0], -3698632756476006713L);
            }

            s_1 = (uint)M18(s_3[0][0], -9223372036854775807L);
            s_8[0] = (byte)M18(1325508544, (long)M18(s_3[0][0], 10L));
        }

        return (sbyte)M18((int)((uint)M18(s_3[0][0], (long)M18(s_3[0][0], (long)M18(var0, (long)(s_1 | (char)M18(s_3[0][0], (long)((sbyte)M18((int)M18(-1, -9223372036854775807L), 3670300503088162664L) | s_5++)))))) / (byte)(s_9 | 1)), (long)((sbyte)M18(s_3[0][0], 3626335734940461595L) + -51));
    }

    static ushort M18(int arg0, long arg1)
    {
        ushort var0 = s_5;
        return s_5;
    }

    static byte M19()
    {
        M20();
        return 1;
    }

    static int[][, ] M20()
    {
        s_13 = 10;
        return new int[][, ]{new int[, ]{{-1112616971, 10, -1, -2080008135, -1, 1, 2147483647, 405445690, -80241919, -1891375077}, {-2147483648, -10, -1759230900, -1, 2, 0, 0, -2086413348, -2147483648, 0}}, new int[, ]{{-1689550140, -1831242691, 1277957342, 322706492, -2147483648, 2147483647, -872700716, 230400852, -2147483648, 2147483647}}, new int[, ]{{1, -2147483648, 0, 1864960288, -125549171, -1581089486, -2101739146, 2, -2147483647, 0}}, new int[, ]{{-10, 787364962, 690407580, 211401679, -2147483647, -1638988667, 977850388, 1550145835, -1787245799, -1022156391}}};
    }

    static uint M21(long arg0, long arg1)
    {
        long var0 = arg1;
        return s_1;
    }

    static byte M22()
    {
        {
            s_3 = s_16;
        }

        return 2;
    }

    static bool M23(ulong arg0, char arg1, ushort[][] arg2, ulong arg3, int arg4, ulong arg5, ushort arg6)
    {
        if (true ^ true)
        {
            arg6 = s_12[0]++;
            bool var0 = M24() && M24();
            s_18 = arg0;
            if (true)
            {
                s_11 += -7901804670864852630L;
                s_7[0, 0] = -32768;
                sbyte var1 = (sbyte)(s_16[0][0] * s_9);
                {
                    arg1 = arg1++;
                    s_7 = new short[, ]{{2931, -5903, 0, 1, -1, 20355, 32766}, {0, -10, -3974, 32766, -23626, -7302, 1}, {-5250, -24521, 1, -12063, -32767, -19690, 10}};
                }

                int var2 = s_3[0][0];
                ushort var3 = s_12[0];
            }
        }

        M24();
        byte var4 = s_9;
        uint var5 = (uint)(arg1 - s_6[0]);
        s_17[0][0, 0] = (long)(arg4 & 1);
        {
            s_17 = new long[][, ]{new long[, ]{{1200308458106522738L, 1L, 3937760737759017409L, -4981916325637301051L, -2L}, {9223372036854775806L, 7641170222607064350L, 588674281583990741L, -1623857499367364641L, 1L}, {-5392164410744375480L, 1L, 1879142138993616671L, 1L, 9223372036854775806L}, {9223372036854775806L, 2L, 9223372036854775806L, 1L, 2L}, {2L, -9223372036854775808L, 7402891703567866426L, 9223372036854775806L, -9223372036854775808L}, {9223372036854775806L, 0L, -7180474144816719107L, -9223372036854775807L, 2386392273839389844L}, {-9223372036854775808L, 10L, 1307814800697315083L, -9204301178140755048L, 3883754024295387770L}}};
            s_19 = s_19;
            s_10 = s_10;
            if (s_13 <= 0)
            {
                s_12[0] = 10;
            }
            else
            {
                s_19 = M24();
                s_3[0][0] = -2;
                M24();
            }

            s_20 = 'k';
            {
                s_9 = s_9;
            }

            if (arg5 >= arg1)
            {
                M24();
            }

            if (s_19)
            {
                if (M24())
                {
                    if (s_19)
                    {
                        arg2 = arg2;
                    }
                    else
                    {
                        s_16[0] = s_3[0];
                        arg2[0][0] = 5104;
                    }
                }
                else
                {
                    {
                        s_21 = 6133209042388840704L;
                        s_7[0, 0] = s_4[0];
                    }

                    s_7 = s_7;
                }
            }
        }

        M24();
        {
            s_8[0] = s_8[0];
        }

        s_4 = s_4;
        return s_19;
    }

    static bool M24()
    {
        if (false)
        {
            s_17[0] = s_17[0];
            s_4[0] = -2;
            s_7[0, 0] = -2;
        }

        return true;
    }

    static bool[] M25(ulong arg0, int arg1)
    {
        {
            s_19 = true && (s_20 <= s_17[0][0, 0]);
            s_4[0] = s_7[0, 0];
            s_12[0] = 0;
            s_10 = s_10;
            byte var0 = s_9;
            s_3[0][0] = arg1;
            s_16[0] = s_16[0];
            ulong var1 = 0UL;
        }

        short var2 = s_2;
        return new bool[]{false, true, false};
    }

    static int M26()
    {
        s_23[0, 0] = s_23[0, 0];
        return s_16[0][0];
    }

    static char[] M27(bool arg0)
    {
        uint var0 = s_30;
        return new char[]{'Z', 'z', '8', 'C', 'h', '8', 'q', 'w', '-'};
    }

    static char M28(bool[] arg0, uint[][][] arg1)
    {
        s_27 = s_27--;
        return (char)(s_23[0, 0] | s_20);
    }

    static ulong M29(ulong arg0)
    {
        s_16[0][0] = s_3[0][0];
        if (s_19)
        {
            s_28[0][0] = -2031982345069062815L;
            s_23 = s_23;
            s_12 = new ushort[]{1864, 0};
            s_10[0][0] = arg0;
        }
        else
        {
            s_5 = (ushort)(s_5++ ^ s_8[0]);
        }

        return 16233490176398832393UL;
    }

    static sbyte M30(long arg0, ushort arg1)
    {
        short var0 = s_2--;
        if (s_19)
        {
            ulong var1 = s_14[0];
            {
                s_9 = s_24;
            }

            {
                if (true)
                {
                    s_23[0, 0] = -106;
                    if (false)
                    {
                        byte var2 = s_8[0];
                    }

                    M31();
                    if (true)
                    {
                        sbyte var3 = s_31[0];
                        s_24 = (byte)((char)(s_17[0][0, 0] ^ (uint)(2917618964U & s_23[0, 0]--)) + s_1);
                        s_33 = s_6[0];
                        s_22 = new int[]{-2147483648, 355047371};
                        --s_3[0][0];
                        M31();
                        {
                            s_7 = s_7;
                            s_26 = s_28[0];
                        }

                        s_2 = s_4[0];
                        s_4 = s_4;
                    }
                    else
                    {
                        s_34 = s_4[0]++;
                        {
                            return s_25;
                        }
                    }
                }

                s_5 = s_5;
            }

            return s_23[0, 0];
        }
        else
        {
            ulong var4 = (ulong)(arg0-- % (long)(arg0 | 1));
            s_12[0] /= (ushort)(2228 | 1);
            var0 = s_4[0];
        }

        return s_25;
    }

    static byte M31()
    {
        s_14 = s_10[0];
        return s_24;
    }
}