// Generated by Fuzzlyn on 2018-06-03 23:47:05
// Seed: 3799293856337522227
public class Program
{
    static sbyte s_1 = -128;
    static sbyte s_2 = 1;
    static ulong s_3 = 6049391149768003044UL;
    static uint s_4 = 1U;
    static bool s_5 = true;
    public static void Main()
    {
        M0();
    }

    static void M0()
    {
        if (true)
        {
            if (false)
            {
                s_1 = (sbyte)(2147483647 % (byte)(M1('%') | 1));
                if (true)
                {
                    s_1 = s_1;
                    s_1 = 117;
                    s_1 = s_1--;
                    s_1 = 2;
                    s_1 = s_1--;
                }
            }
            else
            {
                if (true)
                {
                    M6(s_1, new char[]{'Z', '[', ' '});
                }

                {
                    if (true)
                    {
                        s_1++;
                    }
                    else
                    {
                        s_1 = (sbyte)M1('5');
                        short[, ][] var0 = new short[, ][]{{new short[]{17290}, new short[]{32766}, new short[]{14640}, new short[]{32766}, new short[]{2}, new short[]{18325}, new short[]{32767}}, {new short[]{0}, new short[]{30626}, new short[]{-32767}, new short[]{18913}, new short[]{27944}, new short[]{21101}, new short[]{-32768}}, {new short[]{-8666}, new short[]{-7455}, new short[]{-2}, new short[]{-7867}, new short[]{32766}, new short[]{11961}, new short[]{-10496}}};
                    }

                    s_1 = s_1;
                }
            }
        }
        else
        {
            char[] var1 = new char[]{',', '}', '\'', 'N', ',', 'f'};
            if (false)
            {
                if (true)
                {
                    s_1 = s_1;
                    var1[0] = var1[0];
                    s_2 = 1;
                }
                else
                {
                    {
                        short[][, ] var2 = new short[][, ]{new short[, ]{{-16309, 30195, 32766, -10, 0, -24245}, {0, 32767, 29532, 1, 17465, -16005}}};
                        if (18446744073709551614UL > 0)
                        {
                            s_1 = s_2;
                            if (true)
                            {
                                M7();
                                M5();
                                ushort var3 = 0;
                                var2[0] = var2[0];
                                sbyte var4 = -1;
                            }

                            var2[0] = var2[0];
                        }

                        if (((char)M3(1L) > 3409934879772193123UL) == false)
                        {
                            short var5 = var2[0][0, 0];
                            {
                                var2[0] = new short[, ]{{-1}, {6018}, {-27180}, {0}, {14859}};
                            }

                            s_1 = s_2;
                        }

                        ushort var6 = 44784;
                        var2 = var2;
                        M7();
                    }

                    sbyte var7 = 1;
                    ulong[] var8 = new ulong[]{0UL, 6146335055967270003UL, 18446744073709551615UL, 10453874558220752522UL, 10UL, 1UL, 17677027525561286165UL};
                }

                s_2 = s_1;
            }
            else
            {
                long var9 = -9223372036854775807L;
                var9 = (long)M4(var9--);
                {
                    s_3 = s_3;
                    s_1 = s_1;
                    {
                        s_4 = s_4;
                    }

                    var9 = -9223372036854775808L;
                    ++var1[0];
                    short var10 = -2;
                    s_5 = s_5;
                }

                s_4 = (uint)M3(var9);
                s_4 = s_4;
                {
                    s_2 = s_1;
                }

                M1(var1[0]);
            }

            s_5 = s_5;
            bool var11 = s_5;
            var11 = var11;
        }
    }

    static byte M1(char arg0)
    {
        M2((uint)M6(-106, new char[]{'4', 'p', '_', ']', '0', '1', '\\'}), new uint[]{4294967295U}, new short[]{-20546, -10, 7173, -19033});
        arg0 = arg0;
        return (byte)((ulong)M3((long)(55755 - (sbyte)M3(M6(10, new char[]{'A', 'F', '+', 'q', '3'})))) * (byte)M3(M8((uint)M4((long)M2(3898045777U, new uint[]{1688481267U, 1U, 1U, 4294967294U, 0U, 2942518204U, 3333816000U}, new short[]{-32768, -29428})), 32766, 1L)));
    }

    static byte M2(uint arg0, uint[] arg1, short[] arg2)
    {
        {
            arg2[0] = arg2[0];
            arg2 = arg2;
            ulong var0 = 636057883968913856UL;
            var0 ^= var0;
            arg1 = arg1;
            M3((long)M4(-5054776407116291297L));
        }

        return M5();
    }

    static long M3(long arg0)
    {
        M4((long)((ulong)(s_1 % (short)(7407 | 1)) / (byte)((byte)M4(arg0) | 1)));
        return arg0;
    }

    static short M4(long arg0)
    {
        s_1 = s_1;
        return 9140;
    }

    static byte M5()
    {
        M6(s_1--, new char[]{'U', 'h', ';'});
        return 54;
    }

    static long M6(sbyte arg0, char[] arg1)
    {
        M7();
        return 0L;
    }

    static uint[, ] M7()
    {
        s_1 = s_1;
        if (-2 > (byte)(s_1 ^ 0U))
        {
            {
                int var0 = -205312815;
            }
        }

        bool[] var1 = new bool[]{false, false, true, true, false, true, true};
        return new uint[, ]{{3619423305U, 1330563642U, 407260266U, 1652346572U, 0U, 10U, 1U, 1U, 3053403973U, 1U}, {3984010453U, 0U, 4294967294U, 223349206U, 10U, 0U, 1372702085U, 2977188736U, 4294967294U, 1452342399U}, {2U, 1U, 1U, 0U, 0U, 0U, 360338742U, 764549136U, 4294967294U, 1868931759U}, {952744284U, 1054872339U, 0U, 0U, 2163809244U, 4294967295U, 837512414U, 4294967294U, 0U, 0U}, {4294967295U, 1U, 458202590U, 3258358457U, 0U, 523568631U, 0U, 3052593178U, 1290018790U, 1U}, {2664891286U, 4294967295U, 375469124U, 969095339U, 1956542107U, 1U, 1U, 4294967295U, 3888150012U, 4294967295U}, {4294967295U, 1U, 4294967294U, 3505137676U, 2484693514U, 2U, 4294967295U, 1U, 1493028087U, 1785313021U}, {1U, 0U, 1512219652U, 1U, 1U, 4294967295U, 1U, 0U, 0U, 2315250734U}};
    }

    static long M8(uint arg0, short arg1, long arg2)
    {
        if (false)
        {
            arg1 = arg1;
        }

        return arg2;
    }
}