// Generated by Fuzzlyn on 2018-06-03 23:47:58
// Seed: 3807292053929899503
struct S0
{
    public char F0;
    public char F1;
    public ushort F2;
    public bool F3;
    public ushort F4;
    public S0(char f0, char f1, ushort f2, bool f3, ushort f4)
    {
        F0 = f0;
        F1 = f1;
        F2 = f2;
        F3 = f3;
        F4 = f4;
    }
}

public class Program
{
    static ushort[, ] s_1 = new ushort[, ]{{13234, 10904, 1, 2990, 64817, 0, 29228, 0, 62827, 65534}, {1, 11373, 1, 51941, 0, 4582, 65535, 0, 1948, 13957}};
    static byte[][, ] s_2 = new byte[][, ]{new byte[, ]{{255, 1, 98, 96, 181, 0, 0}}, new byte[, ]{{1, 255, 129, 0, 1, 0, 0}}, new byte[, ]{{245, 78, 255, 10, 178, 225, 33}}};
    static char s_3 = '9';
    static ushort s_4 = 65535;
    static int[, ] s_5 = new int[, ]{{10, -178821643, 763357835, -371260801, -491500652}, {-434511450, 1, -336539121, 1, -689859343}};
    static S0 s_6 = new S0('_', 'H', 2, false, 0);
    static sbyte s_7 = -111;
    static bool s_8 = false;
    static byte s_9 = 1;
    static char[] s_10 = new char[]{' '};
    static char[][] s_11 = new char[][]{new char[]{'H'}, new char[]{'q'}, new char[]{'I'}, new char[]{'u'}, new char[]{'a'}, new char[]{'*'}, new char[]{'y'}, new char[]{'d'}, new char[]{'n'}, new char[]{'>'}};
    static sbyte s_12 = -90;
    static long s_13 = -8058645716513067272L;
    static sbyte s_14 = -127;
    static short s_15 = 32767;
    static bool s_16 = true;
    static uint s_17 = 1673700408U;
    static long s_18 = 5257314583748844146L;
    static long s_19 = 0L;
    static S0 s_20 = new S0('s', '|', 60963, true, 1);
    static byte[] s_21 = new byte[]{164, 4, 0, 204, 0, 0, 25, 155, 0};
    static long s_22 = 6529277161720956090L;
    static bool s_23 = false;
    static byte s_24 = 255;
    static uint s_25 = 0U;
    static byte[][] s_26 = new byte[][]{new byte[]{254, 48, 80, 84, 2, 0, 0, 254}, new byte[]{1, 234, 1, 1, 1, 105, 118}};
    static S0 s_27 = new S0('2', '8', 843, true, 48481);
    static S0 s_28 = new S0('%', 'b', 6830, false, 11501);
    static sbyte s_29 = 1;
    static bool s_30 = false;
    static long s_31 = -9223372036854775807L;
    static short[, ] s_32 = new short[, ]{{-24767, -32767, 32766, -1}, {25890, 15818, -32767, 32156}, {2, 1, -22913, 21466}, {-24161, -32768, 22649, 10745}, {-32767, -17984, 1, 19177}};
    static byte[] s_33 = new byte[]{0, 1, 139, 26, 1};
    static uint s_34 = 0U;
    static short[] s_35 = new short[]{-32767, 32767, 32767, -32768, -1, 0, 10452, 0};
    static char s_36 = 'K';
    static byte[] s_37 = new byte[]{1, 0, 110, 114, 145, 0, 193, 70, 162};
    static byte s_38 = 157;
    static S0 s_39 = new S0('!', 'n', 28895, true, 295);
    static short s_40 = -18297;
    static S0 s_41 = new S0('X', 'O', 0, false, 16480);
    static byte s_42 = 0;
    static char s_43 = 'Z';
    static ushort[] s_44 = new ushort[]{1, 58255, 32559, 65535, 10, 9088, 0, 32329};
    static ulong s_45 = 17066438762762583691UL;
    static short[] s_46 = new short[]{0, -26904, -31807, 1001, 13324, -32768};
    static long s_47 = 10L;
    static sbyte s_48 = 1;
    static int s_49 = 1822683668;
    public static void Main()
    {
        M0();
    }

    static void M0()
    {
        if (false)
        {
            s_1 = M1();
            s_5[0, 0] = s_5[0, 0];
            s_14 = -48;
        }
        else
        {
            if (false)
            {
                s_6 = s_6;
                bool var0 = s_6.F3;
            }
            else
            {
                M7();
            }

            char[, ] var1 = M27();
            byte var2 = (byte)M9();
            s_14 = -124;
            {
                s_6 = M18();
            }

            if (M17())
            {
                var1 = new char[, ]{{'$', 'a', 'm', '%', 'R', '~', 'd', 'g', '1', 'z'}, {'J', '}', 'A', 'u', '3', 'H', '`', 'Z', ' ', ':'}, {'s', 'f', '#', 'R', 'N', '_', '6', '?', '&', '5'}, {'[', 'G', 'h', 'R', 'W', '-', 'j', '_', 'M', 'l'}, {'E', '5', 'I', 'J', 'q', 'm', ')', '-', 'E', '\''}, {'\\', 'I', '"', 'l', 'B', 'q', ':', '@', '?', '('}, {'.', 'v', '1', 'G', 'T', 't', 'U', 'o', '/', ']'}};
                s_4 = 0;
                s_2 = s_2;
            }

            if (s_16)
            {
                s_9 = var2;
                byte var3 = var2++;
            }

            M22();
            s_6.F1 = 'q';
            s_9 = s_2[0][0, 0];
            ulong var4 = 18446744073709551615UL;
            long[][] var5 = M29();
            ulong var6 = 1UL;
            s_31 = (long)M43(s_45);
            if (s_23)
            {
                s_8 |= false;
                ushort var7 = s_44[0];
                ushort var8 = 4946;
                if (true)
                {
                    if (M39(s_13, s_45))
                    {
                        s_21[0] = 2;
                    }

                    s_49 = (int)M11(new bool[]{true, false, true, true, false, false, true}, s_40, s_20, new int[][]{new int[]{-2147483648, 2147483646, 2147483647, -393580303}}, s_14++, (sbyte)(s_26[0][0] * s_5[0, 0]), new long[, ]{{-5666107609922725669L, -9223372036854775808L, 7857834811034872166L, -2L, -255563549846036385L}, {9223372036854775806L, -9223372036854775808L, -9223372036854775808L, 0L, 9223372036854775806L}, {511866082199564072L, 3906790861894027191L, 0L, -1L, -2716424424520230696L}, {9223372036854775807L, -2570959437168042601L, 6916361539837138585L, -3194134891330533172L, -1042937641200415373L}, {4267174228856024424L, 0L, 9223372036854775807L, -2676705668576968127L, -9223372036854775808L}, {9223372036854775806L, 7202513629833726775L, 2L, 5560681887931643283L, 9223372036854775807L}, {1L, 9223372036854775807L, -1L, 1L, -9223372036854775808L}}, 500043761U);
                    if (M52())
                    {
                        s_27 = new S0('"', 'P', 1, false, 3786);
                    }

                    ++s_41.F4;
                }

                s_43 = s_36;
                s_28 = M18();
                M1();
                {
                    s_32[0, 0] = (short)M48(s_19);
                }
            }
        }

        {
            s_30 = s_28.F3;
            s_21 = M24(new S0('S', '7', 1, false, 53348), s_43, (byte)((char)(s_14 ^ s_27.F4) * 966396961));
        }

        {
            s_46[0] = s_35[0];
            if (s_30)
            {
                if (true)
                {
                    s_46 = M50();
                    s_26[0] = s_21;
                    M9();
                }

                s_39 = s_28;
                long var9 = s_18;
            }
            else
            {
                long var10 = 0L;
                M23(s_21, new long[]{8769337984925112089L, 0L, 2L, 6098577283365114852L, 9223372036854775807L, 1L, 1L}, s_39.F3, M21((int)(17494225780329243322UL - s_17)), s_47--);
            }
        }
    }

    static ushort[, ] M1()
    {
        if (true)
        {
            M2();
        }

        M25(new bool[]{true, true, true});
        return s_1;
    }

    static short M2()
    {
        M3(126);
        if (false)
        {
            bool var0 = 0 != (char)(-2229558620832335717L + (int)M5());
        }
        else
        {
            s_1 = new ushort[, ]{{45934, 48466, 65535, 1, 62509, 32145, 1, 10, 65351}, {51102, 65534, 49952, 1, 42086, 2, 10212, 0, 7805}, {33761, 6135, 0, 52273, 65535, 64193, 1996, 2, 54289}, {63135, 34915, 65534, 0, 0, 65534, 0, 1, 0}, {55212, 59334, 1, 38705, 43111, 65535, 50268, 2, 0}, {0, 1, 0, 57165, 0, 55169, 26682, 56008, 0}, {0, 65535, 0, 1, 62970, 1, 11770, 40466, 2}, {31443, 10, 8852, 1, 53003, 50278, 0, 11935, 65535}, {1, 42769, 14224, 0, 45906, 41925, 65535, 12132, 0}};
            if (true)
            {
                {
                    if ((int)((long)M5() * (short)(s_1[0, 0] - (ulong)(1840796096U - M6((int)((ushort)M3((sbyte)((uint)M6(M7(), s_6) / (ushort)(0 | 1))) % (long)((0L | (int)M3(-109)) | 1)), new S0(',', ',', 1, false, 582))))) == -13206)
                    {
                        M12(false || false);
                    }
                    else
                    {
                        M15('I', 58052, 92, s_2[0][0, 0]);
                        byte[][][] var1 = new byte[][][]{new byte[][]{new byte[]{122, 0, 1, 177, 1, 1}, new byte[]{1, 255, 200}}, new byte[][]{new byte[]{238, 3, 146, 161}, new byte[]{177, 10, 254, 1, 128, 254, 251}, new byte[]{0}, new byte[]{1, 6}, new byte[]{1, 87, 1, 144, 130, 26, 1}, new byte[]{3, 184, 0, 1, 30, 87, 0}}, new byte[][]{new byte[]{1, 103, 255}}, new byte[][]{new byte[]{5, 171, 10}, new byte[]{53, 172}, new byte[]{224, 2, 0}}, new byte[][]{new byte[]{13, 123, 219, 1}}};
                        if (s_8)
                        {
                            if (M13())
                            {
                                s_9 = var1[0][0][0];
                            }

                            S0 var2 = new S0(',', 'o', 942, false, 1);
                            if (s_6.F3)
                            {
                                var2.F0 = s_6.F1++;
                            }
                            else
                            {
                                var2 = new S0('{', 'a', 57939, false, 28188);
                                long var3 = s_7 | (uint)(s_5[0, 0]++ - s_9++);
                                s_10 = new char[]{'$', 'J'};
                            }

                            var1[0] = var1[0];
                            {
                                uint var4 = (uint)M6(2147483647, var2);
                                char[,, ] var5 = new char[,, ]{{{'z', 'q', 'v', '\''}, {'M', 'H', '0', 'L'}, {'|', ']', 'Q', 'i'}}, {{'F', '|', '+', 'Z'}, {'p', 'J', 'G', 'M'}, {'F', '/', '&', '['}}};
                                s_2[0][0, 0] = 1;
                            }

                            if (true)
                            {
                                bool var6 = s_6.F3;
                                s_6.F4 = 64356;
                                var2.F4 = s_1[0, 0];
                            }
                            else
                            {
                                s_8 = M17();
                            }

                            s_11 = new char[][]{new char[]{'=', '/'}, new char[]{'D', 'z'}, new char[]{'\'', 'f', 'e', '<', 'F', 'P', '-', 'b'}, new char[]{':', 'V', '|', 'F'}, new char[]{'I', 'q', 'F'}, new char[]{'M', 'z', '<', '"', '%', 'z', '#', ':', '`', 'G'}, new char[]{'!', '4'}, new char[]{'x', '0', 'f', '8'}, new char[]{'"', '4', '_', 'O', '_', '/', 'Q', '|'}};
                        }

                        if (s_6.F3)
                        {
                            s_8 = s_6.F3;
                        }

                        s_6 = s_6;
                        M6(s_5[0, 0], s_6);
                        s_11[0] = s_11[0];
                        s_12 = s_12;
                        s_10 = s_11[0];
                    }
                }

                {
                    s_6.F4 = s_1[0, 0];
                    char var7 = s_6.F1;
                    s_6.F4 = s_6.F2;
                    s_11 = s_11;
                    S0 var8 = M21(s_5[0, 0]);
                    {
                        M7();
                        if (false)
                        {
                            var8.F2 = var8.F2;
                            uint var9 = 4294967295U;
                            s_4 = 35323;
                        }
                        else
                        {
                            s_13 = s_13;
                        }

                        if (s_6.F3)
                        {
                            s_11 = new char[][]{new char[]{'C'}, new char[]{'O'}, new char[]{'w'}, new char[]{'t'}, new char[]{'u'}, new char[]{'x'}, new char[]{'d'}};
                        }

                        s_2 = s_2;
                        s_5[0, 0] = s_5[0, 0];
                        s_11[0][0] = 'i';
                        M22();
                    }

                    var8 = var8;
                    s_4 = 0;
                }

                s_9 = (byte)((short)(-6851931383784864226L + (short)M16(s_5[0, 0])) ^ 4294967294U);
                if (s_6.F3)
                {
                    ushort var10 = (ushort)M5();
                }
                else
                {
                    ulong var11 = (ulong)M4(new int[, ][]{{new int[]{-1276394479, 395072827, 2147483646}, new int[]{-1581293573, -2147483647, -2147483647, 10, 1188989157, 1060125420}, new int[]{1805496820}, new int[]{-2147483648, -1, 1066796051, 2147483646, -2047377739, -2147483647, -2147483648, 1, -977998577}, new int[]{1, 1, 690793334, 10, 2147483647}, new int[]{1161199888}, new int[]{1190927189}, new int[]{-2147483647, 299167430, 2141915011}}}, new int[]{1707246555, 1864088137, -2147483648, 1188793367, 1, 1636306861, -10, -2147483648});
                    var11 = var11;
                    s_13 = (long)M9();
                    S0 var12 = s_6;
                    long var13 = s_13--;
                    s_5[0, 0] = 268590071;
                    {
                        {
                            s_11[0] = new char[]{'t', 'A', '7', 'a', 'm', 'Y', 'M', 'E'};
                            s_14 &= s_14;
                            S0[] var14 = new S0[]{new S0('$', 'z', 1, true, 1)};
                        }

                        s_2[0][0, 0] = 255;
                        s_3 = s_11[0][0];
                        S0 var15 = var12;
                        var15.F4 = var12.F2;
                        if (s_8)
                        {
                            var13 = var13;
                        }
                        else
                        {
                            if (var15.F3)
                            {
                                var15.F3 ^= s_8;
                            }
                            else
                            {
                                s_14 = (sbyte)(s_5[0, 0] ^ 36);
                                if (s_8)
                                {
                                    sbyte var16 = -9;
                                    short var17 = 1;
                                }
                                else
                                {
                                    M19();
                                }
                            }

                            s_7 = s_7;
                        }

                        s_15 = (short)M9();
                    }

                    if (false)
                    {
                        var12.F0 = s_11[0][0];
                        var12.F2 = var12.F4++;
                    }
                    else
                    {
                        s_14 = s_14;
                        s_8 = var12.F3;
                        var13 = var13;
                        s_7 = s_12;
                        uint var18 = (uint)(s_1[0, 0] - var11);
                        {
                            s_4 = s_1[0, 0]++;
                        }
                    }

                    bool var19 = var12.F3;
                    S0 var20 = s_6;
                    s_6.F0 = (char)M8(var20, var13);
                    s_7 = s_14;
                    int var21 = s_5[0, 0]++;
                }

                if (true)
                {
                    if (M17())
                    {
                        s_16 = s_16;
                    }
                    else
                    {
                        s_8 = s_16;
                    }

                    s_14 = 79;
                }

                s_6.F2 = 2;
                s_10[0] = s_10[0]--;
                s_7 = s_14;
            }
        }

        if (s_16)
        {
            s_5 = new int[, ]{{1, -2147483648, 0, 698501616, 1039883480, -2147483647, 1811403572, -1247382456, -354012452, 2147483646}, {-250753785, 0, 280125487, 1, 1, 1, 2, -2069548145, 1, 2001678479}, {1650758142, 290756593, 2, 687058877, 1, 2093894295, -2, -518622956, 2, -1430485373}};
            M13();
            ushort var22 = (ushort)M16(s_5[0, 0]++);
            bool var23 = s_16;
            if (s_16)
            {
                s_2 = new byte[][, ]{new byte[, ]{{110}, {219}}, new byte[, ]{{2}}, new byte[, ]{{1}, {1}, {31}}};
                s_6.F1 = s_3;
            }

            s_2[0][0, 0] = s_2[0][0, 0]++;
            if (false)
            {
                var22 /= (ushort)(65534 | 1);
                short var24 = s_15;
                if (false)
                {
                    s_6.F3 = false;
                }
                else
                {
                    var22 = s_1[0, 0];
                    if ((uint)(s_13 * s_13--) == s_14++)
                    {
                        s_9 = s_2[0][0, 0];
                        s_16 = ((ulong)M8(new S0('g', '@', 24943, true, 30034), (long)M10()) / (byte)((byte)(s_10[0] % (int)(s_5[0, 0] | 1)) | 1)) > s_6.F2;
                        s_2[0] = new byte[, ]{{132, 48}, {207, 1}};
                    }
                    else
                    {
                        s_11 = s_11;
                    }
                }
            }

            s_3 = s_3;
            s_7 = s_7;
            char var25 = s_6.F0;
        }

        if (s_16)
        {
            if (s_8)
            {
                {
                    {
                        s_10[0] = s_3;
                        M23(M24(s_6, s_11[0][0], s_9), M25(new bool[]{true, true, true, false, true}), 1UL != 158, new S0('+', 'o', 22669, true, 65535), s_13);
                    }

                    ushort[, ][] var26 = new ushort[, ][]{{new ushort[]{0, 58568, 3113, 0}, new ushort[]{10968, 52888, 56094}, new ushort[]{56887, 20280, 51796}, new ushort[]{33339, 1}, new ushort[]{2, 5106}}, {new ushort[]{941, 1}, new ushort[]{15742, 24719, 0}, new ushort[]{1, 1}, new ushort[]{65534, 65535}, new ushort[]{65535, 1, 65534, 13837}}, {new ushort[]{65535}, new ushort[]{0, 0, 37134}, new ushort[]{0, 17423, 61491, 65534}, new ushort[]{65535, 36372, 10, 1}, new ushort[]{65535, 1, 0, 65074}}, {new ushort[]{17483, 28120, 4882}, new ushort[]{0, 7438, 6188}, new ushort[]{0, 37168}, new ushort[]{35532, 27378, 10, 30117}, new ushort[]{55132}}, {new ushort[]{10}, new ushort[]{0}, new ushort[]{0, 1}, new ushort[]{65534, 48539, 1701, 1}, new ushort[]{16343, 65535, 45520}}, {new ushort[]{48842}, new ushort[]{2, 7440, 5340}, new ushort[]{21353, 2757, 3638, 1}, new ushort[]{1, 40368, 23478}, new ushort[]{65534, 65535, 0, 0}}};
                    s_17 = 0U;
                }

                {
                    M24(new S0('X', '\'', 41881, false, 0), (char)(s_5[0, 0]++ % (long)(s_19 | 1)), (byte)M10());
                    s_11[0] = s_10;
                    if (false)
                    {
                        s_19 >>= -772483294;
                        s_19 = s_18;
                    }
                }
            }
            else
            {
                s_3 = (char)(s_3 & M11(new bool[]{true}, -31506, s_6, M15(s_11[0][0], s_6.F4, s_7, 22), 0, s_14, new long[, ]{{-9223372036854775808L, -4756060354141868L, 9223372036854775807L, -5919098654471749556L, -2351265419312402627L}, {2601927276749347592L, 1534366639367725991L, -2472592063711976438L, 9223372036854775807L, -1421687991020389418L}, {0L, 8073410646097582813L, 1316713292458660546L, -8692005963294673249L, 1366776407115013998L}, {-7686371886280722760L, 2466488148660783792L, 1L, -9223372036854775807L, -9223372036854775808L}, {-6369941885585434416L, 0L, 1L, -10L, 812252477972204075L}, {-7490922528513759288L, 3264567268038996293L, 7278877558021451684L, -9223372036854775807L, 9223372036854775807L}, {-10L, 0L, 2L, 1569902269730785153L, 9223372036854775806L}}, s_17));
                s_6.F1 = s_11[0][0];
                long var27 = s_13;
                s_12 = s_14;
                if (M17())
                {
                    int var28 = s_5[0, 0];
                    if (s_17 > s_6.F0)
                    {
                        S0 var29 = s_6;
                    }
                    else
                    {
                        s_6.F3 = s_8;
                    }

                    s_2[0] = s_2[0];
                }

                s_1[0, 0] = s_6.F4--;
            }

            s_6.F4 = s_6.F2;
            s_8 = s_6.F3;
        }

        return s_15;
    }

    static uint M3(sbyte arg0)
    {
        M4(new int[, ][]{{new int[]{0, -2, 10, -187795838, -2147483647, 0, 10, 1150424368}, new int[]{-147163944, 1, 10, -1567060941, 2147483647, -1796447899, 2147483646}, new int[]{0, -399293585, -715588206, -2147483647}}, {new int[]{0, 386340386}, new int[]{1, 795498710, -10, -2147483647, -2, 1866790381}, new int[]{934449411}}, {new int[]{1481017760, 0, 918990592, 2147483647, -797666947, 10, 2147483646}, new int[]{122523048, 0}, new int[]{-1148355075, 0, 2147483646, -165762265, 1}}, {new int[]{-2, 2147483646, 705433403, 0, 1, -2117999997, -2, 372019754}, new int[]{-10}, new int[]{-2147483647, 1931873368, -1024272949, -136942848, 1, 1, -328862444}}, {new int[]{-1, 2147483647}, new int[]{-2147483648, -1925734722, 1164830158}, new int[]{1424453386}}, {new int[]{-2147483647, 1, -148933874, -2147483648, -1512512165, -265148772, 973085562, -2147483647}, new int[]{2073610520, -81226482, 0, -2147483648, -120009388, 1631062299}, new int[]{0, -858071591, -2109224348, -2, 1768427536, 0, 1}}, {new int[]{-2048760962, 712908131, -1012976270, 1324630864, 1877207591, -1510183100, -1117492321}, new int[]{498219835, 1, 26270840}, new int[]{2147483646, -1079824274, -113499906, 2, 220929015, 0, 2}}, {new int[]{-1601381388, 0}, new int[]{0}, new int[]{2147483647, 1553104625, 10, 0, 457842100, 935632624}}, {new int[]{1, -10, -558703111, 1651334533}, new int[]{-2147483647, 452632411, -10}, new int[]{314032597, 1710230948, 1092258073, -1214107041, 2147483647, -1157139226}}, {new int[]{-673728946}, new int[]{-170950475, -1268380559, 270255227}, new int[]{2147483647}}}, new int[]{-1353845564, 10, 159065848, 1766314202, -1948359194, 2, -273241583, -1872797502, -862840540, 0});
        return 2303023363U;
    }

    static uint M4(int[, ][] arg0, int[] arg1)
    {
        s_1[0, 0] = s_1[0, 0];
        return (uint)(0UL - M5());
    }

    static ulong M5()
    {
        s_1 = s_1;
        s_1 = new ushort[, ]{{43025, 2, 61500, 65535, 50661, 10}, {29297, 17380, 19640, 0, 0, 1}, {65534, 1, 65535, 65534, 34875, 2}, {45411, 50609, 15896, 1, 0, 65535}, {142, 0, 1, 0, 1143, 0}};
        return 1UL;
    }

    static short M6(int arg0, S0 arg1)
    {
        arg1.F2 = s_1[0, 0];
        return -16819;
    }

    static int M7()
    {
        s_1[0, 0] = (ushort)(304893706U / (byte)((byte)((ushort)(5636 * M8(new S0('$', 'e', 10, false, 41893), (long)(s_6.F2++ ^ s_6.F0++))) - (long)M12(s_8)) | 1));
        return -2032307349;
    }

    static sbyte M8(S0 arg0, long arg1)
    {
        if (1803122864496871012UL == arg0.F4)
        {
            arg0.F0 = arg0.F1++;
            arg1 = arg1;
        }
        else
        {
            M9();
            bool var0 = arg0.F3;
            S0 var1 = s_6;
            arg0.F1 = s_6.F0;
            M10();
        }

        arg0.F4 = s_6.F2--;
        return s_7;
    }

    static ushort M9()
    {
        if (true)
        {
            if ((-735854079 == (uint)((short)(17 % (byte)((byte)(1 * (byte)(0 & s_1[0, 0])) | 1)) * s_1[0, 0])) && (-1602131502 == -32768))
            {
                s_1[0, 0] = s_1[0, 0];
                M10();
            }

            M18();
            byte[, ] var0 = s_2[0];
            M14();
            if (true)
            {
                M15(M19(), 22019, (sbyte)((long)(s_2[0][0, 0]-- * (int)M12(s_6.F3)) ^ s_5[0, 0]), 33);
            }
            else
            {
                {
                    long var1 = (long)M11(new bool[]{true, false, true}, (short)((ulong)(1 | (sbyte)(s_4 & s_5[0, 0])) / (char)(s_6.F1++ | 1)), s_6, M15((char)(9 - s_2[0][0, 0]), 1, (sbyte)M19(), var0[0, 0]), M16(s_5[0, 0]), -76, new long[, ]{{-2568785468029815849L, 5290912036783211003L, -2L, 1L, 1336414072934165466L, 1L, 1L, -9223372036854775807L, 9223372036854775806L}, {-5857436077173217943L, 0L, 5504114435245029298L, 0L, 0L, 880883375245323942L, 2L, 0L, 0L}, {0L, -8956150755101372316L, -9223372036854775808L, 8370278317047068322L, -9223372036854775808L, 0L, -3207319429089678337L, 9223372036854775807L, 10L}, {5999959642370689383L, -8939754882761082421L, 0L, 1L, 7563410124580306363L, 3118024425327890607L, 10L, -6478850305705279465L, -4531712224962999330L}, {9223372036854775806L, 7630025138851248153L, 1L, 3679048422541317581L, 9152572269218703804L, 0L, -2897198025942339076L, -3586107041306331543L, 9223372036854775807L}, {7201228393399792445L, 0L, 8085097492067312916L, 1377830768756870396L, 3102952990299762731L, -10L, -1045849866230937000L, 1L, -9055052579707706800L}, {8651948611886726750L, 8757890690527780618L, -2672772971299756571L, 4081027126306936784L, 9223372036854775806L, -9223372036854775807L, 858794431521003140L, 1L, 1L}, {6045881198757824466L, 0L, -10L, 9223372036854775807L, 185153180038821976L, 6491605284237212139L, -6694055972913450876L, -1L, 9223372036854775806L}, {9223372036854775806L, 1L, 9144264405348821469L, -7854048729559626321L, -8362821222851710028L, 4753395224910859694L, 2966023907860296060L, 9223372036854775806L, 6213114330453763364L}, {-835660749480951818L, -9090146160030642906L, -4096013085139147501L, 9223372036854775807L, -2327183844461731581L, -381811501961180105L, -3890824062338543349L, 928558632564660892L, 2L}}, (uint)M12(true));
                }
            }

            {
                s_2 = s_2;
                var0 = new byte[, ]{{105, 141, 1, 173, 240, 1, 88}, {255, 70, 0, 255, 151, 1, 90}};
                s_2[0][0, 0] = 255;
                s_6.F4 = (ushort)M16(s_5[0, 0]);
                int var2 = 1170142082;
                s_7 = -2;
                s_6.F0 = s_6.F0;
            }

            if (s_6.F3)
            {
                {
                    var0 = var0;
                }
            }

            s_1 = new ushort[, ]{{1, 26416, 14755, 26248, 8940, 1, 0, 58423, 42583, 2}, {0, 0, 1, 1, 20343, 10493, 27975, 0, 29071, 0}, {41377, 35847, 1, 64837, 23976, 0, 0, 62409, 1, 30227}, {65535, 48133, 48206, 0, 54091, 0, 3715, 10215, 0, 1}, {45335, 1, 2, 52830, 1, 21939, 36250, 22785, 9867, 64447}, {46944, 10, 2, 41573, 57154, 34583, 0, 0, 20354, 65459}, {1, 0, 1, 5648, 65535, 1, 49011, 10, 28008, 5925}, {143, 0, 2, 1, 48919, 22812, 0, 43468, 0, 37643}};
            s_1 = s_1;
        }
        else
        {
            s_8 ^= M17();
            s_5 = s_5;
            uint[] var3 = new uint[]{2U, 2450140857U, 2323540855U, 1U, 4294967295U};
            s_6.F0 = 'T';
        }

        M18();
        s_2 = s_2;
        byte[] var4 = new byte[]{105, 245, 0, 134, 0};
        return (ushort)(1L & s_5[0, 0]);
    }

    static ulong M10()
    {
        if (true)
        {
            if ('r' > 254)
            {
                s_1[0, 0] = s_1[0, 0];
                char[, ][] var0 = new char[, ][]{{new char[]{'H'}, new char[]{'U'}, new char[]{'#'}, new char[]{'.'}, new char[]{']'}, new char[]{'$'}}, {new char[]{'T'}, new char[]{'B'}, new char[]{'G'}, new char[]{'-'}, new char[]{'S'}, new char[]{'o'}}, {new char[]{'d'}, new char[]{'@'}, new char[]{'^'}, new char[]{'V'}, new char[]{'J'}, new char[]{'b'}}, {new char[]{'G'}, new char[]{'?'}, new char[]{'~'}, new char[]{'N'}, new char[]{'r'}, new char[]{'x'}}};
                int var1 = 84258451;
            }
            else
            {
                M11(new bool[]{true}, -32767, new S0('~', 'd', 58689, true, 65535), new int[][]{new int[]{0, 1301177504, 1900278246}, new int[]{-1655432104, 1, -2, 1, 2, -544247641, -133139924}, new int[]{120209653}, new int[]{1, -212666550, -1398619906}}, (sbyte)M11(new bool[]{true}, -10944, new S0('P', 'o', 65535, true, 62629), new int[][]{new int[]{2001580657, 1513392234, 1}, new int[]{2, 10, 2147483646, 347763517}, new int[]{2147483647, 1, -2147483647, 1056337650, 1}, new int[]{-10}, new int[]{970895925, 1, -2147483648, -1633465125}, new int[]{1995903729, 721010245, -2147483648, -10, 0}, new int[]{-1465926257}}, -128, (sbyte)M11(new bool[]{false, true, false, false, false, false}, 1, new S0('S', 'X', 10, false, 1), new int[][]{new int[]{-366918337, 446283752}}, 0, (sbyte)((sbyte)M11(new bool[]{false, false}, 1, new S0('*', (char)M11(new bool[]{true, true, true, true, true, true, false}, 0, new S0('T', '3', 1, true, 1), new int[][]{new int[]{0}, new int[]{1102171118}, new int[]{2147483647, 1}, new int[]{-662588893, 1901789663}, new int[]{-2147483647, -1385765828}}, (sbyte)(s_1[0, 0] % (ushort)(65535 | 1)), (sbyte)M11(new bool[]{true, true}, (short)M11(new bool[]{false, true}, 12982, new S0('q', '0', 0, true, 0), new int[][]{new int[]{-1930702627, -2033050233, 1710308911}, new int[]{2147483647, -157203702}, new int[]{-1072999631, 1, 1}, new int[]{2147483647, -1135928948, 2147483646}, new int[]{-766329771, 0, 0, -773506158}}, (sbyte)M11(new bool[]{false, false, true, false, false, false, true, true, false, true}, 32766, new S0('K', ']', 65418, true, 5992), new int[][]{new int[]{2147483647}, new int[]{1148028980, -2, 976731447}, new int[]{-2042592831, -451620973, -1309344010, -2147483647, 1561383053, -2061796204, -968466626, 782822179}, new int[]{-2058616738, 2147483646, 1979655167, 1, -2147483648, -10, -10, 1, 2147483647}, new int[]{-585424949, -10, 1, 55780499, -94045490}, new int[]{-2147483647, -1346118792, 1776523912, -6650285}, new int[]{0, 0, 1176521422, 865796091, -2020400124, 0}, new int[]{-2147483647, -991714973, -2133401228, 0, 1, -1936744204, -2147483647}, new int[]{1390397810, 2147483646, 1, -545789545, -334551562}}, 2, M12(true), new long[, ]{{5620429915894422102L, -9223372036854775808L, 6465146270827981284L, 10L}, {9223372036854775807L, -8334561135658105591L, 0L, 0L}}, (uint)M12(s_6.F3)), 1, new long[, ]{{1L, 2L, 3344525284027265304L}, {-6269304273260329218L, -8213399802041301557L, 2L}, {6205935965166142161L, -7995827375904318258L, 3964168874346596816L}, {2L, -9223372036854775807L, 1L}, {8101402840915798793L, -9223372036854775808L, 0L}, {-5427924204318905623L, 6673935706136786347L, -5148949429557172638L}, {0L, 4999348926213146344L, 1L}, {10L, -7781589012121085531L, 2044548255760273931L}, {1165521395370990978L, 5943289227212001703L, 2204886872906624832L}, {-8798162905568238576L, -8608376922376761514L, 1112105442712739134L}}, (uint)M11(new bool[]{true, true, false, true, false, true}, 1, new S0(s_3, s_3, s_6.F4, M13(), s_6.F2++), new int[][]{new int[]{1, 1066753817, 1, 34367352}, new int[]{-734942112}, new int[]{0}}, 0, -127, new long[, ]{{460157862960217898L, 9223372036854775806L, 1029694753834960006L, -9223372036854775808L, -5386959226996401859L, -7377801215725710482L, -9223372036854775808L}, {987057715732164546L, -9223372036854775807L, 2L, -1304530017764178132L, -10L, -236694370828811233L, 6770185530718822356L}, {-10L, 2L, -7396761283844745024L, -7956950208943015824L, 579640169309540535L, 9223372036854775807L, -1121752786873538555L}, {-2351142468604885942L, -7407621224732278203L, -8219356622609331047L, 4122026659257168878L, -3649339323143495649L, 0L, -2494317391348774857L}}, (uint)M12(s_6.F3))), new S0('a', '^', 33141, false, 20307), new int[][]{new int[]{2147483646, 2147483647, -2}, new int[]{-1702492899, -2, 1860137921, 0, -967480954}, new int[]{1309967368}, new int[]{10, -399656784, 1981043803, -10}, new int[]{1, -67877825, -2, -565036531}, new int[]{1057816364, 2147483647, 1, -808408731}, new int[]{885180509, 1, 1561817047}, new int[]{1, -2147483647, 464727143}, new int[]{-185031714, 1942045475, 1057518841, 1524785037, 0}, new int[]{-536724946, 1, -2147483647, 923684871, 643976195, 1884254619, 1621993833}}, 0, 90, new long[, ]{{8362079039015383767L, -9223372036854775807L, -3251059334895363347L, 9223372036854775807L, 3668322864583296213L, 8642971918365301920L, 6786030260528933285L, -9005223301888246069L}, {-8112879971990871091L, 1L, -2712496036381937398L, -10L, 8110795573481112355L, -8036763135670047266L, -9223372036854775808L, 4982596119051122724L}, {0L, 5300951667287513650L, 1L, 0L, 4789329796026178264L, 9223372036854775807L, 0L, 5784057462135844397L}, {842778737830513277L, 0L, -9223372036854775807L, -9223372036854775808L, 0L, 9223372036854775807L, -8731840550206546038L, 2L}, {-9223372036854775807L, 10L, 1944022702394286657L, 0L, 1L, -9223372036854775808L, -988688673676787046L, 3758315637953424712L}, {-8312012303452381647L, -1119402086732814349L, 3001541027099873124L, -9223372036854775808L, 10L, 9096938398923583958L, -9223372036854775808L, -9223372036854775808L}, {1L, -436601766118390443L, -3891702120985394203L, -6264720547159206131L, 2903876740917448846L, -7337443013041719189L, -3131004284090589339L, 9223372036854775807L}, {2491714305614809107L, -7040247497988475165L, -5442882425335922311L, -7811165575947171355L, 9223372036854775807L, -8527374218233836747L, 1402133778592744563L, -4253235027794329737L}, {9223372036854775807L, -6367864102289379375L, -9223372036854775808L, -3084993238658854908L, 4054871540388199699L, -2342921173183119008L, -9223372036854775807L, -3595345890577142353L}, {4003640229476163829L, -2L, -4034284080904650624L, -1598914893119089673L, -8239596975178678448L, 9223372036854775806L, -3400409468603670987L, 9223372036854775807L}}, 1U), new long[, ]{{-9176214060071722856L, 1L, 5061425485882579609L, 0L, 9223372036854775807L, -1L, 1L}, {-3786455518200822173L, 697868804796786042L, 1608946385154951549L, 6931890873147280013L, 0L, 9223372036854775806L, -6974860032409005848L}, {0L, 0L, 7948146404775669062L, 1L, 9204135551195606270L, -6378926992395184019L, 1L}, {1241698982098373981L, 2924066943114240298L, -4277507369817160784L, 8466302693552563406L, 1L, 6544113333215681337L, 2524303347568861975L}, {7297280752854436793L, 0L, 5333964291116122007L, -5651506617893142373L, 0L, 3703654855103427241L, 1L}, {-7370288401914378310L, 8331108346021927052L, 9223372036854775807L, 10L, 6628837927243400464L, -9223372036854775808L, 4086318739610363562L}, {0L, -9223372036854775808L, -1L, -3664235877304891121L, -5470520096954186383L, 2L, -1700304615179634192L}, {-9223372036854775808L, 0L, -10L, 8721486221441990360L, 1L, -2622879062664729772L, 9223372036854775807L}, {9223372036854775807L, -5310733252481522428L, 0L, -2268786761505650931L, 8876658404338892883L, -7614164084184606593L, -6383923015326804674L}}, 10U), s_4--, s_6.F3, 2), M14(), (sbyte)M11(new bool[]{false, false, false, false, true, false, false}, (short)M12(M13()), s_6, new int[][]{new int[]{1}, new int[]{-651839112}, new int[]{1}}, M16((int)M12(M17())), M12(s_6.F3), new long[, ]{{3122757915959487878L, -10L, 0L, -9223372036854775807L, 9223372036854775806L, 9223372036854775806L, -2L, -8378649332143093628L}, {1L, -7416082121387514515L, 7924861115776003324L, 1858315845839182903L, 9223372036854775806L, 3242153164686543886L, -9183858694231040469L, -269791863069865518L}, {0L, -2543940258000247068L, -5869502602398788047L, 1L, 2700314142506720638L, 7689651504738748258L, -6234712085337535200L, 9223372036854775806L}, {9223372036854775807L, -7836872999458957125L, -2439233428606103812L, 10L, -9223372036854775807L, -1836959489558613937L, 0L, 0L}, {-790188357051628277L, 7320155450399964215L, -7764504214671354106L, -9223372036854775807L, 9223372036854775807L, 5987905257689043835L, -1L, -8162946239936380170L}, {0L, 1280662237848270140L, 7504998346164587965L, 9223372036854775807L, 9223372036854775806L, 7386034313051275655L, -2432319982058103125L, -2L}, {7262028050151409388L, 6123300873418077201L, 9223372036854775807L, 1407397649310204315L, -10L, 9223372036854775807L, 10L, 1L}}, (uint)((byte)M12(false) * (long)M11(new bool[]{false}, 4242, s_6, new int[][]{new int[]{1, 1, 843745658, 1, 2147483647, 1}, new int[]{-2}, new int[]{74874329, 236877869, -2147483647, 2068647497, -2, 1, 2, 2147483647}, new int[]{2003150997, -2147483648, -2147483648, -1516329174, 1, -1145842945, 593102031}, new int[]{-1051362835, 10, 1806683266, -2147483647, 1315991448, -187409537}, new int[]{0}, new int[]{-1691720871, 0, -2147483647, 782805732, 10, 0, 2071100973, 1}, new int[]{-401325351, -2011833814, -2, 1964442103, 644778814}, new int[]{-584025145, -2147483647, -1047825012, 0, 0}, new int[]{1736680011, -1858808899, 1110108112, -2147483647, -2147483648, 1, 492741656, 2147483646, 10}}, (sbyte)M11(new bool[]{true, true, false, false, false, false, false, true, false, false}, 25971, s_6, new int[][]{new int[]{-1, -1316640338}, new int[]{1840785120, 0}, new int[]{1182858976, 0}, new int[]{0}, new int[]{0, -2}}, (sbyte)(s_5[0, 0] ^ 3597458579084940502L), (sbyte)(461623766U & (ulong)M12(M17())), new long[, ]{{-2L, 0L, -8240742392280860938L, 9223372036854775807L, 9223372036854775806L, 1L, 9074899399580782255L}, {2526560578376435718L, 1L, -9223372036854775808L, 8835771360543869858L, 9223372036854775806L, -3212136796895184829L, -1189269957754761697L}, {8725535635885930785L, 7429173560945100523L, 6168487632232574915L, -9223372036854775807L, -9223372036854775807L, -4725208234351756334L, 0L}, {9223372036854775806L, -9223372036854775807L, -5937013102454653650L, 527623543462339595L, 2225764689347980001L, 0L, 10L}}, (uint)M11(new bool[]{true, true, true, false, false, true, false, false, true, true}, 1, s_6, new int[][]{new int[]{-557017628, -2147483647, -2147483647, -1909862511, 1, 363608052, -2133842260}, new int[]{-2147483648, -307910916, -1851521006, 823817098, -2147483648, -500927456, 10, -2147483647}, new int[]{-1000798267, 1961940446, 1559879149, 972163782}, new int[]{0, 1, -427519182, 1650678684, -2147483647}, new int[]{394595621, 2147483646}, new int[]{-10, 0, -918766141, 0, 0}, new int[]{-2147483648, -2147483648, 1, 1386973214, 374239741, 566154204}}, -76, 77, new long[, ]{{-8312412540477837154L, 1L, -2120969736573721684L, -9223372036854775807L, 5116120045526246978L, -2117407918438481845L, 0L, 9223372036854775807L, 10L, 9223372036854775806L}, {-7214571593456971442L, 1L, -9223372036854775808L, -9223372036854775807L, 1L, -8862309426996007335L, -8488131909703730914L, -5475405884861759077L, 6589338094197739000L, 624773445627237756L}}, 3347268299U)), -128, new long[, ]{{1L, 970485755198460100L, -9223372036854775807L, 1038128162230054626L}}, 2553659339U))), 1, new long[, ]{{1L, -5844158541308291032L, 292393859560461776L, 3418179738167551307L, 4685539701006027010L, 9223372036854775807L, -182143020101050034L, -4063399950470430918L, -8813161482952036994L}, {7634148120770995859L, 0L, -4314817051082594007L, 1L, -7757726918532658600L, 2L, 0L, -9223372036854775808L, 1L}, {-8228730821659979726L, 8679406253353605351L, -9223372036854775807L, 1L, 0L, -6955202493882996255L, 1938874772478482229L, 1510084727329762687L, 9223372036854775806L}, {6387540999369503622L, -798633287885939124L, -4154352788032545454L, 7013486584958724765L, -1L, -9223372036854775808L, -8653099537026636578L, -8589392351457302715L, 1L}, {1L, 1L, 9223372036854775806L, -377005293040329747L, -9223372036854775807L, -1543942346268780158L, -1628197991425075861L, 9015287542175212284L, -1L}, {8603061913551811077L, 5034953494258847409L, 1L, 1L, -450546354675758024L, 6803414142450943362L, -9223372036854775807L, 7546558216636397243L, -3206431037825251543L}, {-9223372036854775807L, -8489835485936981252L, 1L, 8192050866323819543L, 1L, 1L, 9223372036854775806L, -1213449244508243160L, -1655997976711978051L}}, 110444992U) | 2501154325U), new long[, ]{{0L, 0L, 4343836687299001027L, -9223372036854775807L, -6955245327686129086L, 0L, 8971560394823386015L, 7943147907823589019L}, {-7539592157744255684L, 4944397368994673718L, -8775219213555621264L, -9223372036854775808L, -7481976764357395395L, -3007672688968003053L, 3720532040616252041L, 5010726081468756657L}, {7338223919270706729L, 9223372036854775807L, 1L, 2629358590510459143L, 1L, 6160100573620641823L, 4530103752913219704L, -9223372036854775808L}, {9223372036854775806L, 10L, -7698661659215530409L, -2205897522255613166L, 9223372036854775806L, 8290039747669431803L, -7406393809092603188L, -3373201665714582508L}}, 3317514959U), new long[, ]{{-9223372036854775807L, 10L, 4021625197920464935L, 2402201178675553838L, -9223372036854775808L, 10L, 1L, -2279368072438032839L, 0L}, {-8130581243815504484L, 7638262189575018388L, -3650305435102131905L, -9223372036854775807L, -1L, 9223372036854775806L, -7465662288643334798L, 1L, -4460973738509801686L}, {0L, -2359096587990771731L, 0L, 0L, -9223372036854775808L, 8697538830386421809L, 1L, 0L, 0L}, {8010351654937522299L, -9223372036854775807L, 1469763232376110021L, 6354651747920495395L, 0L, -9223372036854775807L, -4125153208077683604L, -7039540475880277278L, 1L}, {1L, -2L, 9223372036854775806L, 9206311225553451175L, -1265914125337336543L, 4902356653165121919L, -8863583135933515178L, 4604583282975711800L, -9223372036854775807L}}, 1771267673U), -127, new long[, ]{{8723321284673755317L}}, 4294967295U);
                return (ulong)M11(new bool[]{false, false}, (short)((byte)M11(new bool[]{true, false, true, false, true, true, false, true, false}, -32767, new S0('I', 'r', 10104, false, 1), new int[][]{new int[]{1}, new int[]{2, 2147483647, -1189044772}, new int[]{-1, -1493707035, -2147483647, 2147483646, 1730243584, -10, -2147483647, 1436738909}, new int[]{2, -2, 2147483647, -1509897348, 2147483647, 999362410, 0, -573627728}, new int[]{-1931707212, -1622990167, 2147483647, -2147483648}, new int[]{10, 1325003818, 1, 1, 779629842, -1765460105, 2147483646, 2147483647}, new int[]{2147483646, 1866728024, -2047485336, 2012695309, 2147483647, 1, -2147483648, -458615488}, new int[]{-953165555}, new int[]{-247573436, 0, 1, 2, 567338247, 2147483646, 2147483646, -1064533226, 599139046, -1347259856}, new int[]{-856683962, -1344079968, 1291853838, 1697438046, 1162083667, -10}}, M12(M16(s_5[0, 0]) != s_4), 126, new long[, ]{{7584845305535148421L}, {1L}, {-9223372036854775808L}, {-1683018521323510961L}}, (uint)((byte)M12(M13()) - (short)M12(s_6.F3))) | '~'), M18(), M14(), M12(s_6.F3), 2, new long[, ]{{-2L, -1920160699311270504L, 9223372036854775806L}, {-9223372036854775808L, 0L, -8943589045980027198L}, {1L, 9223372036854775807L, -4741499265288336739L}, {2885229628169554471L, 3551300638618316567L, 0L}, {-7575892437664404885L, 8939463000688816529L, 5749494241403102306L}, {-9223372036854775808L, 5626511592650642022L, -4897326666666967820L}}, (uint)M11(new bool[]{true, true, true, true, true, true}, -12497, s_6, new int[][]{new int[]{-992396128}, new int[]{931840568, 1, 1074409351, -2147483647, 2147483647}, new int[]{-1796572072, -2147483647, 0, 1655432243}, new int[]{1, -300561562, 2082843177, 1254507242, 1, 1948087063}, new int[]{-2147483647, -1354051307, 1, 858385641}, new int[]{770332710, 2147483646, -2, -1496713513}, new int[]{1, -357288807, 94071598, 0, -10, 264243792}}, (sbyte)(913248150U + (long)M12(s_6.F3)), -79, new long[, ]{{9223372036854775807L}, {-1714534275039600468L}, {1L}, {4641384372860162497L}, {-9223372036854775808L}}, (uint)(1U - (short)M12(true))));
            }
        }
        else
        {
            sbyte var2 = 24;
        }

        int[] var3 = new int[]{1646899550, 740699735, 570135320, -10, -2147483647, -10, 411060310, 1};
        long var4 = 1L;
        return 1UL;
    }

    static ushort M11(bool[] arg0, short arg1, S0 arg2, int[][] arg3, sbyte arg4, sbyte arg5, long[, ] arg6, uint arg7)
    {
        {
            arg6 = arg6;
        }

        arg0 = arg0;
        return arg2.F4;
    }

    static sbyte M12(bool arg0)
    {
        if (M13())
        {
            M13();
            s_2 = s_2;
            arg0 = false;
            {
                if (false)
                {
                    M13();
                    s_2 = s_2;
                    if (arg0)
                    {
                        M13();
                        ushort var0 = 52183;
                        s_2 = s_2;
                        if ((char)(0 + (short)(-2 / (int)((s_2[0][0, 0] | 119) | 1))) > 504648339)
                        {
                            char var1 = '?';
                        }
                        else
                        {
                            s_1 = s_1;
                        }

                        if (false)
                        {
                            if (M13())
                            {
                                s_1[0, 0] = s_1[0, 0];
                                s_1 = s_1;
                                s_3 = s_3;
                            }
                            else
                            {
                                s_3 = ']';
                                short var2 = -12729;
                                s_4 = 63629;
                                var0 -= var0;
                                s_2[0] = s_2[0];
                            }
                        }
                        else
                        {
                            {
                                s_1[0, 0] = 65534;
                                s_1[0, 0] = s_4;
                                if (arg0)
                                {
                                    bool[] var3 = new bool[]{true, false, true, true, false, true, false, true};
                                    s_4 = s_1[0, 0];
                                }
                                else
                                {
                                    M13();
                                    int var4 = -10;
                                    s_2[0] = s_2[0];
                                    var4 = var4;
                                    var0 = s_1[0, 0];
                                }

                                arg0 ^= arg0;
                                s_5 = s_5;
                            }
                        }

                        M13();
                        M13();
                    }
                    else
                    {
                        if (arg0)
                        {
                            s_1[0, 0] = s_1[0, 0]++;
                            short var5 = -10;
                            s_4 -= 6075;
                        }

                        long var6 = -5703987040671429191L;
                        short[] var7 = new short[]{2, 30364, 32767, -1, 0, -6065, -27731, -32767, 7688};
                    }

                    if (true)
                    {
                        sbyte var8 = (sbyte)((short)(4187 - s_2[0][0, 0]) - -1197161509878697024L);
                        s_1 = s_1;
                        s_2 = s_2;
                        sbyte var9 = var8;
                        s_6 = new S0('q', '@', 33572, false, 27586);
                        s_6.F3 = arg0;
                        s_6.F2 = s_1[0, 0]--;
                    }
                }
                else
                {
                    s_6.F2 = 0;
                    return 1;
                }

                arg0 = s_6.F3 || arg0;
            }

            M13();
            if (arg0)
            {
                s_6.F2 = (ushort)(18446744073709551614UL & s_3);
            }
            else
            {
                if (s_6.F3)
                {
                    uint var10 = (uint)(-10 | (s_5[0, 0] * 3802652282U));
                    s_6.F3 = arg0;
                }
                else
                {
                    s_6 = s_6;
                }

                s_6.F0 = s_6.F1;
            }
        }

        short[] var11 = new short[]{12533, 0, 32767, -10616, 4963};
        return 0;
    }

    static bool M13()
    {
        char[] var0 = new char[]{'U', ','};
        return true;
    }

    static int[][] M14()
    {
        if (true)
        {
            short var0 = 29363;
        }

        S0 var1 = s_6;
        return M15(var1.F1, s_6.F4, -47, s_2[0][0, 0]);
    }

    static int[][] M15(char arg0, ushort arg1, sbyte arg2, byte arg3)
    {
        {
            ulong var0 = 10781001400233085308UL;
        }

        return new int[][]{new int[]{-122974357, 0, 1, -2147483647}, new int[]{-2147483647, -1}, new int[]{346741034, 281867326, -425032423, 0}};
    }

    static sbyte M16(int arg0)
    {
        s_6.F2 ^= 21102;
        uint var0 = 4294967295U;
        return -128;
    }

    static bool M17()
    {
        M18();
        return s_6.F3;
    }

    static S0 M18()
    {
        ulong var0 = (ulong)(s_6.F0 - 0L);
        return s_6;
    }

    static char M19()
    {
        s_6.F0 = s_3;
        if (s_6.F3)
        {
            s_6.F3 = s_6.F3 || false;
            s_6.F1 = s_6.F1;
            short[] var0 = new short[]{1, -14527, 0, 32766, -2, -29198, 32766, 14203, 143, -11435};
            var0[0] = 2;
        }

        s_2[0] = new byte[, ]{{56, 0, 172, 1}};
        short var1 = 17909;
        if (s_6.F3)
        {
            s_5[0, 0] = -2147483647;
            M20(new sbyte[]{63, -127, 0, -11, 14, 1, 1, 2, 124});
            s_6.F2 = s_4;
        }
        else
        {
            {
                s_6.F0++;
                sbyte var2 = (sbyte)(s_4++ * s_5[0, 0]);
                s_4 = s_6.F4;
                {
                    s_3 = s_6.F0;
                    M20(new sbyte[]{18, 1, 89, 96});
                }

                s_2 = s_2;
            }

            int[] var3 = new int[]{2147204515, -1524626121, 1178342069, 1956311118};
            s_2 = s_2;
        }

        S0 var4 = new S0(',', 'P', 0, false, 50451);
        return s_3;
    }

    static long[] M20(sbyte[] arg0)
    {
        sbyte var0 = arg0[0];
        short var1 = 32766;
        s_6.F4 = s_1[0, 0];
        return new long[]{1L, -9223372036854775808L, 9223372036854775806L, 2L, -10L};
    }

    static S0 M21(int arg0)
    {
        M22();
        s_1[0, 0] = s_6.F2;
        s_1[0, 0] = s_1[0, 0];
        return s_6;
    }

    static ulong[] M22()
    {
        s_6.F4 = s_6.F4;
        s_11 = new char[][]{new char[]{'0'}, new char[]{'M', '@'}};
        s_13 = s_13;
        s_14 = -20;
        return new ulong[]{9447892527202587143UL, 17102516191057917808UL, 0UL};
    }

    static byte M23(byte[] arg0, long[] arg1, bool arg2, S0 arg3, long arg4)
    {
        if (s_6.F3)
        {
            s_7 = s_12++;
        }

        s_17 = (uint)(s_13 ^ (sbyte)(s_17 - s_14));
        return s_9++;
    }

    static byte[] M24(S0 arg0, char arg1, byte arg2)
    {
        uint var0 = s_17++;
        return new byte[]{229, 121, 0, 184};
    }

    static long[] M25(bool[] arg0)
    {
        s_14 = M26(s_6, new sbyte[]{17, 127, -10, -26, -118, 126, -59, 76, 28, 110});
        s_6.F0 = s_6.F1++;
        if (s_16)
        {
            s_5[0, 0] = s_5[0, 0]--;
        }
        else
        {
            s_15 = s_15;
            if (false)
            {
                s_19++;
            }
        }

        return new long[]{-10L};
    }

    static sbyte M26(S0 arg0, sbyte[] arg1)
    {
        s_8 &= true;
        s_8 = false;
        if (s_16)
        {
            ulong var0 = 11440621575789764280UL;
        }

        s_18 = s_13;
        sbyte[] var1 = arg1;
        arg0.F0 = s_11[0][0];
        s_4 = (ushort)(arg1[0] | s_15--);
        return -15;
    }

    static char[, ] M27()
    {
        M28((ulong)(s_12 % (char)((char)(159 % (int)((int)M28(6160023039305378541UL, new ulong[]{10UL, 1UL, 0UL, 2630991313006416286UL, 18446744073709551615UL, 1UL, 2647944164291373584UL, 17113275343869438725UL}) | 1)) | 1)), new ulong[]{0UL, 0UL, 6947252513041955982UL, 6100829699096133914UL});
        return new char[, ]{{'%', '1', ')', ']', 'g'}, {'2', '0', 'e', '\'', 'm'}, {'{', '^', ';', '$', 'y'}, {'A', 'x', 'B', 'N', '-'}, {'I', 'A', 'A', 'Z', 'z'}, {'*', 'o', '\\', 'n', '|'}, {'P', 'B', 'V', 'r', 'N'}};
    }

    static short M28(ulong arg0, ulong[] arg1)
    {
        s_11 = s_11;
        s_10[0] = s_6.F0;
        byte[][][] var0 = new byte[][][]{new byte[][]{new byte[]{213, 243, 1}}, new byte[][]{new byte[]{26, 66, 131}}, new byte[][]{new byte[]{1, 162}}};
        return s_15;
    }

    static long[][] M29()
    {
        if (s_8)
        {
            if (s_6.F3)
            {
                s_6.F0 = (char)(s_15 & s_19);
                s_20 = new S0('q', 'c', 65535, false, 46762);
                s_17 = s_17;
            }

            M30(s_7, s_6.F4, 12818336199713781501UL, s_17, new ushort[]{65534, 65534, 1, 25114, 65535, 53730}, s_4++);
            {
                M30(s_14, s_20.F2--, 1UL, s_17, new ushort[]{0}, s_20.F2);
                long var0 = s_18;
                if (true)
                {
                    short[] var1 = M31();
                    s_27.F1 = s_11[0][0]++;
                }
            }

            if (s_16)
            {
                s_41.F1 = s_39.F0;
                s_18 = 9223372036854775806L;
                char var2 = s_20.F0;
            }
            else
            {
                if (false)
                {
                    {
                        s_1[0, 0] = 65535;
                        s_23 = M39((long)(s_24 | s_5[0, 0]), s_45);
                    }
                }
            }
        }
        else
        {
            if (s_16)
            {
                s_41.F0 = '8';
                s_44 = s_44;
                s_41.F3 = s_28.F3;
                {
                    if (s_39.F3)
                    {
                        s_20 = s_27;
                        s_6.F0 = s_39.F1++;
                        s_39.F1 = s_28.F1;
                        s_26[0][0] = s_42;
                        M50();
                    }
                    else
                    {
                        s_42 = s_37[0];
                        if (false)
                        {
                            char var3 = '[';
                            if (M45())
                            {
                                var3 = (char)(s_17 & s_20.F2++);
                                s_48 = 127;
                            }

                            M46();
                            s_26 = new byte[][]{new byte[]{237, 0, 254, 170, 1, 222, 242}, new byte[]{254, 255, 184, 111}, new byte[]{1, 254, 0, 203, 1}, new byte[]{7, 161, 1, 134, 216}, new byte[]{0, 0, 10, 225, 155, 82, 1}, new byte[]{23, 192, 72, 255, 254, 0, 0}, new byte[]{186, 255}, new byte[]{1, 65, 239, 255, 0, 24, 93}, new byte[]{114}, new byte[]{255, 10, 0, 0}};
                            s_2[0][0, 0] = (byte)M43(18446744073709551615UL);
                            s_5[0, 0] = 323526323;
                            s_28.F3 = false;
                            s_5 = new int[, ]{{508292167, 0, 1823149719, -1519671762, -1665176472, -104838906, -2147483647}, {-535845820, 2147483647, -2047214112, -1153621006, -2147483648, 2147483647, -692697083}, {-828036752, 0, 10, 287191327, 980245524, -10, 1}, {0, -2147483648, -2147483648, 1, -1939930523, 1, -2}, {-971731701, 1901157982, 2147483646, 1243010659, 59095147, 1120897037, -1050742989}, {1, 2080469114, 0, 1902863517, 1850260871, 929729119, 1}};
                            s_6.F0 = s_36;
                            s_21 = s_37;
                            short var4 = s_46[0];
                        }

                        s_14 = s_48;
                        s_18 = s_19++;
                    }

                    if (false)
                    {
                        s_39.F4--;
                        s_35[0] = s_15;
                        s_46[0] = -32768;
                    }

                    {
                        s_20.F1 = s_20.F1;
                        s_6.F1 = s_27.F0;
                        char var5 = (char)(s_32[0, 0] / (byte)(s_42 | 1));
                    }
                }
            }

            if (true)
            {
                s_6.F4 = (ushort)M41((char)M46());
            }
        }

        return new long[][]{new long[]{3813010655132466200L, -2L, 6133133518352581794L}, new long[]{1L, 0L, 0L, -9223372036854775807L, 7250305641449545033L, 2687436964839574546L, -5369203556138301762L}, new long[]{-5669673716577247687L, -6013078401799105786L, -9223372036854775808L, 0L, 2038229809756754271L, 0L}};
    }

    static long M30(sbyte arg0, ushort arg1, ulong arg2, uint arg3, ushort[] arg4, ushort arg5)
    {
        if (s_8)
        {
            s_20.F4 = 0;
        }
        else
        {
            short[] var0 = new short[]{-12301, 9728, -32767, -12116, -1922};
            ushort var1 = s_1[0, 0];
        }

        return s_18;
    }

    static short[] M31()
    {
        s_11[0] = s_10;
        {
            ++s_12;
        }

        s_20.F0 = s_3;
        {
            M32();
            if (s_20.F3)
            {
                s_45 = s_45;
            }
            else
            {
                if (s_41.F3)
                {
                    uint[] var0 = new uint[]{0U, 1442124649U, 0U, 4163519000U, 326781864U, 1U, 1461199013U, 2639510494U, 512245807U};
                    if (s_20.F3)
                    {
                        M43((ulong)M41(s_36));
                        M34();
                    }

                    s_20.F3 = s_6.F3;
                }

                if (s_27.F1 < s_20.F2)
                {
                    s_28.F1 = (char)(32767 / (ushort)(s_27.F4 | 1));
                }
                else
                {
                    long[, ] var1 = new long[, ]{{-9223372036854775807L}};
                    s_20.F2 = s_20.F2;
                    M39(s_13, s_45);
                }

                s_26[0][0] = 69;
                bool[] var2 = new bool[]{true};
            }
        }

        if (s_16)
        {
            if (s_16)
            {
                if (s_16)
                {
                    if (s_8)
                    {
                        ulong[] var3 = new ulong[]{1UL, 501531496049548581UL, 1UL, 1UL, 17490973565996011812UL, 0UL};
                        s_4 = s_1[0, 0];
                        s_30 = s_6.F3;
                        M42(s_39.F1, s_5[0, 0], M50(), s_13, false);
                        s_41.F3 = false;
                    }
                }
                else
                {
                    {
                        sbyte var4 = s_29--;
                        s_18 = s_13--;
                        if (s_16 || s_41.F3)
                        {
                            if (true)
                            {
                                s_29 = s_29;
                                byte var5 = s_33[0];
                                s_6.F3 = s_39.F3;
                                s_29 = var4;
                                M49(s_27.F4--, M39((long)M48(s_31), s_45) && M39(1L, s_45));
                                byte[] var6 = s_33;
                                M36(s_28.F0);
                            }

                            if (s_28.F3)
                            {
                                s_31 = s_22;
                                ulong var7 = 0UL;
                            }

                            char[] var8 = s_10;
                            bool[] var9 = M32();
                        }
                    }

                    sbyte var10 = s_12;
                    uint var11 = s_17;
                    s_27.F4 = s_41.F4;
                    s_41 = new S0('Z', '4', 24836, true, 23496);
                    s_1[0, 0] = s_20.F2;
                }

                long[] var12 = new long[]{-9223372036854775808L, 2206824356899451787L};
                s_45 <<= s_5[0, 0];
            }

            M45();
        }

        {
            s_41.F3 = true;
            if (s_28.F3)
            {
                {
                    long var13 = -2007994104387958141L;
                }

                sbyte var14 = s_14--;
                {
                    s_46 = s_46;
                }

                s_27.F1 = ',';
                if (s_6.F3)
                {
                    if (s_41.F3)
                    {
                        {
                            s_23 = false;
                            s_41.F0 = s_41.F1;
                            if (s_16)
                            {
                                s_13 = s_18;
                                s_1[0, 0] = s_39.F4;
                            }
                            else
                            {
                                s_20.F0 = '9';
                                s_6 = s_28;
                            }

                            if (false)
                            {
                                S0[, ] var15 = new S0[, ]{{new S0('?', '7', 35246, false, 65535), new S0('_', 'X', 1, true, 1), new S0('\'', '{', 42538, true, 2), new S0('2', '_', 42439, true, 1), new S0('=', '8', 13354, false, 32374), new S0('e', '/', 63308, true, 65535), new S0('*', 'Y', 4873, true, 2952)}, {new S0(',', 'q', 46212, true, 48067), new S0('o', '$', 28369, true, 548), new S0('\'', 'y', 65535, false, 1), new S0('&', '5', 53031, false, 0), new S0('-', '#', 22426, true, 65534), new S0('#', 't', 9630, true, 1), new S0('\'', 'a', 23363, false, 0)}};
                                {
                                    int var16 = s_5[0, 0]--;
                                    byte var17 = s_24;
                                    sbyte var18 = 1;
                                }
                            }
                        }
                    }
                    else
                    {
                        s_46 = s_35;
                    }

                    s_39.F2 = s_20.F4++;
                }
                else
                {
                    {
                        s_28.F0 = 'f';
                        {
                            bool var19 = s_28.F3;
                            byte var20 = s_2[0][0, 0];
                            s_33[0] = 228;
                            s_43 = s_41.F1;
                            ulong var21 = s_45;
                            s_32[0, 0] = s_40;
                        }
                    }

                    sbyte var22 = s_7++;
                    {
                        s_26[0][0] = s_21[0];
                    }

                    s_6.F1 = s_3;
                }
            }
        }

        {
            s_1 = s_1;
            if (false)
            {
                s_20.F1 = s_6.F0;
            }
            else
            {
                {
                    if (false)
                    {
                        s_35 = s_46;
                        s_20.F2++;
                    }
                    else
                    {
                        s_6.F2 = M43(s_45);
                        short var23 = 22735;
                        s_6.F0 = s_43;
                        s_47 = M47();
                        s_28.F3 |= s_20.F3;
                        s_18 = s_18;
                        s_16 = s_8;
                    }

                    long var24 = 8496782421390178356L;
                }

                s_5 = new int[, ]{{-221785755, 1, -1290544821, 1284768770, 1, 431725221, 1426791246, 1173312209}, {1, -2147483647, 401222013, -2112465215, 4093506, 0, -540061929, -2147483647}, {-694994710, 2147483647, -1444848138, 1689186454, -2147483648, 2, -1, 1100346830}, {-916300102, -5530239, 1217981610, 574518281, 509178789, 2147483647, 1031790188, 171751799}, {-999688684, 1259820983, -1076047831, 756558966, -1780631369, 2147483646, 60022830, 0}, {-10, 0, -2125362904, 10, 1251491480, 10, 1490629156, 1361535405}, {1, -168363752, 66810291, 0, 10, 0, 0, 2147483647}, {-2147483648, 1, 1474704941, 1655403348, 1, -2147483648, 1373821919, 1}, {10, 774583376, -1901087856, -779762319, 2147483646, 0, 1980463833, -1194656886}};
            }
        }

        s_41.F4 = s_20.F4++;
        return s_46;
    }

    static bool[] M32()
    {
        {
            if (1680532773720954377UL > (byte)(s_7 % (short)(32767 | 1)))
            {
                if (s_8)
                {
                    s_2[0] = s_2[0];
                    if (4780067820724144006UL < s_17--)
                    {
                        s_19 = s_19;
                        int var0 = 1;
                    }
                    else
                    {
                        M33();
                    }

                    return new bool[]{true, true};
                }
                else
                {
                    if (M39(s_19, 0UL))
                    {
                        s_1[0, 0] = 65534;
                    }
                    else
                    {
                        s_26 = new byte[][]{new byte[]{254, 1, 36}, new byte[]{81, 244, 1, 0, 39, 1, 183, 0}, new byte[]{37, 254, 211, 10}, new byte[]{85, 1, 254, 241, 0, 59, 235, 213}, new byte[]{255, 219, 1, 255}, new byte[]{0, 153, 1, 254, 254, 253}, new byte[]{183, 1, 177, 220}, new byte[]{183, 182, 150, 255, 246, 54, 255}};
                    }

                    s_20.F1 = s_11[0][0];
                    long var1 = s_19;
                    M39(-8158258259342343041L, (ulong)M41(s_3));
                    var1--;
                    {
                        M34();
                        s_2[0] = new byte[, ]{{2, 10, 1, 212, 168, 161, 1, 178, 21, 0}, {1, 254, 0, 108, 28, 0, 0, 1, 254, 35}, {254, 254, 183, 255, 10, 169, 95, 1, 1, 132}, {0, 1, 203, 45, 74, 0, 16, 43, 255, 0}, {45, 128, 193, 75, 0, 0, 178, 0, 10, 30}, {0, 1, 0, 1, 1, 73, 1, 1, 250, 194}, {1, 0, 249, 254, 240, 1, 1, 255, 254, 106}, {255, 254, 255, 205, 53, 1, 120, 253, 89, 131}};
                        M36((char)M42(s_20.F1, s_5[0, 0], new short[]{-25073, 0}, s_18++, s_16));
                    }

                    M35('x', new long[][][]{new long[][]{new long[]{413502504580115381L, 3756896174712241239L, -5532981392681386037L, 1560717240738223387L, 1L, 0L}}, new long[][]{new long[]{0L, 0L}, new long[]{6967803455817912295L, 5396844533920885041L, 9223372036854775806L}, new long[]{10L, -1L, -9223372036854775808L, 9223372036854775806L}}, new long[][]{new long[]{1L, -5151735947225251525L, 9223372036854775806L, -9223372036854775807L, 0L, 1L, -5411377834822873354L, -9223372036854775807L}}, new long[][]{new long[]{6945373508808412463L, -8009297342548756569L, -9223372036854775808L, -325829824018126229L}, new long[]{-7431835561697436262L, 8147368034179529974L}, new long[]{-949945402259256374L, -1L, -8898719709706519609L}}});
                }

                if (s_16)
                {
                    uint var2 = (uint)M42('*', s_5[0, 0], new short[]{22426, 32767}, s_13, s_8);
                }

                s_18 = s_18;
            }
            else
            {
                if (s_6.F3)
                {
                    if (s_16)
                    {
                        {
                            M37((short)M41('3'), s_22, s_22);
                            s_20.F1 = s_3;
                            S0 var3 = s_20;
                            s_11[0][0]--;
                            s_12 = -127;
                            int var4 = s_5[0, 0];
                            s_25 = s_25;
                            if (false)
                            {
                                short var5 = s_15;
                            }
                            else
                            {
                                byte var6 = s_24;
                            }
                        }

                        if (1 != s_4)
                        {
                            {
                                sbyte var7 = -22;
                                ulong var8 = 1UL;
                            }
                        }
                        else
                        {
                            s_23 = false;
                        }
                    }
                    else
                    {
                        s_27 = s_6;
                    }

                    s_4 = s_4;
                    if (s_20.F3)
                    {
                        S0 var9 = M37((short)M36(s_27.F1), s_19, s_18--);
                    }
                    else
                    {
                        M40(new long[]{0L});
                        M39(7113812255037558271L, (ulong)(s_5[0, 0] & s_5[0, 0]));
                        s_28 = s_20;
                        s_3 = 'i';
                        s_13 = s_19;
                        s_3 = s_3;
                        if (s_27.F3)
                        {
                            s_6.F0 = (char)(-6704542111645631956L % (short)(s_15 | 1));
                            s_8 = false;
                            s_24 = (byte)M35('4', new long[][][]{new long[][]{new long[]{0L}, new long[]{0L}}, new long[][]{new long[]{1L, 4428732637214351170L, 1L, 7315318601025080761L, -694125957320487874L}, new long[]{-1244702331515547897L, 10L}}, new long[][]{new long[]{0L, 9223372036854775807L, 5933722312811757830L, -5272018123616934891L, 0L}}, new long[][]{new long[]{0L}, new long[]{5215861213886358409L, 8230523869650899348L, 3350874742706521423L, 3161103868715695616L}}, new long[][]{new long[]{10L, 0L, -9223372036854775807L, 8699277202751398424L}, new long[]{-9223372036854775807L, 0L, 0L, 9223372036854775806L}}, new long[][]{new long[]{9223372036854775806L, 2373732580097603731L}, new long[]{-26503855272424445L}}, new long[][]{new long[]{-2217874031203360445L, 9188289901739566365L}}, new long[][]{new long[]{-5230612655792079450L, -2L, -7839067574646867319L, -9223372036854775808L}, new long[]{-6361602862061814886L, -8946571992062226253L}}, new long[][]{new long[]{-2618245002863424522L, 0L, 9223372036854775807L, 7832478731280770452L}}, new long[][]{new long[]{-9223372036854775807L, -5706120673572362029L, -9223372036854775808L}}});
                            s_2 = new byte[][, ]{new byte[, ]{{255, 0, 132, 173, 107, 1}, {177, 255, 66, 1, 221, 0}}, new byte[, ]{{254, 21, 1, 40, 1, 151}}, new byte[, ]{{69, 0, 255, 1, 1, 115}, {20, 255, 0, 94, 234, 1}}, new byte[, ]{{254, 0, 254, 211, 5, 0}, {0, 188, 130, 3, 143, 1}}, new byte[, ]{{0, 89, 87, 0, 1, 254}}, new byte[, ]{{2, 254, 1, 2, 0, 0}, {57, 1, 254, 255, 254, 1}}, new byte[, ]{{245, 214, 10, 255, 187, 96}, {30, 231, 1, 0, 0, 55}}};
                            s_29 = s_12--;
                            s_22 = s_22;
                        }
                        else
                        {
                            byte var10 = 184;
                        }

                        if (s_20.F3)
                        {
                            s_6 = new S0('^', 'N', 42282, false, 30190);
                            s_28 = s_20;
                        }

                        s_6.F4 = s_6.F4;
                        {
                            M43(0UL);
                            sbyte var11 = s_14;
                        }
                    }

                    M46();
                }

                ulong var12 = 2UL;
                {
                    M39(s_31, var12);
                    S0 var13 = s_27;
                    M41(s_3);
                }
            }

            if (s_8)
            {
                M43(17108395973229703345UL);
                s_10[0] = s_10[0];
            }

            byte[, ] var14 = new byte[, ]{{1, 47, 255, 1, 254}, {0, 10, 103, 49, 0}, {225, 33, 0, 1, 0}, {0, 0, 1, 74, 238}, {79, 241, 0, 1, 0}};
            M40(new long[]{-652137874284640734L});
            if (s_8)
            {
                if (s_30)
                {
                    if (s_16)
                    {
                        M47();
                        s_27.F1 = s_11[0][0];
                        s_27.F0--;
                        s_10 = s_11[0];
                        s_13 = -4364069597676495613L;
                    }
                    else
                    {
                        s_39.F3 = s_20.F3;
                    }
                }
                else
                {
                    uint[] var15 = new uint[]{0U, 2645604232U, 873329083U, 0U, 4294967294U, 3831265527U, 594947687U, 271212110U};
                    {
                        s_23 = false;
                    }

                    s_28.F4 = (ushort)M35(s_20.F1, new long[][][]{new long[][]{new long[]{-9223372036854775808L}, new long[]{-7140317307007321570L}, new long[]{1L}}});
                    s_21 = new byte[]{146, 255, 254};
                    return new bool[]{false, true, true, true, true};
                }

                s_26[0] = new byte[]{0, 230, 0, 255, 0, 255, 94};
                s_32 = s_32;
            }
        }

        S0 var16 = s_28;
        M37((short)M42(s_39.F0, s_5[0, 0], new short[]{32766, 1, 10}, s_13, s_8), s_22, s_13--);
        s_42 = s_38;
        s_39.F2 = s_41.F4;
        sbyte var17 = s_7++;
        s_20.F1 = (char)M43(2193987797334308638UL);
        if (true)
        {
            if (M45())
            {
                {
                    s_26[0] = new byte[]{214, 10, 0, 167, 204, 253};
                    if (var16.F3)
                    {
                        M34();
                        s_39.F0 = s_39.F1;
                    }

                    uint var18 = s_34++;
                    if (s_20.F3)
                    {
                        char var19 = s_39.F0--;
                        s_44 = new ushort[]{3637, 65535, 65535, 42105, 65535, 31622, 63056, 0, 11281};
                        s_26[0] = s_21;
                    }

                    S0 var20 = s_39;
                    s_27.F4 = s_20.F4;
                }

                {
                    byte var21 = s_37[0];
                }
            }
        }
        else
        {
            if (true)
            {
                s_17 ^= s_34;
            }

            if (false)
            {
                if (M39(s_13, (ulong)('c' % (sbyte)(s_7++ | 1))))
                {
                    {
                        s_6.F0 = s_6.F0--;
                        s_2 = new byte[][, ]{new byte[, ]{{99, 1, 1, 0, 3, 1, 96, 132, 74}}, new byte[, ]{{1, 72, 254, 255, 145, 0, 125, 27, 74}, {185, 96, 254, 0, 59, 0, 0, 1, 2}}, new byte[, ]{{255, 0, 124, 42, 126, 166, 254, 157, 10}, {0, 255, 254, 0, 1, 172, 35, 251, 238}}, new byte[, ]{{1, 195, 2, 233, 255, 225, 0, 65, 68}, {0, 246, 253, 159, 1, 0, 200, 1, 0}}, new byte[, ]{{1, 241, 220, 1, 0, 2, 20, 173, 145}, {203, 98, 1, 10, 2, 195, 0, 185, 112}}};
                    }

                    s_2[0] = s_2[0];
                    s_20 = s_41;
                    s_41 = M44();
                    s_4 >>= (int)M46();
                }
            }
            else
            {
                s_41 = s_28;
                short[] var22 = s_35;
            }
        }

        return new bool[]{true, true, false, true, false, false, true};
    }

    static long[][] M33()
    {
        char var0 = 'C';
        return M34();
    }

    static long[][] M34()
    {
        if (s_8)
        {
            {
                s_4 = s_1[0, 0]--;
                M35(s_6.F0, new long[][][]{new long[][]{new long[]{-4676987187222235382L}, new long[]{-9223372036854775808L}, new long[]{5827951920355219289L}, new long[]{9223372036854775807L}, new long[]{1L}, new long[]{9223372036854775806L}, new long[]{2006038887964896901L}}, new long[][]{new long[]{-4978456249730260414L}, new long[]{-10L}, new long[]{-5875442139967484593L}, new long[]{-9223372036854775807L}, new long[]{9223372036854775806L}, new long[]{6194963936822759320L}, new long[]{9223372036854775807L}, new long[]{2L}, new long[]{2486552128460882297L}}, new long[][]{new long[]{1023658765345498174L}, new long[]{6373394271686953352L}, new long[]{0L}, new long[]{-7914341781267300843L}, new long[]{2L}, new long[]{961070872324891476L}}, new long[][]{new long[]{-2478805645541898127L}, new long[]{-9223372036854775807L}, new long[]{8865038742209193441L}, new long[]{-1885172664284799922L}, new long[]{-1L}, new long[]{-6901751336145205539L}}});
            }
        }

        return new long[][]{new long[]{-1014723378209801102L, -9223372036854775807L, 0L, -5744347254310649057L, -7911638492548935466L, 1L, -10L, 1730539163705760062L}, new long[]{1L, 8739450036112704313L, 8319934368586108872L, 3362848644750456222L, -1L}, new long[]{2L, 7378591890806594300L}};
    }

    static char M35(char arg0, long[][][] arg1)
    {
        if (true)
        {
            s_1[0, 0] = (ushort)('}' + s_15);
            s_20 = s_20;
        }
        else
        {
            M36(s_20.F1++);
        }

        if (s_6.F3)
        {
            {
                s_14 = 1;
                s_15 = (short)M36(s_3);
                if (false)
                {
                    s_24 = s_21[0];
                }
            }

            {
                if (true)
                {
                    short var0 = 19180;
                }

                short var1 = -21459;
                s_7 = (sbyte)(s_6.F4 - -3277560571132012799L);
                M36(s_10[0]);
                {
                    ushort var2 = s_6.F2++;
                    s_10 = s_11[0];
                    byte var3 = M36((char)M36(','));
                }
            }

            M36(s_10[0]);
        }
        else
        {
            char var4 = (char)M36(s_6.F0++);
            M37(s_15, s_19, s_22);
            if (false)
            {
                ushort[] var5 = M38(3023295413U, new S0('M', 'X', 46243, false, 43617));
            }

            s_4 = s_1[0, 0];
        }

        return s_3;
    }

    static byte M36(char arg0)
    {
        s_9 = 0;
        if (s_20.F3)
        {
            if (s_16)
            {
                s_6.F2 = s_20.F2;
                M37(s_15, s_18, s_13);
                s_14 = 127;
                s_22 = (long)(s_11[0][0] & s_2[0][0, 0]);
                {
                    return s_21[0];
                }

                s_23 = s_16;
            }
        }

        return s_9;
    }

    static S0 M37(short arg0, long arg1, long arg2)
    {
        if (s_8)
        {
            {
                return s_20;
            }

            sbyte[] var0 = new sbyte[]{45, 0, -37};
        }
        else
        {
            s_21 = s_21;
        }

        return new S0('p', 'K', 61854, false, 56888);
    }

    static ushort[] M38(uint arg0, S0 arg1)
    {
        M39(s_13++, M40(new long[]{-9223372036854775808L, 0L, -2502444647801194600L}));
        return new ushort[]{1, 63093, 5604, 0, 21927, 0, 51720, 1, 1};
    }

    static bool M39(long arg0, ulong arg1)
    {
        s_10[0] = 'x';
        s_20.F2 = 50115;
        ushort var0 = s_1[0, 0];
        s_20.F3 = s_23;
        return s_6.F3;
    }

    static ulong M40(long[] arg0)
    {
        {
            S0 var0 = s_20;
            if (true)
            {
                {
                    s_12 = s_7;
                    if (s_8)
                    {
                        s_17 = 0U;
                        uint var1 = s_17;
                        {
                            s_10 = new char[]{'e', ')', 'F', ']', '$', 'w', '+', 'Z'};
                        }
                    }

                    s_8 = var0.F3;
                }

                {
                    s_12 = s_7--;
                    s_22 = s_19;
                }

                short var2 = s_15;
                {
                    s_6.F2 = s_4;
                    s_6.F3 = s_20.F3;
                    M41(s_20.F1);
                    return 12643059556763247406UL;
                }
            }

            if (s_8)
            {
                char var3 = s_6.F0;
                var3 = s_20.F0++;
                uint[] var4 = new uint[]{4294967295U, 1678266161U, 4294967295U, 0U, 3635739852U};
                M41('3');
                var0.F3 = var0.F3;
                if (s_16)
                {
                    s_6.F1 = s_20.F1++;
                    M41(var3);
                    if (s_16)
                    {
                        s_9 = s_2[0][0, 0]--;
                        s_8 = false;
                        sbyte var5 = s_12;
                        long var6 = -9223372036854775808L;
                        M42(s_6.F1--, s_5[0, 0], new short[]{24210}, (long)M41('j'), s_9 <= var3);
                    }
                    else
                    {
                        M42(s_10[0]--, -230875651, new short[]{20115, 1, 30262, 22860, 0, -28041}, s_18++, false);
                        s_25 = s_17;
                        s_6.F2 = s_1[0, 0];
                        var3 = 'C';
                    }

                    long var7 = arg0[0];
                    s_6.F0 = 'e';
                    {
                        s_18 = s_13;
                        s_21[0] = (byte)(s_10[0] ^ (int)(9705699346190206452UL ^ s_21[0]));
                        bool var8 = var0.F3;
                        M41((char)(s_15 + s_5[0, 0]));
                        s_7 = s_12;
                    }

                    M42(var0.F0, (int)M41('P'), new short[]{2}, -9223372036854775808L & s_14, s_8);
                }

                s_10 = s_11[0];
                s_20.F0 = s_10[0];
                if (true)
                {
                    s_2[0][0, 0] = s_21[0];
                }

                M42('3', s_5[0, 0], new short[]{4949, -15630, 32767, 2, 8585, 0, -32767, 25675, 31800}, s_18, s_20.F3);
                bool[] var9 = new bool[]{false, true, true, false};
                M42('(', (int)M41((char)M42(s_3, s_5[0, 0], new short[]{-1844, -14300, -2, -32767}, arg0[0], s_16)), new short[]{-32768}, (long)M41(var0.F1), var0.F3);
            }
        }

        arg0 = new long[]{7932101652682986063L, -2059487312597774088L, 2322506270444704863L, 4079102167315895492L, -9223372036854775808L, -7489563223829880331L, 1L};
        return (ulong)M41(s_6.F0);
    }

    static sbyte M41(char arg0)
    {
        M42(s_6.F0, 110134437, new short[]{-28282, 10, -32767, 2, 0, 23957}, s_13, true);
        if (s_16)
        {
            s_2[0] = s_2[0];
        }
        else
        {
            short var0 = (short)M42(s_6.F0, s_5[0, 0], new short[]{-32768, 15044, 32767, -32768, 2}, s_18++, s_16);
            s_20.F3 = s_6.F3;
        }

        s_20.F3 = s_16;
        return s_12;
    }

    static byte M42(char arg0, int arg1, short[] arg2, long arg3, bool arg4)
    {
        if (s_8)
        {
            {
                s_20.F0 = (char)(s_17 % (ulong)(9423582819005436718UL | 1));
            }

            s_11[0][0] = s_6.F1;
        }

        ulong var0 = 13142877217425014695UL;
        {
            s_6.F4 = s_20.F2;
            if (s_8)
            {
                s_18 = s_18++;
            }
            else
            {
                {
                    arg4 = true;
                    if (false)
                    {
                        s_21 = s_21;
                    }
                }

                s_17 = 1860509868U;
            }
        }

        return s_24;
    }

    static ushort M43(ulong arg0)
    {
        if (s_8)
        {
            s_4 = 2;
            s_6.F2 = 1;
            if (false)
            {
                if (false)
                {
                    if (s_8)
                    {
                        s_13 = s_22;
                        M44();
                        s_1[0, 0] = s_6.F2++;
                        M44();
                    }

                    short var0 = 2;
                }
                else
                {
                    uint[] var1 = new uint[]{0U, 1U, 1535347257U, 1996834742U, 2U, 1U, 3522604697U};
                    if (s_27.F3)
                    {
                        long var2 = s_18;
                    }
                    else
                    {
                        s_21[0] += s_21[0];
                        ++s_24;
                        s_30 = s_28.F3;
                        s_27.F2 = s_6.F4;
                        s_2[0][0, 0] = s_24;
                        if (s_20.F3)
                        {
                            s_18 = s_13--;
                            s_25 = 909197524U;
                            ulong var3 = arg0;
                            byte var4 = (byte)(s_7 / (sbyte)(1 | 1));
                            bool var5 = s_20.F3;
                            s_31 = s_31;
                            s_28.F3 = s_30;
                            M44();
                        }
                        else
                        {
                            s_6 = new S0('B', '<', 1, false, 30327);
                            s_25 = var1[0];
                            s_28.F0 = s_6.F0;
                        }

                        s_11 = s_11;
                        if (true)
                        {
                            M44();
                            M44();
                            sbyte var6 = s_7--;
                        }
                        else
                        {
                            s_28.F3 |= s_6.F3;
                        }

                        s_21 = s_26[0];
                    }

                    s_6.F4 = (ushort)(s_27.F4++ | s_14++);
                }

                if (s_27.F3)
                {
                    M44();
                    M44();
                    s_32 = s_32;
                    arg0 = arg0;
                    if (s_23)
                    {
                        if (M45())
                        {
                            sbyte var7 = 126;
                        }

                        s_27.F4 = 2;
                        {
                            s_28 = s_6;
                            s_28.F3 = true;
                            bool var8 = s_27.F3;
                            s_12 = (sbyte)(arg0 % (byte)(s_2[0][0, 0] | 1));
                            S0 var9 = s_6;
                        }
                    }

                    s_15 = -20835;
                }

                if (false)
                {
                    if (true)
                    {
                        if (s_8)
                        {
                            M44();
                        }
                        else
                        {
                            s_5 = new int[, ]{{-1729563773, 1877734598, -10, 1, -2147483648, 10}, {2147483646, -2147483647, 1256991366, 2147483646, 1, 40691120}, {-1137204147, -2107844367, 2, 363036280, -1, -584986436}, {1, 1, 1609511657, 2, 0, -1630618808}};
                        }

                        s_9 = (byte)(s_20.F2 + s_17);
                    }
                    else
                    {
                        short var10 = s_15++;
                        int var11 = -10;
                    }

                    M44();
                    M44();
                }
                else
                {
                    s_11[0][0] = s_10[0]--;
                }

                s_20.F0 = s_20.F1;
            }

            s_4 = 0;
            if (true)
            {
                if (M45())
                {
                    if (true)
                    {
                        s_32[0, 0] = s_15;
                    }
                    else
                    {
                        s_28 = new S0('\'', 'E', 0, true, 1);
                        return (ushort)(s_26[0][0] % (long)(s_31 | 1));
                    }
                }
            }
            else
            {
                ushort var12 = s_6.F4;
                if (s_23)
                {
                    s_22 = s_19--;
                    if (s_27.F3)
                    {
                        s_27.F3 ^= s_8;
                        M44();
                    }
                    else
                    {
                        uint var13 = s_25;
                        s_1 = s_1;
                        M44();
                    }

                    s_11[0] = s_10;
                    M45();
                    s_13 = 0L;
                    if (s_28.F3)
                    {
                        char[] var14 = new char[]{'S', 'B', '~', '2', 'I', 'B'};
                        s_27.F1 = s_10[0]++;
                        s_28.F4 = s_20.F2;
                        if (s_20.F3)
                        {
                            {
                                s_6.F0 = s_20.F0;
                                s_22 = s_22;
                            }

                            M44();
                        }
                        else
                        {
                            s_8 = false;
                            s_13 = s_19--;
                        }
                    }

                    if (s_23)
                    {
                        M44();
                        s_33 = s_21;
                        M44();
                        s_20.F0 = s_11[0][0];
                    }
                    else
                    {
                        s_34 = s_34++;
                    }

                    s_3 = s_27.F0;
                }
                else
                {
                    s_11 = new char[][]{new char[]{'b', 'j', 'z', '!'}, new char[]{'V'}, new char[]{'R', ':', '6', ' '}, new char[]{'E', 'r', 'c', 'o'}, new char[]{'.', 'd', '#', '\''}, new char[]{'n', ']', 'g'}, new char[]{'t', 'J', 'Q', '#'}};
                    {
                        s_20.F0 = s_3;
                    }
                }

                if (false)
                {
                    long var15 = s_22;
                    s_35 = s_35;
                    s_27.F3 = s_30;
                    M44();
                    s_26 = new byte[][]{new byte[]{1, 174, 1, 0, 1, 193, 0}, new byte[]{0, 0, 1, 137, 2, 15}, new byte[]{176, 173, 1}, new byte[]{100, 170, 152, 222, 0, 2}, new byte[]{1, 9, 0, 1, 2, 255}, new byte[]{151}, new byte[]{23, 143, 72, 0, 180}, new byte[]{200, 172}, new byte[]{116, 254, 15, 1, 129, 4}};
                    uint var16 = s_34;
                    s_20.F0 = s_11[0][0];
                    {
                        s_32 = s_32;
                    }
                }
            }
        }
        else
        {
            ushort[][] var17 = new ushort[][]{new ushort[]{42940}, new ushort[]{51801}, new ushort[]{6563}};
            if (s_27.F3)
            {
                if (false)
                {
                    if (s_8)
                    {
                        {
                            s_25 = s_25++;
                            if (s_8 && s_6.F3)
                            {
                                s_11[0] = s_11[0];
                                s_27.F1 = 'n';
                                s_36 = s_20.F1;
                                M44();
                                s_20.F0 = s_27.F1;
                                s_10[0] = s_28.F0;
                                s_28.F1 = s_28.F0;
                                S0 var18 = s_6;
                                if (true)
                                {
                                    s_12 = (sbyte)(s_14 & 0);
                                    s_4 = var17[0][0];
                                }
                                else
                                {
                                    s_10[0] = var18.F1;
                                }

                                s_21[0] = s_2[0][0, 0];
                                M45();
                                byte var19 = s_21[0];
                                M44();
                                s_27.F0 = s_6.F1;
                                s_24 %= (byte)(s_21[0]-- | 1);
                            }
                            else
                            {
                                ushort[] var20 = var17[0];
                                s_11[0] = s_10;
                                s_8 = s_16;
                                var17[0][0] = s_6.F4;
                            }

                            s_16 = s_16;
                        }

                        s_37 = s_26[0];
                        short var21 = s_15;
                        s_11[0] = s_11[0];
                    }
                }

                if (s_30)
                {
                    if ((s_17 % (uint)(s_17++ | 1)) <= s_18)
                    {
                        M45();
                        s_35[0]--;
                        s_20 = new S0('L', '%', 1, true, 1);
                        s_12 = s_14;
                        if (true)
                        {
                            s_29 = s_29--;
                            s_20.F1 = 'P';
                            s_28.F4 = 1;
                            s_38 = 178;
                            s_39 = new S0('6', 'j', 65534, true, 13525);
                            s_39.F4 = 27321;
                            s_6.F4 = s_1[0, 0];
                        }
                        else
                        {
                            s_38 = (byte)(s_31 / (uint)(s_17 | 1));
                        }

                        S0 var22 = s_39;
                    }
                    else
                    {
                        s_29 = s_14;
                        ushort[] var23 = new ushort[]{65534, 38290, 0, 2, 65535, 65535, 0, 36450};
                        bool var24 = M45();
                        char[] var25 = s_10;
                        M45();
                        int[] var26 = new int[]{500550498};
                    }
                }
                else
                {
                    s_2[0][0, 0] = 255;
                    s_40 = s_15++;
                }

                M44();
            }

            s_24 = s_37[0];
            s_6.F2 /= (ushort)(s_27.F4 | 1);
            s_27 = M44();
            s_31 = s_19;
            s_1 = s_1;
            M45();
            s_11[0] = s_10;
        }

        s_28.F1 = '}';
        s_39.F4 = s_27.F2;
        s_6.F1 = s_36++;
        if (true)
        {
            ++s_12;
        }

        {
            s_25 = (uint)(0 + arg0);
        }

        short var27 = 31795;
        s_39 = s_6;
        sbyte[] var28 = new sbyte[]{96, 1, 2, 61, 74};
        if (false)
        {
            s_16 = s_27.F3;
        }

        return s_1[0, 0];
    }

    static S0 M44()
    {
        return s_28;
    }

    static bool M45()
    {
        s_26 = s_26;
        return s_27.F3;
    }

    static ulong M46()
    {
        s_41 = s_6;
        s_5 = s_5;
        if (true)
        {
            long[] var0 = new long[]{9223372036854775807L, -9223372036854775808L, 0L, 10L};
            if (false)
            {
                s_21 = s_33;
            }

            {
                s_22 = (long)(254 ^ (ulong)(s_24 * s_5[0, 0]));
                uint var1 = 1U;
                int var2 = 1191194885;
            }

            M47();
            s_25 = (uint)M47();
            s_18 = s_31++;
            if (s_41.F3)
            {
                M49(s_41.F2, false);
            }
        }
        else
        {
            s_27.F3 = s_27.F3 && false;
            s_43 = s_6.F0;
        }

        return 1310836820657154610UL;
    }

    static long M47()
    {
        s_5 = new int[, ]{{-414113269, -89784479, 437972012, 0, -10}, {0, -2147483648, -780950577, 0, -776434275}, {-288088797, -1909915357, -267244772, 0, 278679576}, {-1158393726, 0, 1494192289, 805502794, 1}, {-553096377, -1415054205, 1354879314, 1385634803, 980721872}, {1852786877, -2147483647, 1021102434, 618465338, 421742381}, {-2147483648, 0, 1, 1498957676, -2147483648}};
        if (s_28.F3)
        {
            {
                s_32[0, 0] = s_40;
                if (s_16)
                {
                    M48(s_31);
                    if (s_27.F3)
                    {
                        s_20.F3 = s_28.F3;
                        s_26[0] = new byte[]{177, 215, 115, 1, 0};
                        M48(s_18);
                    }
                }

                if (s_16)
                {
                    s_6.F2 = (ushort)M48((long)M48(s_31--));
                }
            }

            M48(9223372036854775807L);
            s_39.F3 = s_41.F3;
            {
                {
                    if (false)
                    {
                        s_26 = new byte[][]{new byte[]{126, 1, 13, 76}, new byte[]{0, 50, 255, 231, 204, 0, 255}, new byte[]{1, 182, 0, 108}};
                        s_1[0, 0] = s_39.F2;
                        s_19 = (long)M48(s_22--);
                        sbyte var0 = s_29;
                    }
                }

                s_20.F4 = s_1[0, 0];
                s_42 = s_2[0][0, 0]--;
                int var1 = -2139255503;
                M48(s_19);
                ulong var2 = 1UL;
            }

            ulong var3 = 1412760170307335989UL;
            s_34 = s_25;
        }
        else
        {
            s_6 = new S0('?', '1', 0, false, 0);
            s_26[0] = s_37;
            {
                s_27.F4 = s_4;
            }
        }

        s_27 = new S0('*', '#', 65535, true, 32442);
        return s_19;
    }

    static char M48(long arg0)
    {
        return 'R';
    }

    static ushort[] M49(ushort arg0, bool arg1)
    {
        s_41.F0 = s_20.F1;
        return new ushort[]{1, 46566, 43407, 1, 48996};
    }

    static short[] M50()
    {
        s_39.F2 = s_1[0, 0]--;
        --s_20.F2;
        s_28.F3 = s_27.F3;
        M51();
        return s_35;
    }

    static short M51()
    {
        ushort var0 = 0;
        return -5206;
    }

    static bool M52()
    {
        byte var0 = s_9;
        return s_27.F3;
    }
}