// Generated by Fuzzlyn on 2018-06-04 00:03:49
// Seed: 54061680419414580
public class Program
{
    static long s_1 = 8685560392905542871L;
    static short s_2 = 31091;
    static ushort[] s_3 = new ushort[]{0, 44661, 64840, 32741, 1, 44300, 64225, 1654, 0, 15891};
    static ushort[] s_4 = new ushort[]{36607, 10, 1, 12703};
    static sbyte s_5 = 127;
    static short[] s_6 = new short[]{-22965, 4435, -2, -24160, -30580, -18013, 2};
    static ulong s_7 = 11093439553937432784UL;
    static byte[, ] s_8 = new byte[, ]{{0, 196, 1}, {1, 193, 117}, {255, 1, 1}, {1, 1, 1}, {1, 1, 187}, {1, 1, 1}, {255, 182, 0}};
    static bool s_9 = true;
    static sbyte s_10 = 1;
    static ushort s_11 = 64938;
    static sbyte s_12 = -127;
    public static void Main()
    {
        M0();
    }

    static void M0()
    {
        if ((char)((ulong)((byte)(1 & M1((sbyte)((int)M1(false, new int[]{128571351, 2147483646, 24520581, 0, 0}, -208095926801488844L == (ushort)(1 ^ (ushort)M3()), new ushort[]{23190, 14772, 16875}, new long[][][]{new long[][]{new long[]{10L}, new long[]{-4069200181704577173L}}}, (char)(65534 ^ (160 - (ulong)M1(8940476752253908212L != (uint)M3(), new int[]{-1295932821, -1263300411, 2147483646, 502165524, 2, -857057111, 1, 536522042}, false, new ushort[]{27057, 63863}, new long[][][]{new long[][]{new long[]{-8990906784677994610L, 8726501781641051226L}, new long[]{9223372036854775807L}, new long[]{6871625945240254276L, -2L}, new long[]{6210542288571595068L}, new long[]{-10L, 5054307593289844574L}, new long[]{866600408635869585L}}, new long[][]{new long[]{1L, 9223372036854775807L}, new long[]{-9223372036854775808L, -2L}, new long[]{9223372036854775807L, -7033281739231207501L}, new long[]{-3096690640135524982L}, new long[]{-5728345595191538087L, 0L}}}, 'L', 816, 'T'))), 1, M4()) % (byte)(s_8[0, 0] | 1)) < 10, new int[]{999175438, -2147483647, 1789973384, -1645246273, 0, 0, 1, -10}, s_9, new ushort[]{62936, 1, 0, 0, 59278, 2, 10, 51854, 17142}, new long[][][]{new long[][]{new long[]{-4765380390648702731L}, new long[]{-1L}}, new long[][]{new long[]{-5107396384596799601L}}, new long[][]{new long[]{5004833744043869621L}, new long[]{1L}, new long[]{-9223372036854775807L}}, new long[][]{new long[]{-9223372036854775807L}, new long[]{4198067799955800182L}}, new long[][]{new long[]{0L}}, new long[][]{new long[]{2823489968754115981L}, new long[]{-3818260081196250983L}, new long[]{-9223372036854775808L}}, new long[][]{new long[]{6219301507797508219L}}, new long[][]{new long[]{9223372036854775806L}}}, (char)M6(), s_4[0], (char)M24(new ushort[, ][, ]{{new ushort[, ]{{26636, 65534, 0, 7149}}, new ushort[, ]{{8091, 60982, 1699, 65535}}, new ushort[, ]{{63028, 53606, 15403, 18031}}, new ushort[, ]{{13174, 4397, 17983, 51456}}}, {new ushort[, ]{{0, 1, 30311, 38017}}, new ushort[, ]{{1, 44937, 6503, 1}}, new ushort[, ]{{53227, 63819, 2, 10}}, new ushort[, ]{{42556, 1, 4888, 55784}}}, {new ushort[, ]{{42441, 65535, 1, 24719}}, new ushort[, ]{{27153, 9470, 65535, 0}}, new ushort[, ]{{63479, 38690, 21986, 6254}}, new ushort[, ]{{10, 0, 12831, 50144}}}}, s_7))) ^ s_2) - 1) != s_10)
        {
            return;
        }

        {
            if (s_9)
            {
                s_1 = s_1;
            }
            else
            {
                s_9 = s_9;
            }

            if (M30(0U, (int)(s_7 % (ushort)(s_3[0] | 1)), s_10))
            {
                s_11 += (ushort)(1 + (ushort)M24(new ushort[, ][, ]{{new ushort[, ]{{6316}, {17560}, {65535}, {55003}, {0}}, new ushort[, ]{{1}}, new ushort[, ]{{28073}, {36904}, {1}}, new ushort[, ]{{11668}, {64646}, {13406}, {17603}, {59953}}}, {new ushort[, ]{{65534}, {0}}, new ushort[, ]{{0}, {33145}, {1720}, {54877}}, new ushort[, ]{{47816}, {0}, {2}, {0}}, new ushort[, ]{{61037}, {11}}}, {new ushort[, ]{{1}, {2107}, {26712}, {50025}, {22521}}, new ushort[, ]{{35754}, {1}, {0}, {1}}, new ushort[, ]{{58340}, {1}}, new ushort[, ]{{1}, {18400}, {0}, {65535}, {49428}}}, {new ushort[, ]{{65535}, {21848}, {10}, {7923}, {21257}}, new ushort[, ]{{65535}, {8609}, {1}, {65162}}, new ushort[, ]{{65534}}, new ushort[, ]{{65535}, {65535}, {0}, {1}}}, {new ushort[, ]{{42121}}, new ushort[, ]{{40812}, {0}, {0}, {25355}, {63888}}, new ushort[, ]{{8610}, {12883}, {0}, {29302}}, new ushort[, ]{{1}, {1}}}, {new ushort[, ]{{15133}, {65535}, {34847}}, new ushort[, ]{{17600}, {1}, {38777}, {0}}, new ushort[, ]{{56623}, {0}}, new ushort[, ]{{1}, {1}, {2}, {50192}}}, {new ushort[, ]{{47383}, {7583}}, new ushort[, ]{{56416}, {55967}, {1}}, new ushort[, ]{{12894}}, new ushort[, ]{{15334}, {17665}}}, {new ushort[, ]{{48707}, {10}, {9722}, {1}, {25906}}, new ushort[, ]{{0}, {1}, {1}, {13730}, {6754}}, new ushort[, ]{{65535}}, new ushort[, ]{{15239}, {26268}, {1}, {22966}}}, {new ushort[, ]{{16408}}, new ushort[, ]{{9450}, {52991}, {0}, {1}, {58620}}, new ushort[, ]{{0}, {0}}, new ushort[, ]{{19783}}}, {new ushort[, ]{{10}, {2}, {53245}, {96}}, new ushort[, ]{{1}}, new ushort[, ]{{16543}, {65535}, {27532}, {1}, {0}}, new ushort[, ]{{52146}, {1}, {23704}, {32002}}}}, 18446744073709551615UL));
                s_7 = s_7;
            }
            else
            {
                {
                    s_3 = new ushort[]{32283};
                }

                M31();
                if (s_9)
                {
                    if (M30(4294967295U, -281550997, s_5))
                    {
                        s_2 = (short)((int)M22(0UL, (uint)M5('F')) + s_2);
                    }
                }

                s_12 = 1;
            }
        }

        return;
    }

    static char M1(bool arg0, int[] arg1, bool arg2, ushort[] arg3, long[][][] arg4, char arg5, ushort arg6, char arg7)
    {
        M2();
        int var0 = arg1[0];
        M2();
        arg1 = arg1;
        return arg5;
    }

    static sbyte[] M2()
    {
        M3();
        bool var0 = false;
        var0 = var0;
        short var1 = -4751;
        return new sbyte[]{127, 126, -128, 1, -59, 126};
    }

    static short M3()
    {
        int[] var0 = new int[]{999138920, 2147483647, 308104348, 58324808};
        bool[] var1 = new bool[]{true};
        return 32766;
    }

    static char M4()
    {
        short var0 = 0;
        return (char)('n' | M5((char)((uint)(s_8[0, 0]-- ^ s_8[0, 0]) ^ (char)M19(s_4[0], s_4[0], s_8))));
    }

    static ushort M5(char arg0)
    {
        M6();
        s_1 /= (long)(s_1 | 1);
        {
            if (true)
            {
                s_2 = M8((char)(196 + (sbyte)(s_1 * (ushort)M7(new byte[][, ]{new byte[, ]{{0, 198, 1, 22, 254}, {1, 121, 1, 155, 254}, {0, 0, 255, 46, 10}}, new byte[, ]{{2, 1, 201, 2, 23}, {2, 225, 2, 0, 44}, {9, 254, 23, 0, 0}, {255, 0, 0, 166, 1}, {2, 0, 0, 235, 0}}}))));
                arg0 = arg0;
                if (true)
                {
                    s_2 = (short)M6();
                }
                else
                {
                    byte var0 = 26;
                    if (true)
                    {
                        if (false)
                        {
                            s_2 = 18159;
                            arg0++;
                        }

                        s_2 = s_2;
                    }

                    bool var1 = false;
                }

                M8(arg0--);
                s_1 = s_1;
            }
            else
            {
                if (M11())
                {
                    s_6 = s_6;
                }
                else
                {
                    s_7 = 1UL;
                }

                if (false)
                {
                    if (s_9)
                    {
                        ushort[, ][, ] var2 = new ushort[, ][, ]{{new ushort[, ]{{65535, 60376, 2}}, new ushort[, ]{{10, 1, 12328}}, new ushort[, ]{{1, 60047, 65535}, {21608, 0, 1}}, new ushort[, ]{{0, 0, 3622}, {24653, 28428, 65535}}, new ushort[, ]{{24795, 1, 0}, {0, 10, 1}}, new ushort[, ]{{1, 10, 44824}, {65534, 17897, 58403}}, new ushort[, ]{{7212, 51287, 1}}, new ushort[, ]{{1, 45676, 17335}}, new ushort[, ]{{0, 0, 0}, {25578, 1, 10858}}, new ushort[, ]{{15311, 65534, 1}, {1, 65534, 14121}}}, {new ushort[, ]{{64637, 1, 55929}, {39199, 25073, 42343}}, new ushort[, ]{{65534, 2, 19278}, {65535, 10, 1}}, new ushort[, ]{{2, 10, 41576}}, new ushort[, ]{{0, 0, 15616}, {1, 10, 65535}}, new ushort[, ]{{14289, 38011, 24967}, {43840, 63526, 7712}}, new ushort[, ]{{14722, 2431, 51564}}, new ushort[, ]{{1, 33473, 0}, {49758, 1, 21144}}, new ushort[, ]{{47941, 65534, 0}, {1, 0, 2}}, new ushort[, ]{{0, 0, 17572}}, new ushort[, ]{{1, 0, 48202}}}, {new ushort[, ]{{49401, 1, 0}}, new ushort[, ]{{1, 0, 58451}, {65534, 4062, 16603}}, new ushort[, ]{{54391, 2294, 26614}, {19135, 8270, 1}}, new ushort[, ]{{48906, 2, 54657}}, new ushort[, ]{{10, 65481, 65535}}, new ushort[, ]{{27436, 1, 0}, {1, 10, 65534}}, new ushort[, ]{{0, 1, 0}, {36395, 0, 60728}}, new ushort[, ]{{7246, 65534, 65535}}, new ushort[, ]{{1, 0, 1}, {1, 0, 10}}, new ushort[, ]{{27275, 3019, 1}, {1, 1, 1}}}, {new ushort[, ]{{65534, 13088, 17506}, {2, 0, 10}}, new ushort[, ]{{9919, 1, 10}, {52705, 1, 37943}}, new ushort[, ]{{43314, 0, 0}}, new ushort[, ]{{1, 65148, 0}}, new ushort[, ]{{0, 65534, 0}, {54392, 1, 0}}, new ushort[, ]{{1, 8914, 11436}, {47363, 38939, 2198}}, new ushort[, ]{{29630, 156, 1}}, new ushort[, ]{{36443, 64879, 0}, {0, 41586, 47789}}, new ushort[, ]{{64697, 1, 1}}, new ushort[, ]{{0, 21865, 11878}}}};
                    }
                    else
                    {
                        {
                            s_6 = s_6;
                        }
                    }
                }

                s_1 = s_1;
            }
        }

        return (ushort)((uint)M20() - (9366 - s_8[0, 0]));
    }

    static ushort M6()
    {
        ulong[] var0 = new ulong[]{0UL, 14561651074154330241UL, 3855438203857188284UL};
        var0[0] = var0[0];
        if (false)
        {
            var0[0] = 3220653963966581962UL;
            if (true)
            {
                M7(new byte[][, ]{new byte[, ]{{157, 0, 1, 79, 254, 10}, {1, 1, 135, 98, 1, 39}, {254, 10, 1, 227, 0, 0}}, new byte[, ]{{133, 255, 255, 170, 1, 125}, {245, 1, 25, 0, 254, 0}, {143, 121, 56, 1, 255, 1}}, new byte[, ]{{102, 183, 7, 89, 1, 2}}, new byte[, ]{{1, 247, 255, 116, 25, 50}, {254, 69, 221, 76, 204, 254}, {254, 251, 255, 255, 254, 1}, {1, 0, 74, 0, 10, 70}}, new byte[, ]{{0, 0, 0, 78, 1, 1}, {229, 0, 1, 195, 58, 255}, {75, 1, 254, 0, 32, 46}, {0, 153, 207, 1, 255, 221}}, new byte[, ]{{239, 239, 255, 64, 141, 254}}, new byte[, ]{{254, 1, 254, 1, 214, 1}, {0, 69, 1, 0, 255, 74}, {254, 254, 134, 157, 1, 128}, {0, 254, 55, 160, 220, 98}}, new byte[, ]{{212, 38, 0, 243, 1, 1}, {131, 176, 0, 0, 184, 102}}, new byte[, ]{{221, 1, 150, 255, 22, 228}}});
                {
                    var0 = var0;
                }

                int[][, ] var1 = new int[][, ]{new int[, ]{{972232587, 2147483646, 2147483647, -2147483647, -137122129, 63898375, -53746892, 10, -1709694213}, {1357986978, 2147483647, 1469019106, 2147483646, -699302229, -570561261, -860936048, -341789827, 2147483647}}, new int[, ]{{10, 1, 0, 2147483646, -2147483648, 0, -1, -1, 2147483647}, {0, 1831417982, 0, 937847464, 327879643, -2147483647, 2147483647, 0, -58444561}, {-1553656540, -1338282940, 2147483647, 2147483647, 2147483646, 1542429371, 1, 10, -1796537495}, {2147483647, 2147483646, 1, 2, 2147483647, 2147483647, -730294904, 1, 1}, {307671212, -1295783564, 1607510770, 1053888645, 2147483646, 1, 980862317, 1531277623, 757610837}, {53210260, -2147483648, -558142010, -1248833602, 1, 281856885, 693145399, -531715977, -1645298596}, {2023485860, -79034480, 239345809, -1, 259143653, 443396977, -2147483648, -2, -1432786266}, {455657761, -345623578, -1093245358, 2147483647, 2147483647, 1841640274, 2147483647, -2147483648, -10}, {-189490516, -349981554, 10, 1, 431358026, 145967498, -1653638923, -1987607213, 1}}};
            }

            var0 = new ulong[]{0UL, 16627756639772348796UL, 17589331497152661950UL, 0UL, 0UL, 3868874949230248693UL, 1UL, 18446744073709551614UL, 2UL, 0UL};
        }
        else
        {
            s_2 -= s_2;
            short var2 = 32766;
            byte var3 = 132;
            s_1 = s_1;
        }

        return (ushort)M10();
    }

    static int M7(byte[][, ] arg0)
    {
        arg0 = arg0;
        s_1 = s_1;
        if (false)
        {
            ulong[] var0 = new ulong[]{15679927674060089564UL, 0UL, 14988308126179416931UL, 1UL, 18446744073709551615UL, 4177398317086029054UL, 1UL};
            var0[0] = var0[0];
            return (int)(M8('?') ^ s_1);
        }

        if (false)
        {
            s_2 = s_2;
            arg0[0][0, 0] = 122;
        }
        else
        {
            M10();
            s_2 = s_2;
        }

        return (int)M8('Q');
    }

    static short M8(char arg0)
    {
        M9();
        return s_2;
    }

    static uint[][] M9()
    {
        M10();
        return new uint[][]{new uint[]{4294967295U}, new uint[]{4004456208U}, new uint[]{15422248U}, new uint[]{0U}, new uint[]{2726864918U}, new uint[]{107628648U}, new uint[]{2457783945U}, new uint[]{0U}};
    }

    static ulong M10()
    {
        s_2 = s_2;
        s_2 = s_2;
        return 0UL;
    }

    static bool M11()
    {
        M12(2248927000U, (int)M12(2388405753U, 0, 10), -2147483647);
        if (-5913 >= (ushort)(18 | s_2))
        {
            if (true)
            {
                if (false)
                {
                    s_3 = s_3;
                    if (false)
                    {
                        s_1 = s_1;
                        s_1 = s_1;
                        ulong var0 = (ulong)M12(1924933663U, (char)M12(2135300108U, (int)(1U + s_1--), (int)M12(3149733171U, (int)((ulong)M12(582243914U, 1077443347, (int)M12((uint)M12(2776313403U, (int)M12(4294967294U, -2147483648, -2147483647), (int)M12((uint)M12(4294967295U, -956255325, 10), (int)M12(311201478U, s_3[0] ^ '0', (int)M12(0U, -2147483648, -2)), 0)), (int)M12(4060410120U, (int)(13 % (long)(s_1 | 1)), (int)M12((uint)M12((uint)M12(0U, (int)M12(208561355U, 430864956, -1), 0), M13(), (int)M12(1347868915U, (int)M12((uint)((char)(255 * M14(new char[]{'y', 'h', 'q', '>'})) & M15(2147483647)), 0, (int)M20()), 1)), 2147483647, (int)M12((uint)M29(6218786197243062368UL), 1 % (byte)(s_8[0, 0]-- | 1), 2108009736))), 934021341)) + (ulong)(s_3[0] & s_6[0]++)), (int)((char)M13() & 4294967294U))) - (short)M19(s_4[0]++, 65534, s_8), -2147483648);
                        int var1 = -429261868;
                    }

                    M29(s_7);
                    s_4 = s_4;
                }
                else
                {
                    M28(11432463941575372372UL, M23(s_8[0, 0], 15477573295201371815UL));
                    if (s_9)
                    {
                        s_8[0, 0] = s_8[0, 0];
                        s_6 = new short[]{17825, -16060, -32768, 2};
                    }
                    else
                    {
                        if (s_9)
                        {
                            M14(new char[]{'G'});
                        }
                        else
                        {
                            s_8 = new byte[, ]{{101, 134, 158, 1, 254, 153, 1}, {1, 1, 106, 80, 1, 197, 169}, {1, 228, 113, 81, 68, 47, 157}};
                        }
                    }

                    M20();
                    {
                        s_9 |= true;
                    }
                }
            }
        }
        else
        {
            s_6[0] = s_2;
        }

        s_3 = s_3;
        short var2 = s_6[0];
        return false;
    }

    static sbyte M12(uint arg0, int arg1, int arg2)
    {
        s_3 = s_3;
        return 32;
    }

    static int M13()
    {
        s_1 = (long)('5' * (sbyte)(10 / (ulong)(((ulong)(1 - (sbyte)(1U | (ulong)(33 + (uint)(s_2 | ((1 / (short)((short)((short)(5998177069369749364UL + (uint)(16 & s_2)) & s_2) | 1)) ^ -1))))) ^ 253300393208328386UL) | 1)));
        long var0 = s_1--;
        return 1;
    }

    static sbyte M14(char[] arg0)
    {
        char[] var0 = new char[]{'/', 'S', '.', 'A'};
        s_2 = s_2;
        {
            if (false)
            {
                s_3[0] = s_3[0];
                {
                    s_2 = s_2;
                }
            }
            else
            {
                s_2 = s_2--;
            }
        }

        return 16;
    }

    static char M15(int arg0)
    {
        if (true)
        {
            if (true)
            {
                {
                    M16();
                }

                arg0 = (int)M28(s_7, '\\');
                s_8[0, 0] = s_8[0, 0];
                if (s_9)
                {
                    M22(s_7, 1U);
                }
            }
        }
        else
        {
            s_10 = s_5;
            s_3[0] = 65535;
            {
                s_6 = s_6;
            }

            if (s_9)
            {
                M18();
            }
            else
            {
                M25();
            }

            long var0 = s_1;
        }

        M29(8289616728276959341UL);
        s_8[0, 0] = s_8[0, 0];
        {
            s_3[0] = s_4[0];
        }

        s_4[0] = (ushort)M20();
        return 'J';
    }

    static short M16()
    {
        {
            if (true)
            {
                s_3[0] = s_3[0];
            }
            else
            {
                s_4 = s_3;
            }

            {
                s_3[0] = 24762;
            }

            s_4[0] = s_4[0];
            s_3[0] = s_4[0];
            byte var0 = 103;
            if (true)
            {
                short[] var1 = new short[]{-13721};
                ulong var2 = M17('d', M18(), (short)M17('d', M18(), s_2++, (sbyte)M17('H', true, (short)M17((char)((uint)(var1[0] % (int)(-2147483647 | 1)) / (int)((int)M17((char)M17('l', false, var1[0], 0), false, s_2, -84) | 1)), true, var1[0], -1), -128)), (sbyte)(6531014379637118948L % (short)(s_2 | 1)));
                s_4 = s_4;
                bool var3 = var2 == ' ';
                if (var3)
                {
                    bool[] var4 = new bool[]{false, true, true, false, true, true, true, true, false};
                    if (true)
                    {
                        if (var3)
                        {
                            s_3[0] = (ushort)M17('>', var4[0], 1, 110);
                            M18();
                            int var5 = 1;
                            {
                                var1 = var1;
                                M17('1', false, 0, -105);
                                var2 = var2;
                            }

                            s_1 = 0L;
                            short var6 = s_2;
                            var6 = (short)M17('[', var3, var6, -26);
                        }

                        var1[0] = 0;
                        var1[0] = (short)M17('9', M18(), 18498, (sbyte)M17('E', var4[0], var1[0], (sbyte)M17('F', true, 21108, 2)));
                        s_3 = s_3;
                        s_4 = s_3;
                        s_3 = new ushort[]{10, 1, 2, 0};
                        if (false)
                        {
                            s_1 = s_1;
                        }
                        else
                        {
                            short var7 = s_2;
                        }

                        s_4 = new ushort[]{0};
                    }
                    else
                    {
                        var1 = new short[]{-32768, 1, 28925, -27241, -8561, 20031, -32767};
                        M18();
                        uint var8 = (uint)(-127 * M19(s_4[0], M22(var2, 664212017U), new byte[, ]{{0, 0}}));
                        if (M18())
                        {
                            s_7 = var2;
                            M24(new ushort[, ][, ]{{new ushort[, ]{{10, 1, 49689}}, new ushort[, ]{{49621, 65534, 11521}}, new ushort[, ]{{0, 0, 1}}, new ushort[, ]{{4758, 39989, 37245}}, new ushort[, ]{{65535, 1, 17664}}, new ushort[, ]{{52834, 10, 33976}}, new ushort[, ]{{52304, 65534, 0}}, new ushort[, ]{{15481, 0, 65534}}, new ushort[, ]{{16801, 61491, 45244}}}, {new ushort[, ]{{33145, 61411, 2}}, new ushort[, ]{{0, 2, 13709}}, new ushort[, ]{{65535, 11342, 65535}}, new ushort[, ]{{65535, 65535, 0}}, new ushort[, ]{{8549, 10211, 65534}}, new ushort[, ]{{24799, 57621, 1}}, new ushort[, ]{{16580, 1, 58442}}, new ushort[, ]{{15113, 0, 3574}}, new ushort[, ]{{48491, 13962, 65535}}}, {new ushort[, ]{{0, 65535, 1}}, new ushort[, ]{{29550, 0, 18461}}, new ushort[, ]{{50853, 42835, 22739}}, new ushort[, ]{{47331, 2, 0}}, new ushort[, ]{{0, 53865, 65534}}, new ushort[, ]{{0, 37198, 43970}}, new ushort[, ]{{65535, 65535, 65534}}, new ushort[, ]{{43160, 65534, 1}}, new ushort[, ]{{36407, 0, 0}}}, {new ushort[, ]{{43779, 1, 0}}, new ushort[, ]{{18852, 36037, 40528}}, new ushort[, ]{{65535, 58615, 0}}, new ushort[, ]{{47695, 7477, 20834}}, new ushort[, ]{{35833, 51617, 2}}, new ushort[, ]{{12440, 1, 46129}}, new ushort[, ]{{14337, 45733, 0}}, new ushort[, ]{{13263, 17154, 65535}}, new ushort[, ]{{1, 7360, 22950}}}, {new ushort[, ]{{0, 7649, 48396}}, new ushort[, ]{{28141, 5262, 56639}}, new ushort[, ]{{63424, 0, 1}}, new ushort[, ]{{0, 65534, 24919}}, new ushort[, ]{{0, 1, 1}}, new ushort[, ]{{11017, 33931, 32700}}, new ushort[, ]{{10212, 0, 38305}}, new ushort[, ]{{65535, 0, 46838}}, new ushort[, ]{{56120, 47443, 1}}}}, (ulong)(s_2 | (int)(s_1 ^ s_4[0]++)));
                            s_5 %= (sbyte)(s_5-- | 1);
                            if (true)
                            {
                                ushort var9 = s_3[0]--;
                            }
                        }
                        else
                        {
                            s_4 = s_4;
                            s_6[0] <<= -892272871;
                            s_6 = var1;
                            s_3 = s_3;
                        }

                        M20();
                        if (var3)
                        {
                            s_5 = -127;
                            s_1 = (long)M23((byte)(var0 / (ulong)((ulong)(var1[0] % (int)((42774 & (ushort)M25()) | 1)) | 1)), s_7);
                        }
                        else
                        {
                            short var10 = (short)(s_7 - 3295368456U);
                            M21(0, 528003535);
                            long var11 = s_1++;
                            var0 = var0;
                            M18();
                            bool var12 = true;
                            if (var4[0])
                            {
                                s_5 &= s_5;
                                s_3 = new ushort[]{46381, 0, 59887, 65534, 0, 65534, 0, 31048};
                            }

                            M18();
                        }
                    }
                }
            }
            else
            {
                M21(840904163, (int)M24(new ushort[, ][, ]{{new ushort[, ]{{57894, 38728, 0}, {16450, 47586, 65534}, {30185, 0, 0}}, new ushort[, ]{{9686, 54548, 0}, {59588, 26388, 1}, {65534, 51743, 21354}}, new ushort[, ]{{2, 1, 65534}}, new ushort[, ]{{49940, 18980, 10168}}, new ushort[, ]{{1, 65534, 0}, {65534, 65534, 10}}, new ushort[, ]{{20920, 65534, 23874}}}, {new ushort[, ]{{5229, 65534, 0}, {0, 0, 10}, {19934, 1, 28158}}, new ushort[, ]{{25702, 58677, 65535}, {17206, 1, 65535}}, new ushort[, ]{{1, 1, 65534}}, new ushort[, ]{{65535, 1, 1}}, new ushort[, ]{{65534, 37393, 1282}}, new ushort[, ]{{40315, 30292, 1}}}, {new ushort[, ]{{65535, 1, 65534}}, new ushort[, ]{{0, 49646, 0}, {1, 1, 10}}, new ushort[, ]{{56592, 1, 1}}, new ushort[, ]{{65534, 65534, 1}}, new ushort[, ]{{1, 65535, 0}}, new ushort[, ]{{65534, 10, 48549}, {1, 14908, 37143}}}, {new ushort[, ]{{65534, 48792, 30080}}, new ushort[, ]{{11824, 36117, 1}}, new ushort[, ]{{6776, 37415, 1}}, new ushort[, ]{{7451, 61549, 1}}, new ushort[, ]{{2, 0, 60783}, {61551, 1, 4428}, {65534, 6386, 45689}}, new ushort[, ]{{40033, 0, 38562}}}}, 0UL));
                if (false)
                {
                    M19(s_4[0], s_3[0]++, new byte[, ]{{1, 91, 37, 42, 0, 10}, {254, 150, 212, 110, 181, 1}, {255, 216, 188, 154, 1, 0}, {0, 0, 75, 1, 1, 188}, {206, 0, 85, 0, 1, 117}, {254, 1, 223, 127, 0, 93}, {33, 158, 255, 40, 86, 0}, {254, 188, 29, 122, 1, 9}, {1, 254, 72, 1, 1, 39}, {255, 69, 232, 220, 0, 157}});
                }
                else
                {
                    M25();
                }

                {
                    int var13 = (int)M19(0, s_4[0], new byte[, ]{{54, 1, 0, 2, 41}, {104, 2, 0, 249, 254}, {254, 7, 223, 2, 1}, {10, 140, 0, 1, 0}, {1, 174, 47, 255, 1}, {176, 122, 1, 1, 254}, {1, 0, 232, 1, 10}, {254, 200, 234, 0, 6}, {141, 190, 254, 0, 0}, {1, 0, 0, 230, 0}});
                    M19(s_4[0], s_4[0]++, new byte[, ]{{0}, {0}, {254}, {112}, {1}, {132}, {255}});
                }

                s_4 = M26();
                {
                    ulong[][] var14 = new ulong[][]{new ulong[]{0UL, 12487794331139351519UL, 1035384259764193412UL, 1UL}, new ulong[]{18446744073709551614UL, 17045724811862036950UL}, new ulong[]{389745635265458213UL, 13001755273550053719UL, 7042841142833230636UL, 681795073818511683UL}, new ulong[]{1UL, 10UL, 9850312765676071265UL}, new ulong[]{1UL, 10UL, 2UL, 14196007143389643987UL}, new ulong[]{18446744073709551615UL, 6680792422531996800UL}, new ulong[]{5459350441740666550UL, 1UL, 6536685298763819119UL}, new ulong[]{0UL, 18446744073709551615UL}};
                }

                s_4[0] += s_4[0];
            }
        }

        M24(new ushort[, ][, ]{{new ushort[, ]{{0, 65534}, {9172, 1}, {39183, 54727}, {2651, 23347}}, new ushort[, ]{{15077, 57915}}, new ushort[, ]{{0, 48403}, {45016, 1}, {58647, 1}, {1, 65534}, {21799, 10}}, new ushort[, ]{{0, 40504}, {43291, 1}, {1, 14788}}, new ushort[, ]{{49195, 0}}, new ushort[, ]{{46431, 65534}, {8369, 53764}, {0, 48666}, {54102, 59083}}, new ushort[, ]{{47449, 2}, {2, 10}, {52864, 1}}, new ushort[, ]{{0, 3329}, {47430, 10206}, {63287, 1}, {1, 14683}}, new ushort[, ]{{40384, 1}}}, {new ushort[, ]{{9600, 1}, {65513, 65535}, {23761, 65534}, {65534, 1}, {17330, 6723}}, new ushort[, ]{{1, 65535}, {10, 20100}, {65535, 26888}}, new ushort[, ]{{1, 0}, {19294, 50344}}, new ushort[, ]{{65535, 55649}, {0, 2}}, new ushort[, ]{{0, 50589}, {13433, 6197}, {3115, 0}}, new ushort[, ]{{1, 34660}, {7868, 0}, {3831, 1}}, new ushort[, ]{{8051, 130}}, new ushort[, ]{{36079, 15179}, {45179, 0}}, new ushort[, ]{{65535, 1}, {61766, 1}, {27678, 1}, {59803, 0}, {16943, 1}}}, {new ushort[, ]{{65534, 0}, {52521, 65534}, {0, 0}, {61922, 1}}, new ushort[, ]{{0, 46198}}, new ushort[, ]{{1, 65534}, {10, 46350}, {48506, 49887}, {1, 55080}, {1, 1}}, new ushort[, ]{{1, 28416}}, new ushort[, ]{{30255, 1}, {1, 65534}}, new ushort[, ]{{14936, 2}, {1, 65534}, {24841, 0}}, new ushort[, ]{{0, 0}, {24790, 41382}}, new ushort[, ]{{48122, 1}, {40824, 0}}, new ushort[, ]{{54354, 1}, {23054, 28620}, {2, 58835}, {0, 3850}}}}, 1UL);
        {
            s_4[0] = 1;
            s_1 = s_1;
            char var15 = 'a';
            {
                if (false)
                {
                    if (false)
                    {
                        long var16 = s_1;
                        int var17 = (int)(18446744073709551614UL / (byte)((byte)(var15 % (int)(1733073563 | 1)) | 1));
                    }
                    else
                    {
                        short var18 = s_2;
                        s_4 = s_4;
                        char[, ] var19 = new char[, ]{{'3', 'n', '8', 'V', ';'}, {'6', 'N', 'W', ';', ' '}, {'U', '\'', 'Y', 'G', '9'}, {'p', '1', '1', 'S', ','}, {'N', '8', ';', 'W', 'g'}, {'}', '[', ':', 'u', '['}, {'U', 'W', '/', 'R', ';'}, {'$', ',', '+', '"', '@'}, {'5', 'C', 'G', '6', 'D'}, {'o', '=', 'g', 'Z', 'p'}};
                        uint var20 = 3910435467U;
                    }
                }

                {
                    s_4[0] *= s_3[0]++;
                    s_4 = s_3;
                    if (true)
                    {
                        if (false)
                        {
                            M20();
                            s_4[0] = s_4[0];
                            s_8 = s_8;
                            ulong[] var21 = new ulong[]{0UL, 17079224668884140975UL, 2UL, 0UL, 8341682591870690292UL, 3584496102828058698UL, 10856327129611276207UL, 18446744073709551614UL, 0UL};
                        }
                        else
                        {
                            if (true)
                            {
                                s_3 = s_4;
                                uint[] var22 = new uint[]{1U, 1U, 3807691713U, 482707143U, 2994605984U};
                                ulong[][][] var23 = new ulong[][][]{new ulong[][]{new ulong[]{1UL, 1UL, 0UL, 10761377627476583741UL, 9792109010741097922UL}, new ulong[]{5456112810113056545UL, 14829275943024177841UL, 11405172593605985157UL, 13725455383857863548UL, 15244056383250395026UL}, new ulong[]{14518224289456651906UL, 18446744073709551615UL, 0UL, 18446744073709551615UL, 172119545557517855UL, 10175166779960569227UL, 18446744073709551614UL}}};
                                var23[0][0] = new ulong[]{16424553784455460157UL};
                                int var24 = (int)M20();
                                var23[0] = var23[0];
                                s_3 = s_4;
                                s_9 = s_9;
                                s_1 = s_1--;
                                var23 = var23;
                                var23[0][0] = var23[0][0];
                                var23[0] = var23[0];
                                uint var25 = var22[0];
                            }

                            M18();
                        }

                        s_1 = s_1;
                    }
                    else
                    {
                        s_8[0, 0] = s_8[0, 0]++;
                    }

                    byte var26 = M27(-10, 1, new uint[]{1U, 502473575U, 3377645500U, 1U, 2046147770U, 1U, 3007956572U});
                    s_10 = s_5;
                    if (s_9)
                    {
                        s_6 = s_6;
                        if (true)
                        {
                            byte var27 = (byte)M25();
                        }

                        M27((short)M23(s_8[0, 0], (ulong)M22(s_7, 10U)), s_4[0], new uint[]{1U, 2988972375U});
                        s_9 = M18();
                    }

                    s_6[0] = 32766;
                    s_4[0] &= s_4[0];
                    return s_2;
                }
            }

            {
                s_4[0] /= (ushort)(s_4[0] | 1);
                if (M18())
                {
                    s_9 = s_9;
                    s_3[0] = s_3[0];
                    s_8[0, 0] = 234;
                }
                else
                {
                    s_5 = (sbyte)(0 + s_5);
                }

                M25();
                M23(95, s_7);
            }

            M19(s_4[0], s_4[0]--, s_8);
            char var28 = (char)M22(s_7, (uint)M27(s_6[0], s_4[0], new uint[]{1U, 1U, 282403658U, 4294967295U}));
            int var29 = -286137022;
            if (s_9)
            {
                {
                    {
                        if (M21(var29, (int)M23(s_8[0, 0], 8247489110204232243UL)))
                        {
                            s_4 = s_3;
                            sbyte var30 = -10;
                            s_7 = s_7;
                            var15 = var15;
                        }

                        {
                            var29--;
                        }

                        s_10 = s_5;
                    }

                    var29 = var29++;
                }

                s_5 = s_10;
            }

            s_2 = s_2;
        }

        return s_6[0];
    }

    static ulong M17(char arg0, bool arg1, short arg2, sbyte arg3)
    {
        M18();
        arg2 = arg2;
        M18();
        return 18034440671840205772UL;
    }

    static bool M18()
    {
        int[,,, ][] var0 = new int[,,, ][]{{{{new int[]{1460279855}, new int[]{1449437605}}, {new int[]{0}, new int[]{-1}}}}};
        return true;
    }

    static uint M19(ushort arg0, ushort arg1, byte[, ] arg2)
    {
        s_1 = 6700111448310386874L;
        if (true)
        {
            arg1 = arg0;
            if (false)
            {
                s_2 = -30271;
            }

            M20();
            s_2 = s_2;
            if (false)
            {
                {
                    arg0 = arg1;
                    s_4[0] = 65534;
                    {
                        int var0 = 1773783699;
                    }

                    bool var1 = false;
                    s_3 = s_4;
                    ulong var2 = 1075886041095878941UL;
                    s_3 = new ushort[]{33846, 0, 18214};
                }
            }

            s_3[0] %= (ushort)((ushort)((char)M20() & (long)((char)M20() * 235973163)) | 1);
        }
        else
        {
            long[] var3 = new long[]{9223372036854775806L, 1L, 6764179395770032786L, 857739186305890722L, 9223372036854775806L, 6930013466435246802L, 279473104548767643L, -9223372036854775807L};
            arg2[0, 0] = arg2[0, 0];
            var3[0] = 4073302334274776230L;
            var3[0] = s_1;
            if (-399413760 != s_1)
            {
                s_3[0] = s_4[0];
                if (false)
                {
                    if (M21(-2147483648, -857377121))
                    {
                        short var4 = -32002;
                        var3[0] = s_1;
                    }
                    else
                    {
                        s_1 = (long)M22((ulong)M22(16390862793358305891UL, M24(new ushort[, ][, ]{{new ushort[, ]{{61413, 0, 32749, 4114, 4668, 1, 1, 65534}, {1, 65366, 44365, 44421, 0, 2, 55868, 1}, {52027, 65535, 51449, 17650, 64581, 1, 1, 65534}}, new ushort[, ]{{32126, 25986, 0, 65535, 59655, 65534, 45800, 0}, {1, 15603, 57837, 0, 0, 38094, 38536, 47056}, {1, 24505, 32932, 55517, 45778, 40483, 2953, 1}, {1, 23579, 10, 49417, 0, 0, 1, 37550}, {0, 2, 1, 60101, 8803, 10, 44046, 1}, {46200, 35158, 12587, 1283, 0, 2, 0, 13978}, {0, 1, 10808, 43677, 65534, 0, 15420, 1}}}}, (ulong)M24(new ushort[, ][, ]{{new ushort[, ]{{9598, 1, 6888}}}, {new ushort[, ]{{1, 65535, 10982}}}, {new ushort[, ]{{0, 2, 24533}}}, {new ushort[, ]{{39371, 1, 6712}}}, {new ushort[, ]{{65534, 45944, 0}}}, {new ushort[, ]{{65535, 65534, 19760}}}, {new ushort[, ]{{10710, 65534, 34469}}}, {new ushort[, ]{{10, 65534, 27028}}}, {new ushort[, ]{{1703, 31832, 35517}}}}, M20()))), 4033058237U);
                        arg1 = 21177;
                    }

                    arg2 = arg2;
                    M22(8512023085903770979UL, (uint)(242651987 - (byte)M24(new ushort[, ][, ]{{new ushort[, ]{{0}, {0}, {60885}, {2}, {0}, {0}}, new ushort[, ]{{62598}, {1}, {53524}, {0}}, new ushort[, ]{{37026}, {15220}, {65534}, {1}, {1}, {30243}, {0}, {0}, {44713}, {65535}}, new ushort[, ]{{51726}, {65535}, {1}, {0}, {49039}, {22781}, {10}}, new ushort[, ]{{23270}}, new ushort[, ]{{1}, {34429}, {47460}, {0}, {0}, {0}, {8097}, {0}}}, {new ushort[, ]{{10}, {52180}, {10700}, {45222}, {2}, {1}}, new ushort[, ]{{56318}, {46743}, {10581}, {0}, {3894}, {16114}, {65535}, {0}}, new ushort[, ]{{45311}, {43086}, {1}, {12569}, {51643}, {1}, {1}, {27288}, {10}}, new ushort[, ]{{1}, {1}, {0}, {28122}}, new ushort[, ]{{56703}, {1}, {37300}, {51908}, {47440}, {15967}, {56421}, {44066}, {64636}, {8434}}, new ushort[, ]{{0}, {1}, {27092}}}, {new ushort[, ]{{254}}, new ushort[, ]{{13864}, {22573}, {32512}, {0}, {1}, {52377}, {65534}}, new ushort[, ]{{1}, {1}, {0}, {63782}, {50319}}, new ushort[, ]{{52687}, {57523}, {12651}, {0}, {38250}, {35392}, {62741}, {9500}, {9664}}, new ushort[, ]{{65534}, {1}, {2}, {0}, {1}, {38725}, {7408}, {45720}, {65534}, {2}}, new ushort[, ]{{1984}}}, {new ushort[, ]{{0}}, new ushort[, ]{{9101}, {0}}, new ushort[, ]{{1}, {19867}, {61590}}, new ushort[, ]{{1}, {65534}, {0}, {1}, {65535}, {65534}, {5634}, {10552}}, new ushort[, ]{{41490}, {65535}, {1}, {65383}}, new ushort[, ]{{65534}, {1}, {20162}, {47469}, {46461}, {1}, {1}, {65534}, {65534}}}, {new ushort[, ]{{19390}, {64536}, {44347}, {0}, {10}}, new ushort[, ]{{0}, {1}}, new ushort[, ]{{0}, {1}, {65534}, {29708}}, new ushort[, ]{{53363}, {46161}, {0}, {65534}, {10}, {1}, {65534}, {58749}}, new ushort[, ]{{39130}, {5334}, {0}, {39195}, {10138}, {16293}, {11047}, {1}, {59187}, {2}}, new ushort[, ]{{42582}, {1}, {32797}, {65535}, {55379}, {0}}}}, (ulong)M24(new ushort[, ][, ]{{new ushort[, ]{{65534, 0, 27784, 65535, 0, 58976, 62833}}, new ushort[, ]{{53741, 1, 0, 21656, 9140, 57803, 13324}}, new ushort[, ]{{65534, 1, 23137, 37396, 4477, 65534, 49606}}, new ushort[, ]{{22756, 1, 37194, 65535, 2655, 19592, 45626}}, new ushort[, ]{{1, 21497, 41435, 0, 0, 10, 10}}}, {new ushort[, ]{{50275, 20951, 65477, 1, 52189, 2147, 10}}, new ushort[, ]{{0, 2927, 43483, 21401, 31519, 46548, 1}}, new ushort[, ]{{65534, 56335, 6793, 1, 0, 65534, 18212}}, new ushort[, ]{{31168, 65534, 31624, 4860, 27689, 2, 0}}, new ushort[, ]{{23803, 4890, 41519, 2, 33279, 29226, 52204}}}, {new ushort[, ]{{65534, 39937, 21862, 43940, 0, 0, 1}}, new ushort[, ]{{20977, 39392, 6901, 1, 1, 60787, 60473}}, new ushort[, ]{{15749, 13712, 1, 0, 64452, 33825, 65535}}, new ushort[, ]{{1, 65535, 65534, 10, 0, 43609, 53665}}, new ushort[, ]{{1, 8192, 1, 19247, 24515, 4607, 2416}}}, {new ushort[, ]{{33479, 0, 65534, 4319, 14793, 0, 28796}}, new ushort[, ]{{1, 60294, 0, 0, 10, 0, 10791}}, new ushort[, ]{{14455, 35106, 1, 5179, 20308, 46806, 12072}}, new ushort[, ]{{1, 1, 65535, 0, 0, 41710, 65535}}, new ushort[, ]{{1, 46654, 0, 0, 63672, 2, 1}}}, {new ushort[, ]{{34722, 0, 2, 53193, 0, 16964, 45141}}, new ushort[, ]{{27086, 1, 5523, 1, 65534, 1, 60098}}, new ushort[, ]{{1, 1, 29969, 65534, 1986, 1, 38199}}, new ushort[, ]{{0, 65534, 8204, 1, 0, 7055, 1}}, new ushort[, ]{{36065, 1, 65535, 1, 2, 42436, 46304}}}}, 1UL))));
                    s_5 = 127;
                    arg1 = M22((ulong)((uint)(65221 * (ulong)M24(new ushort[, ][, ]{{new ushort[, ]{{58847, 42256, 1}}}, {new ushort[, ]{{60350, 1, 53389}, {14210, 12131, 41584}, {1, 1, 0}, {30314, 10, 1}}}}, 18446744073709551615UL)) | 15125), (uint)M20());
                    var3[0] = var3[0];
                }

                {
                    s_4 = s_4;
                    long var5 = s_1;
                    s_3[0] = s_4[0];
                    arg2[0, 0] = 255;
                }

                arg0 = s_3[0];
            }

            {
                s_6 = s_6;
            }

            return 124684228U;
        }

        arg1 &= (ushort)(3573572965U ^ arg2[0, 0]);
        if (M21((int)M22(0UL, (uint)(0 * s_2)), s_4[0] - (char)(0L | s_2)))
        {
            s_2 = s_6[0];
            s_3[0] = arg0;
            M23(228, 2833163634845840390UL);
        }
        else
        {
            arg0 = 20180;
        }

        s_5--;
        return 2523108503U;
    }

    static ulong M20()
    {
        s_4[0] %= (ushort)(31735 | 1);
        return (ulong)(0 / (sbyte)((sbyte)(0 - s_3[0]) | 1));
    }

    static bool M21(int arg0, int arg1)
    {
        bool var0 = false;
        {
            M22(18446744073709551614UL, 10U);
            s_4[0] = 0;
        }

        s_2 = s_2;
        var0 = var0;
        s_3 = s_3;
        return var0;
    }

    static ushort M22(ulong arg0, uint arg1)
    {
        if (true)
        {
            {
                if (false)
                {
                    arg1 = arg1;
                }
                else
                {
                    bool var0 = arg0 != arg1;
                    var0 &= var0;
                }
            }

            M23((byte)M23(0, arg0), (ulong)M23((byte)(s_2 % (long)(s_1 | 1)), (ulong)(arg1++ - 1)));
        }
        else
        {
            s_1 = (long)M23(0, arg0);
        }

        return s_3[0];
    }

    static char M23(byte arg0, ulong arg1)
    {
        s_2 = -32768;
        return 'W';
    }

    static uint M24(ushort[, ][, ] arg0, ulong arg1)
    {
        arg1 = M25();
        return (uint)M25();
    }

    static ulong M25()
    {
        s_5 = s_5;
        return 14769997471066643398UL;
    }

    static ushort[] M26()
    {
        s_6[0] = s_2;
        return new ushort[]{1, 46577, 0, 10, 38074, 2, 56001, 26506, 2, 36178};
    }

    static byte M27(short arg0, ushort arg1, uint[] arg2)
    {
        M28(s_7, 'I');
        s_4 = s_3;
        s_4[0] = arg1;
        return (byte)M28(s_7, '_');
    }

    static uint M28(ulong arg0, char arg1)
    {
        sbyte var0 = s_5;
        return 1559099224U;
    }

    static short M29(ulong arg0)
    {
        s_4 = s_3;
        return s_6[0];
    }

    static bool M30(uint arg0, int arg1, sbyte arg2)
    {
        M31();
        short var0 = (short)M31();
        short var1 = s_6[0];
        return s_9;
    }

    static uint M31()
    {
        {
            s_3 = s_4;
        }

        {
            s_3 = s_4;
        }

        return 1U;
    }
}