// Generated by Fuzzlyn on 2018-06-04 00:32:46
// Seed: 7792881128762853288
public class Program
{
    static uint[][] s_1 = new uint[][]{new uint[]{4000401574U, 386453573U}, new uint[]{3990769368U, 4294967295U, 0U, 3633944123U, 4244241650U, 408867016U, 1U, 1U, 0U}, new uint[]{2377321519U, 3226018774U, 3770279826U, 0U, 993676277U, 228880183U, 3344239396U, 0U}, new uint[]{4294967295U, 4294967295U, 4294967294U, 10U, 3547176075U, 4294967294U, 974389126U, 2703112535U, 1275683254U}};
    static uint[] s_2 = new uint[]{4294967294U, 1U};
    static short s_3 = 0;
    static int s_4 = 336477689;
    static sbyte s_5 = -47;
    static byte[] s_6 = new byte[]{1, 1, 155};
    static short s_7 = -2;
    static int s_8 = -572111532;
    static int s_9 = 1;
    static long s_10 = 0L;
    static ushort[, ] s_11 = new ushort[, ]{{57548, 1, 1, 65080, 1, 65534, 65534, 3341}, {44128, 0, 5710, 18991, 53746, 0, 6116, 63325}};
    static short s_12 = 1;
    static short s_13 = 5872;
    static short s_14 = -9787;
    static uint s_15 = 2384430719U;
    static uint s_16 = 1U;
    static short[,, ] s_17 = new short[,, ]{{{0, 1996, 0}, {12862, -32768, 1}, {22904, 32767, 32766}, {8535, -2, 0}}, {{-595, 1, 0}, {0, -32767, -32767}, {32767, -10, -32767}, {-6663, -1, 0}}, {{1, 19405, -32768}, {0, -2, 1}, {1, -32767, 2118}, {-32768, -32767, 10}}};
    static byte s_18 = 149;
    public static void Main()
    {
        M0();
    }

    static void M0()
    {
        {
            {
                if (true)
                {
                    if ((int)(7173935202122877362L ^ M1(new short[]{3022, 32766, -2, -30450, -32768})) < (short)(1 - (short)M1(new short[]{2, -28570, 12259, 22615, 14564, -1, -32767, 21766, -1})))
                    {
                        if (0UL > 1)
                        {
                            if (true)
                            {
                                long var0 = M2(s_5);
                            }
                            else
                            {
                                {
                                    s_1 = s_1;
                                    s_2[0] = 2087072688U;
                                    s_1[0] = new uint[]{1U, 141007881U, 0U, 4294967295U, 2026520640U, 3662859059U, 1757362042U, 3759642342U, 2140118814U};
                                    s_13 = s_14;
                                    M21((byte)((ushort)M5(M15()) - (s_6[0] | s_15)), (ushort)M1(new short[]{-32768, 13481, -32768, 1}), s_11[0, 0], new bool[]{false, true, true, false, false, false}, new long[]{0L, 9112162170516711890L}, 5911211736711106823UL, 1);
                                    s_4 = 208150294;
                                    s_1[0][0] = s_2[0];
                                }

                                s_9 -= (int)M10();
                                M22();
                            }
                        }
                        else
                        {
                            M18();
                            s_9 = s_8;
                            s_3 = s_12--;
                            sbyte var1 = s_5;
                        }
                    }

                    if (true)
                    {
                        M5(true && true);
                        s_1[0] = new uint[]{0U, 594679235U, 0U, 0U, 3404068687U};
                        ushort var2 = s_11[0, 0];
                        s_9 = M14(s_11[0, 0]);
                        ulong var3 = (ulong)M17();
                        s_13 = s_14;
                        s_2[0] = s_15;
                        s_1 = s_1;
                        M5(false);
                    }
                    else
                    {
                        if (false)
                        {
                            s_1[0][0] = 1U;
                            M11((short)M2(60));
                            s_1[0][0] = s_2[0];
                            if (true)
                            {
                                M5(M23((s_9 % (ushort)(s_11[0, 0] | 1)) < s_8));
                                M20(new short[]{-27312, 2, 0, -4270, 4952, -32768, 6896});
                                int var4 = s_8;
                                s_12 = s_3;
                            }
                            else
                            {
                                s_9 = s_8;
                            }

                            s_7 = s_7;
                        }
                        else
                        {
                            if (M18())
                            {
                                s_7 = s_12;
                                s_16 = (uint)M25((char)(s_6[0] % (short)(-32254 | 1)), new long[, ]{{-9223372036854775807L}, {-4885342840611176687L}});
                            }

                            M11(s_7++);
                        }
                    }

                    s_2[0] = 446201531U;
                    s_2 = new uint[]{120726730U, 3232295046U, 4294967295U, 0U, 4049500266U, 1U, 10U};
                    if (M23(-8596675804132909557L < s_5))
                    {
                        M17();
                        {
                            bool var5 = false;
                            --s_5;
                            s_9 *= -1340119824;
                        }

                        {
                            s_15 = 0U;
                            s_9 = (int)M5(M18());
                            s_1[0] = new uint[]{4294967295U};
                            s_1[0] = s_2;
                        }

                        s_11[0, 0] = s_11[0, 0];
                        if (false)
                        {
                            s_6[0] = s_6[0];
                            s_6 = s_6;
                            s_1 = s_1;
                            M21(s_6[0], s_11[0, 0], 42736, new bool[]{false, true, true, true, false, true, true}, new long[]{8246678741376239773L, 9223372036854775807L, -4288948590065748318L, -9223372036854775808L, 1L, 5177517722075670930L, -164046376380258246L, 1L}, 1UL, (byte)M14(0));
                            {
                                {
                                    s_14 = s_13;
                                    short[] var6 = new short[]{32767, -23746, 10, -24854, 0, 2};
                                }

                                ulong var7 = 0UL;
                                s_9++;
                                s_11[0, 0] = (ushort)(s_16 & s_6[0]);
                            }

                            char[] var8 = new char[]{'<', '?', 'R', 'p'};
                            s_7 = s_13;
                            if (M26() >= s_6[0]++)
                            {
                                s_2 = s_2;
                                s_10 = s_10;
                                M26();
                                s_17 = s_17;
                                s_12 = s_14;
                                M26();
                                s_2 = s_1[0];
                            }
                            else
                            {
                                s_3 = -25223;
                            }

                            s_4 = s_9;
                        }
                    }

                    s_13 = 32766;
                    s_18 = s_18;
                    uint var9 = s_1[0][0];
                }
                else
                {
                    M17();
                }

                s_6 = s_6;
                s_6 = s_6;
            }

            s_14 = s_7++;
        }
    }

    static char M1(short[] arg0)
    {
        arg0[0] = -30187;
        return '-';
    }

    static long M2(sbyte arg0)
    {
        arg0 = arg0;
        arg0 = (sbyte)(-9223372036854775807L & M3(-242011076, new ushort[]{1}, (int)M3(1149792533, M4(new ulong[]{1UL, 9463477835347043851UL, 14514414061353700552UL, 1UL, 18446744073709551615UL, 2950293288570487608UL, 1UL, 0UL, 6996809304136035368UL, 18446744073709551615UL}, -1773859433, new short[, ]{{32766}, {-10}, {11319}, {17017}, {-32768}, {32766}}), s_8, (uint)M7(), 255), (uint)M12(' ', 0), s_6[0]));
        bool var0 = false;
        return s_10;
    }

    static char M3(int arg0, ushort[] arg1, int arg2, uint arg3, byte arg4)
    {
        arg0 = arg0;
        return (char)(2 & arg3);
    }

    static ushort[] M4(ulong[] arg0, int arg1, short[, ] arg2)
    {
        arg0 = arg0;
        arg2 = new short[, ]{{-13753, 1, 14859, 10, 19434}, {-20829, 17665, 21063, 23572, 0}, {-19515, 23877, 1, -26025, 0}, {4447, 10, 32767, 15629, 32766}, {0, 1, 29582, -32767, 1}, {32767, 22865, -10, -8475, 0}, {29833, -30214, -32767, 0, -22293}, {32767, 1, 0, 32766, -31992}, {-308, 3705, -22416, 32460, -18056}};
        arg2 = arg2;
        M5(M15());
        return M22();
    }

    static ulong M5(bool arg0)
    {
        M6();
        {
            arg0 = arg0;
            arg0 = (char)((ushort)(-309016590 - (-1 / (uint)((uint)(65535 ^ (sbyte)(29536 + (int)('i' | (ulong)(-532636576 + (M7() - (char)M11(s_14++)))))) | 1))) & s_10) == s_1[0][0];
        }

        {
            {
                s_6[0] = s_6[0];
                s_10 = s_10;
                M12('h', s_7);
                return 16068650008470592540UL;
            }

            if (arg0)
            {
                s_7 = s_14;
            }
        }

        M10();
        s_1[0] = s_1[0];
        s_15 = s_1[0][0]++;
        return (ulong)M16(new ulong[]{18446744073709551615UL, 9422988123058751028UL, 18446744073709551614UL});
    }

    static bool M6()
    {
        int var0 = 10;
        return false;
    }

    static int M7()
    {
        s_1 = new uint[][]{new uint[]{3183075442U, 3626539100U, 1U, 2956833792U, 667632669U, 2237840840U, 3386125755U, 0U}, new uint[]{10U, 1987630301U, 1U, 0U, 1U, 0U}, new uint[]{4183734509U, 1754393390U}, new uint[]{0U, 10U, 501919413U, 1U, 1U, 1U, 1879601650U}, new uint[]{4213326854U, 4029062318U, 1772243875U, 4294967295U, 4294967295U, 4294967294U, 1U, 4294967295U, 0U}, new uint[]{2936129921U, 0U, 3418929613U}, new uint[]{4294967295U}};
        {
            s_1[0] = s_1[0];
            if (M8((ushort)M8(43955, s_1[0][0], (char)(6918691941612012746L + (int)M8(0, s_1[0][0]--, '~', 0L, 4915970963693266293L)), -6047382770911158920L, -9223372036854775808L), s_1[0][0], (char)(6216056303035341469L & s_1[0][0]), (long)M8(30984, 4294967295U, (char)M8(65535, s_1[0][0], '3', 0L, (long)M8((ushort)M8(1, (uint)((ushort)(1UL % (ulong)(M8(65534, s_1[0][0], '2', -2153081838421435502L, 0L) | 1)) / (sbyte)((sbyte)M8(0, s_1[0][0], 'F', (long)M8((ushort)(0L & M9(1UL, -12854, M9((ulong)M9(1UL, (short)(1 % (long)(M10() | 1)), (sbyte)M8(0, s_1[0][0]++, 'I', -6043432319764834529L, 6973203650212286844L ^ (byte)(-763309956690491275L % (short)((short)M8((ushort)(1 / (int)((int)M8(30205, s_1[0][0], '2', 1078134770452082885L, -9223372036854775807L) | 1)), s_1[0][0], (char)M11(0), -679869945310002065L, -957997075552061332L) | 1))), M9(1UL, s_3, (sbyte)((long)M9((ulong)M9((ulong)M9(0UL, s_3, (sbyte)M10(), (sbyte)('k' / (uint)((uint)M10() | 1))) & s_2[0], s_3++, -16, -19), s_3, (sbyte)(0 / (long)((s_3 * 0L) | 1)), (sbyte)((ushort)M9(11553085280888090430UL, s_3, M9(2000592447616438421UL, s_3++, -15, 126), M9(11793341576944690958UL, s_3--, M9((ulong)M10(), s_3, M9(M8(1, s_1[0][0], '_', -4347930077662803059L, 6155660423385957518L), s_3, (sbyte)M8((ushort)M9(0UL, -8892, 86, (sbyte)M8(0, s_1[0][0], 'I', (long)((ushort)M9((ulong)M10(), 22668, 126, -36) | s_3), -9223372036854775808L)), s_2[0]--, '`', 9222479905474546540L, -9223372036854775808L), (sbyte)(1 & M8((ushort)(3956208659U / (short)(s_3-- | 1)), (uint)((ushort)M11((short)M11(-10)) | 248), 'L', (long)M8((ushort)(357329365 - M9(10UL, s_3, 0, -128)), s_2[0], 'K', -3625849806443431564L, (long)M11((short)M10())), 0L))), -127), 1)) * -38)) & (byte)M11((short)M8(10, 0U, 't', -9223372036854775808L, (long)M11(s_3)))), 1)), s_3--, -1, -127), 1)), s_1[0][0]++, '8', 9223372036854775807L, (long)((uint)M9(850834770868461226UL, s_3, M12((char)('w' ^ (ushort)M8(65534, s_2[0], (char)M10(), (long)M12('"', s_3--), (long)M19((short)(s_3 ^ s_1[0][0])))), -32292), s_5) | 0UL)), 10L ^ s_7++) | 1)), '?', (long)M12('O', s_7), (long)(s_3 / (char)((char)(8609770907188972239UL ^ (ulong)M17()) | 1))), s_1[0][0], (char)M16(new ulong[]{18446744073709551614UL, 8011124248629964618UL, 7470916233290916613UL, 5824210179738448600UL, 1UL, 6274079404921297990UL, 11266902145466987549UL, 5431686465683200974UL}), 7052671048866090764L, -9223372036854775807L)), M10(), 1L), 1943767248159808296L) != (ulong)(45 / (long)((long)M11((short)M19((short)((long)M14(0) + s_6[0]))) | 1)))
            {
                s_4 = s_4--;
                if (false || M15())
                {
                    s_6 = new byte[]{254, 0, 0};
                    s_5 = (sbyte)M14((ushort)M13(s_5, s_4, M8(1, s_1[0][0], (char)(36056 - (ushort)M16(new ulong[]{0UL, 1UL, 18446744073709551614UL, 18446744073709551614UL, 2UL, 18446744073709551614UL, 5210782487092535702UL, 9150278871533177430UL, 14065408001960535576UL, 0UL})), 9223372036854775806L, -9223372036854775807L)));
                    M11(s_7);
                    s_8 = (int)M9((ulong)(9223372036854775807L - s_5), s_7, (sbyte)(30362 ^ (ushort)M13(s_5, s_4--, (ulong)M11((short)M17()))), s_5);
                }
                else
                {
                    M12((char)(M12('F', s_3) | s_7), s_7);
                    s_6[0] = s_6[0];
                    {
                        if (M15())
                        {
                            short var0 = -1974;
                        }
                    }

                    {
                        if (7571801231746743701L >= 11978)
                        {
                            s_1 = s_1;
                        }

                        s_6 = new byte[]{255, 254, 1, 155, 1, 0, 234, 0, 1, 255};
                        s_9 = s_8;
                    }

                    s_2[0] = s_2[0];
                }

                M20(new short[]{32563, -949, 26172, -9280});
                if (M15())
                {
                    M8((ushort)M17(), s_2[0], (char)M20(new short[]{32767, 1, 20665, -2, 1, 0}), 7053405135085726964L, (long)(M21(s_6[0], s_11[0, 0], s_11[0, 0], new bool[]{false, true, true, false, true}, new long[]{-4209479500009481051L, 0L, -657680981198816957L, -1L, -7395503908685012L, 9223372036854775807L, 341057428475599836L, 1289902122047985344L, 7380787594997474423L}, (ulong)(s_6[0] & 3205587400659656020L), s_6[0]--) | s_11[0, 0]));
                    if (M18())
                    {
                        long var1 = 33357399966781681L;
                        s_1[0][0] = s_2[0];
                        uint var2 = s_1[0][0];
                        M20(new short[]{1, -28227, -3605, 0, -32768, 2, -24770, 32766});
                    }

                    long var3 = s_10--;
                    s_14 = s_13++;
                    M17();
                }
                else
                {
                    if (false)
                    {
                        s_10 = (long)M20(new short[]{15214, 0, 32767, 32767, 1275});
                    }
                    else
                    {
                        s_6 = s_6;
                    }

                    s_11 = s_11;
                }
            }

            if (M15())
            {
                --s_10;
                s_14 %= (short)(M21(s_6[0]++, s_11[0, 0]++, s_11[0, 0], new bool[]{true, false, true, true, false, false}, new long[]{-8567334331353701084L, 0L, 8606054747465947684L, -8654705933745696882L, -2136526099972274614L}, (ulong)M9(5076647317009743455UL, -32767, -122, s_5), (byte)M11(s_12)) | 1);
                s_9 = s_8;
            }
        }

        return s_4;
    }

    static ulong M8(ushort arg0, uint arg1, char arg2, long arg3, long arg4)
    {
        arg2 = arg2;
        return 8465517931893461560UL;
    }

    static sbyte M9(ulong arg0, short arg1, sbyte arg2, sbyte arg3)
    {
        long var0 = -9223372036854775807L;
        if (false)
        {
            s_1 = new uint[][]{new uint[]{4294967295U, 1785354119U, 2365925564U}, new uint[]{1U, 3716903028U, 1U, 3211181502U, 4294967294U, 422364207U, 4294967294U, 1U}, new uint[]{2507070580U}, new uint[]{4294967295U, 142372296U, 3847218057U, 302496860U, 1479093223U, 1769938227U, 4294967294U, 2753446504U, 1U}, new uint[]{4294967294U, 4294967295U, 10U, 1U, 1U, 2U, 0U}, new uint[]{3455522720U, 4010448051U, 516597329U, 0U, 3206207913U, 4294967294U, 1U}, new uint[]{1155630442U, 1U, 0U, 4130315848U}, new uint[]{1519897991U, 0U, 760199209U, 4294967295U, 3003222451U, 4294967294U, 1U}};
        }
        else
        {
            arg1 = arg1;
            s_1 = s_1;
        }

        return arg3;
    }

    static long M10()
    {
        {
            s_1 = s_1;
            if (true)
            {
                s_1[0] = s_1[0];
                s_1 = new uint[][]{new uint[]{0U, 4294967295U, 0U, 2543586679U, 0U}, new uint[]{0U, 0U, 4202419406U, 0U, 4294967295U}, new uint[]{0U, 1U, 10U, 3924911310U}, new uint[]{4294967295U, 3794094770U, 1U}, new uint[]{1U, 1U, 1634427972U}, new uint[]{3191251516U, 1U, 743771014U, 673076158U, 1U}, new uint[]{533268924U, 3733423167U, 1U}, new uint[]{1U, 0U}};
                s_2 = s_2;
                short var0 = 1;
            }

            if (true)
            {
                s_1[0] = s_1[0];
                sbyte var1 = -1;
                if (true)
                {
                    s_3 = s_3;
                }
                else
                {
                    if (false && true)
                    {
                        s_3 = s_3--;
                    }

                    M11((short)M11((short)M11(s_3++)));
                    s_1[0] = s_1[0];
                    if ((ushort)M11(s_3) <= (long)M11(s_3))
                    {
                        s_1[0] = s_2;
                        if (false)
                        {
                            s_1 = s_1;
                            uint[] var2 = new uint[]{4294967294U, 0U, 1201080178U};
                            var1 = var1;
                            s_2 = s_2;
                        }

                        if (12722 != var1)
                        {
                            M11(s_3);
                        }

                        M11(s_3);
                    }
                }

                s_1[0][0] = s_2[0]--;
            }
            else
            {
                s_1[0][0] = 4294967295U;
                s_1 = s_1;
            }

            s_1[0][0] = 2175981515U;
            s_3 = -32767;
            s_2[0] = s_2[0];
        }

        s_1 = new uint[][]{new uint[]{2252162270U, 3778678799U}};
        M11(s_3++);
        if (-6098080731543028572L != '_')
        {
            if (true)
            {
                long[][] var3 = new long[][]{new long[]{9223372036854775807L, -5332336331249493567L, 1L}, new long[]{9223372036854775806L, -5313812856740978749L, 3245263017051263983L, -1647674759539174272L}, new long[]{9223372036854775807L, 0L, 0L}};
                if (false)
                {
                    s_2 = s_2;
                    s_2 = s_2;
                }

                s_2[0] = 747636930U;
                s_2[0] = s_1[0][0];
                long var4 = var3[0][0]++;
                M11(s_3);
                bool var5 = false;
            }

            s_2[0] = s_2[0]--;
            byte var6 = (byte)M11(-9371);
            if (false)
            {
                long[] var7 = new long[]{0L};
                var7[0] = var7[0];
                s_2 = new uint[]{1U, 2113193953U, 2081950897U, 706370543U, 2809580485U, 312340577U, 1U, 698677284U};
            }
        }

        ulong[] var8 = new ulong[]{1UL, 1UL, 1UL};
        var8[0] = var8[0];
        return (long)(s_1[0][0] & 142);
    }

    static sbyte M11(short arg0)
    {
        s_2[0] = s_1[0][0];
        {
            s_2 = new uint[]{1U, 1951240742U, 2U, 1U, 1U};
            arg0 = 25190;
        }

        return 0;
    }

    static sbyte M12(char arg0, short arg1)
    {
        s_1 = s_1;
        if (true & false)
        {
            s_3 = -32767;
            if (false || (arg0 <= 2))
            {
                s_3 = -6109;
            }
            else
            {
                int var0 = 1;
            }
        }
        else
        {
            {
                arg1 = arg1;
                {
                    {
                        {
                            short[] var1 = new short[]{-1, 1, -27499, 9782, 32767, -22717, 1713, 1, 0};
                            s_3 = s_3;
                            arg0 = '/';
                        }

                        if (s_3 < 972629058)
                        {
                            M13((sbyte)((ulong)M17() / (ulong)(2648729668312490119UL | 1)), s_4, 9463178016348543789UL);
                        }
                        else
                        {
                            char var2 = arg0;
                            s_1[0] = s_1[0];
                            s_2 = s_2;
                        }

                        arg0 = arg0++;
                        if (true)
                        {
                            s_6 = s_6;
                            s_2[0] = 2592126332U;
                        }
                        else
                        {
                            s_1 = s_1;
                            ++arg0;
                        }
                    }

                    if (false)
                    {
                        ulong var3 = 16948311923737306997UL;
                        s_1 = s_1;
                        s_4 = M13(1, -2, var3);
                        int var4 = s_4;
                        s_3 ^= 24576;
                        s_5 = s_5;
                        int var5 = 0;
                    }

                    s_7 = arg1--;
                    if (false)
                    {
                        {
                            long[] var6 = new long[]{-5596392226781341606L, 7066362882604199524L, -9223372036854775808L, 1L, 0L, 9223372036854775807L, 9223372036854775806L};
                            s_1[0][0] = s_2[0];
                        }
                    }
                    else
                    {
                        s_1[0][0] >>= s_4;
                        s_1 = new uint[][]{new uint[]{3126410478U, 3588605946U, 0U, 4294967295U, 4294967294U, 1120609678U}, new uint[]{4294967294U, 0U, 1U, 1582005509U, 1U, 4294967294U, 2565373424U}, new uint[]{1U, 4294967295U, 1149066339U, 1U}, new uint[]{1U, 0U, 3712934018U, 1099378357U, 10U, 4054821498U, 1U, 1361492261U}, new uint[]{1453290883U, 0U, 3310643939U}, new uint[]{173284926U, 1U, 4265302556U, 0U, 0U, 0U, 0U}, new uint[]{553099720U, 1U}, new uint[]{2570757329U, 4294967294U, 1U, 2228820142U, 1867263380U, 0U}};
                        s_5 = s_5;
                        long var7 = -2L;
                        s_7 = s_7;
                        {
                            s_1 = s_1;
                            s_2 = new uint[]{2155541011U, 2018865989U};
                            M19(23834);
                        }
                    }

                    s_5 = 126;
                    return s_5;
                }

                M17();
                ushort[] var8 = new ushort[]{26983, 0, 28283, 26528, 2, 1};
            }

            ushort var9 = (ushort)(s_1[0][0] % (short)(s_3 | 1));
            long[] var10 = new long[]{1L, 0L, 644440344990254708L, -5596012849879905028L, -10L};
            s_5 = 127;
            {
                arg1 = -12458;
                M16(new ulong[]{11129076244719612732UL, 1UL, 1650524496084566097UL, 10180922265268144407UL, 15077433551331770706UL, 0UL, 1117062722100647458UL});
                return 127;
            }
        }

        int[] var11 = new int[]{-2, -1, -10, -1741814773};
        if (M18())
        {
            if ((short)M13(127, var11[0], 1UL) <= s_6[0])
            {
                s_6[0] = (byte)(-9223372036854775808L & arg1);
            }
            else
            {
                s_2 = new uint[]{681219775U, 942455064U};
            }

            if (false)
            {
                s_3 = arg1++;
            }
            else
            {
                s_7 = s_7;
                if (false)
                {
                    --s_3;
                }
            }
        }
        else
        {
            s_7 = 32296;
            if (true)
            {
                s_2 = s_2;
            }

            arg0 = arg0;
        }

        return 127;
    }

    static int M13(sbyte arg0, int arg1, ulong arg2)
    {
        ushort var0 = (ushort)(-650616207920443715L / (char)((char)(62547 | arg2) | 1));
        M14(var0);
        if (M15())
        {
            var0 -= var0;
            s_1 = s_1;
            if (false)
            {
                bool[,, ][, ] var1 = new bool[,, ][, ]{{{new bool[, ]{{true}}, new bool[, ]{{true}, {true}}, new bool[, ]{{true}, {true}}, new bool[, ]{{false}}, new bool[, ]{{true}}, new bool[, ]{{true}}, new bool[, ]{{true}}, new bool[, ]{{true}}}}};
                var1 = var1;
                s_7 >>= s_4;
            }

            short var2 = (short)(1UL | s_1[0][0]);
        }
        else
        {
            s_1 = s_1;
            {
                arg2 = arg2;
                s_2[0] = (uint)M14((ushort)(1711836803 ^ (char)('@' | s_5)));
            }
        }

        s_6 = new byte[]{111, 130, 0, 255, 0, 254, 254, 10};
        s_6[0] = M19(-27565);
        s_4 = arg1;
        {
            s_1 = new uint[][]{new uint[]{0U, 0U, 2237305988U, 4294967294U, 1446187199U, 4294967295U}, new uint[]{0U, 0U, 417520229U, 2772677985U, 1U, 1U, 0U, 4294967294U}};
            M14((ushort)(M16(new ulong[]{0UL, 1UL}) & arg2));
        }

        if (false)
        {
            M18();
            if (false)
            {
                {
                    s_5 = arg0;
                    short var3 = s_3;
                }

                var0 = var0--;
                M18();
                if ((long)M19((short)M14(var0)) > var0)
                {
                    s_1[0][0] = s_1[0][0];
                    s_6[0] = M20(new short[]{-32768, 10, -21716, 32767, 1, 1, 27403, 25280});
                }

                ulong var4 = arg2;
                s_7 = s_3;
            }
        }

        s_2[0] = (uint)(s_6[0] * var0);
        return -2147483647;
    }

    static int M14(ushort arg0)
    {
        s_2[0] = s_2[0];
        s_3 = s_3;
        s_2 = s_1[0];
        return -727869477;
    }

    static bool M15()
    {
        {
            if (true)
            {
                s_1 = s_1;
                short var0 = -16312;
                short[] var1 = new short[]{-31168, 2, 0, 0, 1, -32767, 0, -1, 1, -8904};
            }

            s_2[0] = s_2[0];
        }

        s_1[0][0] = s_2[0]++;
        byte var2 = 226;
        {
            s_1 = new uint[][]{new uint[]{197489543U}, new uint[]{0U, 0U, 1529416010U, 730281311U}, new uint[]{4086778427U, 3365389230U, 1U, 4294967294U, 2850474044U, 1U}, new uint[]{1U, 1991831475U, 2U}, new uint[]{3249718290U, 2405224781U, 0U, 4294967295U, 2014031211U}, new uint[]{1U}, new uint[]{2545244752U, 1072428819U, 1465574500U}, new uint[]{0U, 1U, 4294967294U, 1301855205U}, new uint[]{2751272368U, 4294967295U}};
            int var3 = 91618166;
            if (true)
            {
                {
                    M16(new ulong[]{13721305205339011688UL});
                    if (true)
                    {
                        M16(new ulong[]{14179306927226799250UL, 11241894506826902547UL, 14607569670851779864UL, 18446744073709551615UL});
                    }
                    else
                    {
                        char var4 = 'H';
                    }
                }
            }
            else
            {
                M17();
            }

            s_4 = (int)M16(new ulong[]{1UL, 12165215717974388342UL});
        }

        s_1 = s_1;
        if (false)
        {
            s_5 = s_5;
            return false;
        }
        else
        {
            s_2[0] = s_2[0]--;
            s_2[0] = s_2[0];
            s_5 = (sbyte)M16(new ulong[]{18446744073709551615UL});
            s_4 = (int)M17();
            if (true)
            {
                s_6 = s_6;
            }
            else
            {
                s_1[0][0] = s_2[0];
                s_1[0] = s_1[0];
            }

            if (false || false)
            {
                s_1[0] = new uint[]{1067773740U, 0U};
            }
        }

        if (true)
        {
            if (M18())
            {
                s_2 = new uint[]{4294967295U, 1117742313U, 1U, 3954966159U, 454588425U, 0U, 1U, 2947604526U, 328253763U};
                if (true)
                {
                    char var5 = (char)(s_5 + (ushort)(s_6[0]-- & 1));
                }

                var2 = var2;
            }

            if (true)
            {
                M16(new ulong[]{2657575174200731776UL, 0UL, 0UL, 1UL, 0UL, 17673381989793282279UL, 6918484291145900558UL});
                s_4 = s_5 ^ '{';
                ushort var6 = 0;
            }
            else
            {
                sbyte var7 = 0;
                s_3 = (short)M19((short)((char)M16(new ulong[]{18340848075478622449UL, 1UL, 6453355395520780978UL, 2UL, 11013923616174928535UL}) * s_7++));
            }
        }

        s_4 = s_4;
        return true;
    }

    static byte M16(ulong[] arg0)
    {
        {
            s_3 = (short)(216 / (int)((int)(-10 ^ s_1[0][0]) | 1));
        }

        if (true)
        {
            s_2[0] >>= 2009168506;
        }
        else
        {
            M17();
        }

        {
            int var0 = s_4;
            if (false)
            {
                s_4 = var0++;
                arg0[0] = arg0[0];
            }
        }

        return 168;
    }

    static byte M17()
    {
        {
            char var0 = ',';
            int var1 = (int)((short)(60407874 % (short)(s_3 | 1)) * 226712129U);
            {
                s_2 = new uint[]{878995414U, 1U, 173408806U};
                s_2 = s_2;
                s_2 = new uint[]{4294967294U, 174428930U};
            }
        }

        s_4 = 0;
        return 1;
    }

    static bool M18()
    {
        s_1[0] = s_2;
        s_2[0] = 2U;
        s_6 = s_6;
        if (s_4++ > 9042486186997817450L)
        {
            uint var0 = s_2[0];
        }
        else
        {
            long var1 = 1L;
            if (false)
            {
                s_4 = 1740348590;
            }
            else
            {
                if (true)
                {
                    s_6 = s_6;
                    s_6 = new byte[]{1, 0};
                    byte var2 = s_6[0];
                    s_7 = 1;
                }

                M19(s_3);
                s_1[0] = s_2;
            }
        }

        long[] var3 = new long[]{1840130513546867590L, 5613260899358888991L};
        return ('?' < 6529393467798465064L) ^ false;
    }

    static byte M19(short arg0)
    {
        s_6 = s_6;
        return (byte)(s_5 | 0);
    }

    static byte M20(short[] arg0)
    {
        s_1[0] = new uint[]{745672272U, 2370522003U, 1U, 280539322U, 1924636270U, 2219142161U, 660541914U, 3613258149U, 1U, 0U};
        s_2 = s_1[0];
        return s_6[0];
    }

    static short M21(byte arg0, ushort arg1, ushort arg2, bool[] arg3, long[] arg4, ulong arg5, byte arg6)
    {
        s_10 = 1L;
        {
            s_7 = 929;
            long[] var0 = arg4;
            {
                char[][] var1 = new char[][]{new char[]{'_', '?', 'Y', 'u', '#'}, new char[]{'z', 'U', '`', 'g', ':', 'Q', ']', 'u'}, new char[]{'+', '?', 'M'}, new char[]{'J', ')', '5'}, new char[]{'B', 'U', 'm'}, new char[]{'N', 'D', '{', '!', 'p', ',', 'B'}};
                {
                    ulong var2 = arg5;
                }
            }
        }

        {
            M22();
            if (('t' >= (char)(2L | s_3)) || (arg4[0] == arg0))
            {
                s_1 = new uint[][]{new uint[]{2U, 1U}};
                s_6 = s_6;
                arg0 = arg0;
                M22();
                if (arg3[0])
                {
                    s_7 = s_7++;
                    ++s_1[0][0];
                }
                else
                {
                    if (arg0 == '?')
                    {
                        sbyte var3 = s_5;
                    }
                    else
                    {
                        M22();
                        s_10 = s_10;
                        s_8 = s_4;
                        s_11 = new ushort[, ]{{35155, 65535, 59541}, {26648, 0, 47352}, {29636, 30894, 1}, {10, 15597, 65534}, {4879, 27998, 0}, {1, 7343, 13815}};
                    }
                }

                arg3 = new bool[]{false, false, true, true, true, true, false, false};
                M22();
                {
                    {
                        M22();
                        s_6[0] = 1;
                        arg3[0] = arg3[0];
                        s_6[0] = s_6[0]++;
                    }

                    int[][] var4 = new int[][]{new int[]{0, 1, 0}, new int[]{2147483647, 1654888425, 10, 1254788805, -1976115859, -2147483648, 1829141745, 0}, new int[]{0, 825799619}, new int[]{2147483646, -1057451152, -1985652947, 1047838497, -1736436164, 2147483646, 0, 1079067035}, new int[]{2147483647, 0, -1803621041, -2147483648, 2, 0, 1562764840}};
                    M22();
                }

                sbyte var5 = s_5;
                sbyte var6 = s_5;
                arg0 = arg6;
                {
                    if (arg3[0])
                    {
                        if (arg3[0])
                        {
                            s_5 = var6;
                            ulong var7 = 16420744089208725152UL;
                            s_1 = s_1;
                            if (arg3[0])
                            {
                                arg3[0] = arg3[0];
                                s_8 = -1091782670;
                            }
                            else
                            {
                                arg3[0] = arg3[0];
                                s_3 = s_7;
                            }

                            if (arg3[0])
                            {
                                arg0 = arg0;
                                M22();
                            }

                            {
                                M22();
                                s_12 = s_7;
                                M22();
                            }
                        }
                    }
                }

                short var8 = 0;
                {
                    if (arg3[0])
                    {
                        s_7 = s_3;
                        arg5 = arg5;
                        s_2[0] |= 3881141644U;
                        arg5 = arg5;
                        byte[] var9 = s_6;
                        s_12 = -16829;
                        var8 = -1;
                    }

                    long var10 = s_10;
                    return s_7--;
                }

                long var11 = -325367295193074171L;
                s_9 = s_8--;
                s_12 = -29908;
                M22();
            }

            short var12 = s_3;
            s_6 = s_6;
            M22();
            s_1[0] = new uint[]{1377205289U, 3117311491U, 4294967294U, 2676772206U, 3531844427U, 4051575934U, 10U, 804106889U, 428829503U};
        }

        M22();
        s_5 = -21;
        arg2 = 22849;
        sbyte[] var13 = new sbyte[]{-128, -127};
        s_3 = s_3--;
        s_2[0] = s_2[0];
        if (false)
        {
            s_13 = s_3;
        }
        else
        {
            arg4 = arg4;
        }

        short var14 = -32768;
        return s_7++;
    }

    static ushort[] M22()
    {
        s_10 = s_10;
        s_1[0] = new uint[]{0U, 1U, 3413208917U, 2024257199U, 1760426920U, 1897376340U, 2U, 4237405679U, 4294967295U, 4294967294U};
        return new ushort[]{46085};
    }

    static bool M23(bool arg0)
    {
        if (arg0)
        {
            s_12 = s_3;
        }

        short var0 = -10;
        {
            {
                s_5 = s_5;
                s_10 = s_10;
                s_2[0] = s_15;
            }

            M24(1802168410277874597L, '0', new ushort[]{2, 0, 5601, 65535, 9703, 32054, 25917, 51285, 1, 1}, s_7, s_1[0][0]--, s_3);
        }

        if (true)
        {
            if (arg0)
            {
                s_11[0, 0] = s_11[0, 0];
                M24(s_10, (char)(M25((char)(M25((char)(s_1[0][0] / (int)(s_8 | 1)), new long[, ]{{-9223372036854775808L, 0L, -4040793917512185084L, 1L, 10L, -9223372036854775808L, -3693511249265930193L}, {730449994977475490L, 10L, 1191385276443449056L, -9223372036854775808L, 0L, 1L, 8771543962399411698L}}) % (short)(-1 | 1)), new long[, ]{{9148077972483087195L, -5024212118466940587L, 2L}, {9223372036854775806L, 0L, -1L}, {9223372036854775807L, 10L, 0L}, {7553850615043456083L, 9223372036854775806L, -5451942544758054183L}, {-7892946208538101951L, -9223372036854775808L, -10L}, {5772539822412858939L, 0L, 0L}, {2L, 10L, -9223372036854775808L}, {0L, -1L, 9223372036854775806L}, {-9223372036854775808L, 10L, 0L}, {0L, -3426183786524110730L, 9223372036854775806L}}) + -1897016181292272107L), new ushort[]{63474, 10, 65534, 1, 65534, 19066, 0, 1, 65535, 35421}, s_13, s_15, s_7);
            }
            else
            {
                M25((char)M25('x', new long[, ]{{-9223372036854775807L}, {5372846043447277544L}, {9223372036854775807L}, {1501888039512379140L}, {-9223372036854775808L}, {0L}, {2L}, {6184437632590054953L}, {1L}, {8069487062615046450L}}), new long[, ]{{-6883758031647579459L, 7242117371680147198L, 2L, 467415265294525026L, 0L}, {-5516015955552345456L, 4899733465677065732L, 1L, 1L, -2L}, {-2637646516696245421L, -9223372036854775808L, -2703768821020954634L, -9223372036854775808L, -9026863713530956385L}, {0L, 6888025944444187732L, -9223372036854775808L, 1L, 5713837869275396579L}});
            }

            long var1 = s_10--;
        }
        else
        {
            s_1[0] = s_2;
            s_1[0][0] = s_1[0][0];
        }

        if (true)
        {
            s_6[0] = s_6[0];
            M24(s_10, (char)('=' ^ (int)(s_11[0, 0]++ % (ulong)((ulong)M25('}', new long[, ]{{-7028846937922638665L, 1L, 0L, 0L, 1L, -351355959247109556L}, {3025621914482806043L, 9223372036854775807L, 0L, 9223372036854775806L, -9223372036854775808L, -9223372036854775808L}, {-9223372036854775807L, -5615626625774882105L, -9223372036854775808L, 7193622787795269654L, 8345739114645977152L, 1L}, {0L, 10L, 8953696221528335296L, -6440825464130037413L, -9223372036854775807L, 0L}}) | 1))), new ushort[]{4180, 18591, 11216}, s_12, s_15, 0);
        }
        else
        {
            s_1 = s_1;
            short var2 = (short)M25('?', new long[, ]{{2L, 0L, -8333946682915366381L, 8260680505118075165L}, {8396948016417434702L, 10L, -4491187908695618498L, 8180434494612103634L}, {9223372036854775807L, -1982379053998621887L, -7462794839001331624L, 1L}});
        }

        return arg0;
    }

    static byte[][][][][] M24(long arg0, char arg1, ushort[] arg2, short arg3, uint arg4, short arg5)
    {
        arg0 = s_10--;
        return new byte[][][][][]{new byte[][][][]{new byte[][][]{new byte[][]{new byte[]{255, 254, 222, 1, 0}}}, new byte[][][]{new byte[][]{new byte[]{39, 170, 154}}}, new byte[][][]{new byte[][]{new byte[]{0, 167, 188, 1, 0, 118}, new byte[]{0}}}, new byte[][][]{new byte[][]{new byte[]{1}}}}};
    }

    static ushort M25(char arg0, long[, ] arg1)
    {
        s_1[0] = new uint[]{4294967294U, 417743965U, 1U, 249941352U};
        sbyte var0 = s_5--;
        return 42410;
    }

    static ulong M26()
    {
        if (true)
        {
            {
                {
                    s_11[0, 0] = 10;
                }

                char var0 = (char)('8' ^ s_12);
                uint var1 = s_2[0];
                {
                    {
                        M27(2147483647, s_6[0]++, s_13);
                    }

                    short var2 = s_13;
                    s_2 = s_2;
                    M27(s_4, s_6[0], var2);
                }
            }

            ushort var3 = s_11[0, 0];
            --s_6[0];
        }
        else
        {
            if (true)
            {
                s_15 = s_16;
                M27(s_8, 1, s_12);
            }
        }

        return 17075899341076387407UL;
    }

    static ulong[][] M27(int arg0, byte arg1, short arg2)
    {
        s_11[0, 0] = s_11[0, 0];
        return new ulong[][]{new ulong[]{2024717932237203900UL}, new ulong[]{0UL, 10999655419836842664UL}, new ulong[]{0UL, 17429037365065776111UL}};
    }
}